70 200
# 0.13726537 0.24812695 -0.07239805 0.47532356 0.35806143 -0.0570009 0.27095553 -0.50082856 -0.07089672 0.11498124 -0.8485055 0.21370432 0.16809206 0.784121 -0.3742775 3.6124911e-06 0.029068125 -0.03547188 0.3258956 0.12475461 0.21813445 0.72432745 0.06452621 -0.11441244 -0.45015788 0.06417451 -0.7149299 0.1874493 -0.15149672 0.27722642 -0.13351312 0.20842642 -0.21366669 -0.09828018 0.1889879 -0.005600341 -0.39439338 0.027244963 -0.6683899 0.3640933 0.008986461 -0.027485237 -0.15197307 -0.08386621 0.0127734 -0.3546093 -0.12668723 0.4464526 -0.20537956 0.5340435 0.2357248 0.10900469 -0.17516038 -0.16872956 -0.21256518 -0.12344763 0.101297975 9.337058e-05 0.011374275 -0.3295478 0.36246994 -0.001559175 -0.28644758 -0.21840374 -0.18161844 -0.45197713 0.12989937 0.33012375 -0.12085066 -0.10631095 -0.46296358 0.3681945 -0.28928098 -0.024868391 -0.26700425 -0.32778537 -0.5434039 0.36374143 0.2141618 0.03400658 0.08276279 -0.10086639 -0.33749342 0.035365276 -0.05360348 0.14875397 -0.24474393 -0.26741913 0.13732864 -0.51320946 0.0010274925 0.21221727 -0.102889106 -0.34705827 -0.1406199 0.6590811 0.19135496 -0.24368775 0.14151007 -0.123821944 0.4732024 -0.14940944 0.14340642 -0.023703124 0.1936137 -0.17844251 0.09749031 -0.03365059 0.17662829 -0.0678579 0.06052481 -0.2214047 0.1455997 0.26309043 -0.09057217 0.14973289 -0.55050373 -0.70034087 0.27455783 -0.2453266 -0.22964376 -0.02086002 0.32291126 -0.18958774 -0.25942668 0.46230865 0.2885832 -0.116364904 0.13278052 -0.16043998 0.11141513 0.18912503 -0.49279213 0.010252464 0.02299802 0.014693547 0.0026930766 -0.08797347 -0.10444003 -0.6076989 0.13720904 0.23438995 -0.52256715 0.08036066 0.28851166 0.26013392 0.065163516 0.3133101 0.81196195 -0.22795647 0.42656395 -0.33236462 -0.0011672816 0.3047216 0.04683691 0.11537799 -0.11222045 -0.085926175 -0.33167854 0.05013304 0.19638252 0.6055801 0.15073283 -0.17360735 -0.27563646 -0.07266925 0.09680055 0.34957513 -0.5258 -0.32464212 0.055278677 -0.21718968 0.62959963 -0.148673 0.61019176 0.5972128 -0.14149603 0.6356446 -0.14511372 -0.106651165 -0.26518008 0.4473713 -0.3561657 -0.42962298 0.42690632 -0.219489 -0.44804588 0.083551615 -0.37250125 0.0621859 0.41308564 0.027037522 0.13039061 -0.18590236 -0.21120481 -0.11249449 0.12880236 0.27448225 0.30481353 0.1789119
AH0 0.070202105 0.2681405 0.37419719 0.63472927 0.24635363 -0.13601942 0.013540933 -0.47233987 0.044670757 0.05214626 -0.596624 0.10606624 0.20695162 0.1800609 -0.6996168 0.030350046 -0.31674606 0.06650537 0.15127395 -0.28168494 -0.2163964 0.39876056 0.05144248 0.19748218 -0.2777782 -0.00065034366 -0.47825444 0.28879365 0.15379187 -0.5988526 0.5918617 -0.23540483 -0.03041452 -0.19619587 -0.098420456 -0.33839074 -0.08575169 0.22002594 -0.3853846 -0.2067895 0.09227154 -0.18018332 -0.5941192 0.22512911 -0.020093283 -0.094143055 -0.5964172 -0.42436346 -0.026078148 0.03345472 -0.32629716 -0.49274588 -0.17467882 -0.011884276 0.1124274 0.12652794 0.09060364 -0.11689047 -0.2520386 0.054866493 0.06693744 0.0672598 -0.022152916 0.034908824 -0.12033633 -0.071502425 -0.15173033 -0.01741762 -0.14968185 0.002756662 -0.21527562 -0.18477334 -0.0514715 0.08873341 -0.1705309 0.013040069 -0.030537276 -0.19243892 0.05925218 0.3199507 0.0228126 0.22691832 0.0128014 0.012482603 0.13661957 0.032036252 0.1933634 0.063761055 -0.06365967 0.1632114 -0.12981187 0.21780658 -0.23466007 -0.09407627 0.08784635 -0.025287243 0.1464999 0.30378455 0.11141698 0.090576194 0.08899946 -0.023226205 0.29023507 0.113166176 0.45383564 -0.26187512 -0.115142554 -0.069285735 -0.07615359 -0.16545708 0.08785585 -0.009696106 0.29007345 0.038855962 -0.118155465 0.10515681 -0.21734734 0.04588066 0.20383288 0.16064611 -0.16102594 -0.15427883 -0.019005777 -0.060833793 -0.3424288 0.048013903 -0.1446129 -0.04801985 0.1745959 -0.119661935 -0.027924433 -0.040430244 -0.03287691 -0.47973645 -0.18003462 0.0309191 0.22315405 0.085499965 -0.017722394 -0.07743882 -0.123102255 -0.24856861 -0.21638788 0.44492355 0.087157965 0.16200747 0.07684647 -0.16457361 0.29153147 -0.12996842 0.42535183 -0.09068287 0.36402196 -0.12732026 -0.07888178 -0.0041273953 -0.1963475 -0.10880565 -0.033674452 -0.22652747 0.28498986 0.2761673 0.09622345 -0.12076129 0.17118292 0.0690732 0.07368497 -0.16816974 0.07211629 -0.12358298 0.040318694 -0.032560233 0.17930417 -0.15576105 0.33163282 0.18924394 -0.074432045 -0.12960137 0.17364745 0.018789122 -0.2592202 -0.20367055 0.3135412 0.12092296 0.31654075 -0.05286135 -0.057638887 0.071598575 0.17883177 0.11864698 0.027219348 -0.1971036 0.4238764 -0.22637443 0.15931913 0.15900885 -0.14754169 0.73562276 -0.04905642 -0.34745026
N -0.26827383 0.2905116 -0.18825401 -0.28645608 0.10771616 -0.019331682 0.21751249 -0.026967948 -0.12870574 0.35952815 0.017957462 0.27904418 -0.2082495 -0.05812976 0.06333558 0.119302474 0.22651228 0.026831381 -0.14283554 0.39311647 0.28092596 0.15813848 0.020678291 -0.03440496 -0.40033856 -0.22294652 0.34373406 0.05264767 -0.14981467 0.2546098 -0.74789786 0.08833424 -0.46273 -0.35633317 0.122528285 0.21769787 0.14328526 0.24975841 -0.07185074 0.30742988 -0.044515666 -0.3627617 -0.38612622 -0.24467888 -0.032658022 -0.4442595 0.053273387 -0.22387283 -0.18152234 0.06764873 -0.14385055 -0.12334011 0.08837532 0.0021371143 -0.32425877 -0.16173886 -0.08644732 0.11445891 0.00949266 -0.1262568 -0.005799056 0.07097689 -0.13061288 0.22672291 0.14089426 -0.16162679 -0.0014328159 0.020957869 0.1381154 -0.35183495 -0.1144785 0.49117664 -0.18344004 -0.06808976 -0.27196032 -0.16519605 -0.22080953 -0.034160223 0.2308089 0.110058896 0.114084154 0.50710785 -0.14818588 0.01462918 -0.022504725 0.2132146 -0.34646416 -0.36209986 -0.04327545 0.041030433 0.011004196 0.16714321 0.025209954 -0.1763413 -0.08636633 0.06697493 -0.12801035 0.29792422 -0.092389256 -0.08765882 -0.09908255 -0.097239345 0.32289746 0.030067349 0.37133175 -0.054395482 0.05843946 -0.1567248 -0.04765849 -0.10442207 0.30231196 -0.073272675 0.22815454 0.32602337 -0.1761865 -0.01944085 0.01084236 0.17761202 -0.065612055 0.19995348 0.01619681 0.2731585 0.33068758 -0.08073212 -0.122611135 0.23098296 0.0291243 0.0021020572 -0.06652243 -0.03236419 0.019335607 0.029611439 0.5333759 -0.3567066 -0.16995648 0.29421058 -0.2697852 -0.003748802 0.08802473 -0.09087034 0.21396163 0.34045213 0.070521384 0.13733603 0.12437919 0.2913597 0.12896742 -0.21601102 0.08618181 0.04818458 0.376439 0.18857734 0.03488702 -0.14976154 -0.094804354 0.061380893 -0.3100854 -0.27311638 -0.25779203 -0.19556166 0.02988366 0.08305505 0.16959526 -0.15474775 -0.4882335 0.2617662 -0.17324299 0.026934385 0.068797685 -0.12636092 -0.09328773 -0.032992017 -0.087109186 0.02714418 -0.008657057 0.1883957 -0.13852827 -0.093918085 -0.046598323 -0.2966779 -0.37774423 -0.037495505 -0.015464483 0.115846545 -0.0770279 0.31855583 0.06509763 0.18571894 -0.3583703 -0.0040104836 -0.10961626 -0.025442302 -0.38832018 0.32538554 0.21138082 -0.0787834 0.5306702 -0.5670414 0.25702867 0.30636635
S -0.024960417 -0.125756 0.24924156 -0.11195225 0.11793041 -0.027601585 -0.2021247 -0.15315334 -0.36406764 0.12155871 -0.010145041 -0.098989934 -0.15671338 0.5975526 -0.16979052 -0.073632956 0.12836415 0.13716647 0.18136588 0.05900218 0.0656015 0.058136426 -0.16687138 0.01103327 -0.031356033 -0.1996286 -0.042730566 0.0681293 -0.04848518 -0.19012523 -0.26457617 -0.14923851 -0.29919663 -0.05794564 0.17081904 0.46144545 0.15409963 -0.059626188 -0.12835948 0.45229474 -0.15195893 -0.3062946 0.27747047 0.23143858 0.024909524 -0.64718544 0.20777231 -0.042112283 0.1987467 0.5076336 -0.03996443 -0.10425291 0.19969591 0.002279886 -0.4602786 0.13173753 0.10769109 -0.18408267 0.0009863834 0.004542002 -0.02434508 0.24944866 -0.1308859 0.18896963 -0.092041776 -0.15555772 0.009800444 0.14930616 -0.035247862 0.19876269 -0.033421557 0.31290197 0.039723203 -0.024126673 0.14603904 -0.23826396 -0.014639194 0.35405627 0.3178611 0.05424284 0.07342984 0.20195533 -0.16783145 -0.2126203 -0.0066605993 0.2675531 0.11678601 -0.030468551 -0.00047161154 -0.20268346 0.31756848 0.5308265 0.10262448 0.30993953 0.059416864 0.044273987 0.09261656 -0.110984445 -0.15063661 0.34179032 -0.20081048 -0.057332415 -0.15689635 0.11682545 0.40541494 -0.1607794 0.17906749 0.2949615 0.13829285 -0.25069442 0.19402169 0.02760801 0.12773944 0.10569202 -0.03993728 -0.08972578 -0.018830672 -0.019884814 0.114395425 -0.069922164 0.21508124 -0.12652808 0.179209 -0.32853708 -0.4708966 0.20143661 -0.06705467 -0.112169616 0.071664885 -0.20254931 0.20951232 -0.099724695 0.20180531 -0.23702025 0.18780318 0.45351458 -0.2326247 0.08800209 0.17678374 0.0007400618 -0.07776353 0.17800279 -0.22417252 -0.35529593 -0.24649487 -0.11152198 0.09738741 0.15500036 -0.24894479 0.29240286 -0.27776816 0.1820733 -0.17739439 -0.20243825 0.102539204 0.13366152 -0.24447514 -0.27022344 -0.07999959 -0.21133837 0.10381959 -0.20492703 0.15129778 -0.0063572815 0.0042548976 -0.07169024 0.0060022343 0.006140563 0.10541754 0.06609883 -0.095956564 0.16645779 -0.1492073 0.117125176 0.2217459 -0.12045391 0.039049964 0.08696151 -0.04556155 -0.19543247 0.18290184 -0.11489222 -0.44407126 -0.069308065 -0.11789636 0.12048689 -0.1080043 0.016330205 -0.5598194 -0.0601263 -0.046105195 -0.069563426 -0.5462967 0.05837581 0.07203461 0.30353478 0.26177868 0.2334547 -0.17637321 0.23734033
L -0.3006057 0.20464775 -0.3486201 -0.46080312 0.013500059 -0.15274315 0.24209006 0.04267568 -0.14543419 0.106965594 0.6502398 0.20410524 -0.44854626 -0.03789709 0.63284105 0.21360567 0.085369244 0.019247923 -0.04092142 0.44526514 0.41779414 0.42170024 0.24111049 0.049817298 -0.24776587 -0.15809265 0.3218825 -0.15999864 0.039213054 0.3488913 -0.7465057 0.21968786 -0.14179136 -0.14966168 0.25617218 0.41711837 0.23635226 -0.075706095 -0.15290296 0.24562694 -0.13891234 0.020386588 -0.22615975 -0.02362737 0.29607898 -0.25440422 0.29536986 0.12299393 0.0071977265 0.5047798 0.2885909 0.19603902 0.28643462 -0.31342494 -0.18736237 -0.25242862 -0.07956494 0.11696422 0.2147611 -0.48402312 0.06250053 -0.04019587 0.09706982 0.12720805 0.07321184 -0.20449154 -0.13019101 0.002795637 0.39102283 -0.08230842 -0.13450934 0.6768797 -0.3174851 0.21523786 0.013533103 -0.018792588 0.075830154 0.38581997 0.1476637 0.21090718 0.2595626 -0.034458704 -0.1086318 -0.25164288 0.09335167 0.17174958 -0.25009513 -0.020961525 0.11815866 -0.19375798 -0.2767501 -0.05422504 0.026947118 0.0762326 -0.028777597 0.13208047 0.0012080545 -0.07854345 -0.17986384 0.14411159 -0.06921632 -0.039102428 0.14731261 0.06685289 -0.17297842 -0.09360979 0.2044823 -0.023455294 -0.064496435 -0.002591612 0.16636519 0.19801694 0.3531438 0.1024094 -0.062365454 0.22685009 -0.11286907 0.07119134 0.2463856 0.13461411 0.11893839 -0.047620013 0.02027989 0.015555059 -0.19550768 0.39546546 -0.066045016 -0.13502689 -0.034449883 0.07050501 0.057533544 -0.15810175 0.51179314 -0.23104513 0.13815482 0.13397653 -0.1774226 0.23911545 0.16875389 0.23336627 0.007425011 0.026814606 -0.20514597 -0.2172996 -0.23714247 0.024635373 -0.044914637 -0.031094104 -0.34863454 0.2754843 -0.11517651 -0.049269803 -0.050697785 -0.1086646 0.004189713 0.015771164 -0.2365264 -0.21962836 0.07734401 -0.058090772 0.05988413 0.052940894 -0.009602506 -0.2275247 -0.2576936 0.105655074 -0.05061809 -0.06355168 -0.025190197 -0.008852512 -0.2880833 -0.0010546448 0.25176167 0.1482219 0.054457933 -0.011106507 -0.06833798 0.04164149 0.042192254 0.014279086 -0.064899124 -0.10706193 -0.1401073 -0.041755665 0.09987316 0.024059465 0.14001958 0.120702036 -0.26437342 0.007881178 0.13729185 -0.026347583 -0.27715343 0.25322458 0.32422826 0.17108105 0.24443227 -0.23452505 0.04786759 0.01372901
T -0.23691122 -0.07812222 -0.475291 -0.032467782 0.14640029 -0.026540816 0.22637749 0.042727683 -0.1609868 0.018882783 -0.41877922 -0.08271084 -0.21439372 -0.04227989 0.39482728 -0.2304957 0.046996813 -0.036191568 -0.015278649 -0.18087766 0.38099056 0.373699 0.035850856 0.23852116 -0.53757805 0.07178904 0.024069263 0.17199805 -0.042310562 -0.16340806 -0.28206828 -0.15332763 -0.24077004 -0.10375973 0.15013786 0.15950021 0.12747876 -0.08032811 -0.7411633 0.23004815 -0.24852875 -0.017686993 -0.15796597 0.25632688 -0.12529258 0.19421189 -0.12833154 -0.18542075 0.05362101 0.37653598 -0.3760203 -0.5359085 -0.12981734 0.006320382 -0.071506925 0.45078212 0.02228265 -0.14113982 0.17226556 -0.4431164 0.21064289 0.17894593 -0.11906515 0.21001463 -0.19594634 -0.23619126 -0.27103928 -0.25643992 0.42573065 -0.22153792 -0.19103572 0.26842606 0.029025497 0.1772277 0.35042605 0.10736725 -0.1043327 0.64231956 0.21566574 0.11398102 -0.050679784 0.3760232 -0.22306131 0.10739177 0.20475516 0.40161437 -0.35966182 -0.3051152 0.09279976 -0.36527032 -0.004562596 -0.11602528 0.12815902 -0.086362876 -0.14775774 -0.03109597 -0.09171482 0.33590475 -0.022606917 -0.12008696 -0.118139744 -0.32855305 0.053178325 -0.14106312 -0.31061533 0.060485065 -0.2074812 0.12045217 -0.16350088 0.18911359 0.09880747 -0.387852 0.059630293 0.4835877 -0.16026695 0.03437983 -0.066032276 -0.22282949 -0.3132251 -0.0719185 0.19311523 0.10681581 -0.27318397 -0.16999409 -0.07816593 0.22921138 0.07231201 -0.04189085 0.2656137 -0.0414795 0.28615633 -0.02649732 0.085682325 0.15696973 -0.15053655 -0.025482226 0.21495046 -0.105413765 0.19212201 0.049787793 -0.009331511 0.40623844 -0.35971782 -0.6351791 -0.24656634 -0.17692953 0.36938685 0.15486166 -0.5372421 0.37259126 -0.5425349 -0.18554933 0.035535295 0.22657794 0.0037753473 -0.0775152 0.09649075 -0.33508286 -0.213199 -0.10720579 -0.20750874 -0.07625206 0.3811586 -0.20651616 -0.003225883 -0.08792023 0.18253715 0.17568706 0.03262886 0.011543049 0.019584851 -0.11963364 0.09440565 0.17767632 -0.19501927 -0.0057585486 -0.18730211 0.20885031 0.15893024 -0.12770207 0.101474136 -0.07634888 -0.22859555 -0.008364214 0.0016732771 0.14887753 -0.029824482 -0.3231016 -0.21328765 -0.21186708 0.13683692 0.20584393 -0.32981625 0.09397681 0.043524314 0.14056715 0.22222218 -0.24419323 0.2885006 -0.09001184
R -0.26417598 -0.43963328 -0.14757368 -0.33305842 -0.034754835 -0.29519963 0.033946253 -0.08238264 -0.21347575 -0.12124415 0.5249027 -0.0063620303 -0.6015306 -0.008305495 0.4451329 0.1998411 0.5225732 -0.052719902 0.13775238 0.48976266 0.20310967 0.26046294 -0.25787035 0.20261456 -0.13836347 -0.021815084 0.16497372 -0.032901023 -0.07483077 -0.037593212 -0.25145462 -0.057984762 0.28264415 -0.19292985 0.5190527 0.57009214 -0.08016759 0.11353785 -0.17681187 0.29903755 0.2879857 -0.055784367 0.2557882 0.021557698 0.20733485 -0.39925796 0.15453896 0.4459586 -0.19200584 0.2526199 0.43656448 0.31955114 0.2835985 -0.53151566 -0.14880617 -0.2755205 -0.09613645 -0.060342 0.11285304 -0.50638705 0.21189381 -0.111758076 0.06646776 -0.107619315 -0.05311985 -0.008125362 -0.25123653 -0.06432898 0.65142643 -0.34490895 -0.057352133 0.9601334 -0.42263594 0.47362554 -0.34430456 -0.11190041 0.093968116 0.26234037 0.4885433 -0.081567384 0.45335582 0.19451836 -0.40173465 -0.06786848 0.06510292 -0.15101577 -0.067360915 -0.18368284 0.28350177 -0.09281806 -0.018866407 -0.07714902 0.0394479 -0.08669995 -0.055030722 0.023272306 0.15864858 0.16034667 -0.44166625 0.6303408 -0.03243645 -0.27301106 0.22350387 -0.36448273 0.46032712 -0.0086462535 0.020549288 0.22407709 0.18915172 -0.049564093 0.028860768 0.14343035 0.2874664 0.4149907 -0.10160459 0.055267997 -0.20078743 0.019439215 0.3532894 0.048685234 0.26276112 -0.08100127 0.2725321 -0.3267467 -0.2621542 0.110662304 -0.013710504 -0.3648243 -0.12705831 -0.0658692 -0.092719965 -0.41672298 0.18271036 -0.48982555 0.4806168 -0.03385333 -0.5863645 0.14721045 -0.3566815 0.33139664 0.038376756 -0.040778294 0.07248561 -0.1426122 -0.490039 -0.15551263 0.013354708 -0.35393295 0.09208357 0.44891003 0.060970943 -0.2755524 -0.07147909 0.010392273 -0.089966044 -0.11493836 -0.24775766 -0.07503109 0.042878583 -0.12224668 0.08005246 -0.10569504 -0.11387388 -0.041089233 -0.08313245 -0.10496147 0.014184808 -0.45985892 -0.08797953 0.11392682 0.28245345 0.04259525 0.16529433 0.36418796 0.09020668 0.07530149 0.041432504 -0.072803974 0.29041773 -0.052526966 -0.0011842555 -0.06838842 -0.0026748397 -0.097291805 0.42297754 -0.015388359 0.16586645 0.24069397 -0.6765507 0.031235985 -0.06506783 0.08099651 -0.24735124 -0.07400514 0.25296807 0.22536442 -0.032640804 0.18250479 0.16213228 -0.12984484
K -0.13209046 -0.12932254 -0.48272958 -0.28905585 -0.005060449 -0.20483908 0.30571738 -0.10098277 -0.14853448 0.015116942 -0.14360908 0.10777642 -0.057442922 0.15984403 0.095871165 0.23779216 0.027944738 -0.080754474 0.059539817 -0.01282615 0.23577891 0.23919229 0.3566658 0.1337048 -0.29195714 0.120458275 -0.029353589 0.10138198 0.012427458 0.046840042 -0.36634365 -0.059266273 0.010506266 -0.29049617 0.1667073 0.21418485 -0.17049633 -0.19862509 -0.47656733 0.21499339 0.034128364 0.17030755 0.10496176 0.13005427 -0.0093545485 0.21076927 -0.028479567 -0.19296591 -0.031001365 0.10739809 -0.13977617 -0.321505 0.0006966105 0.052877426 0.06792864 -0.097013906 0.012463415 -0.24960123 0.3409923 -0.05462992 0.17294917 0.113512 -0.1408345 0.20063114 -0.30039436 0.017145548 -0.13007009 -0.024361994 0.11662805 -0.07635505 -0.30330032 0.05637351 0.023294533 0.11370868 0.14836474 -0.016353002 -0.12651135 0.094538085 0.24653518 0.055686146 -0.06723787 0.38291758 -0.24264133 0.2754606 -0.028892575 0.20572494 -0.38171324 0.07407606 -0.036223162 -0.2869767 0.13711534 -0.12390839 0.25215808 0.05134371 0.10082341 -0.034236707 -0.011467306 0.3671204 -0.059710514 0.12948401 0.033996355 -0.4016852 0.24751359 -0.046704236 0.24395165 -0.0024165541 -0.40174547 0.19130045 0.0030209864 -0.029190326 -0.18667929 -0.54511034 0.07231812 0.28561223 -0.24561127 -0.24954009 0.009156054 -0.041511647 -0.53214353 0.1668836 0.33816406 0.08749503 -0.028482229 -0.26063168 -0.19132896 -0.05466401 0.16533159 -0.16204065 0.2488242 0.063010655 0.11522226 -0.26131263 0.29508397 0.0034452365 0.10583011 0.11427726 -0.11712749 -0.18779938 0.01747922 -0.067867026 0.37811053 0.13942413 0.057829637 -0.44949815 -0.15496376 0.056733787 0.48307663 -0.05428714 -0.48302943 0.38542834 -0.3821607 -0.060538158 0.006666471 0.32585183 -0.0411471 0.00441812 0.027464394 -0.31430158 -0.09588512 -0.13439752 -0.38344005 -0.27238396 0.19481777 -0.16584677 -0.026776288 -0.020453861 -0.060158227 0.064555965 -0.057886854 -0.11587559 0.11662668 -0.22550575 -0.16610132 0.29727116 -0.27848473 0.12025605 0.18666004 -0.012093569 0.1801303 0.12745523 0.06869737 -0.02760387 0.050627097 0.028931871 0.18478481 -0.12154758 0.022378638 -0.23005237 -0.60589474 -0.21314494 0.039162032 0.0010635441 -0.38083792 0.23342279 0.1488295 0.10344934 0.32686704 -0.5076774 -0.09580333 -0.069411986
D -0.048853938 0.2231214 -0.06449399 -0.0025543647 0.22602756 0.044416048 0.116300665 0.12396236 -0.19182527 0.041886628 -0.45502013 0.04354797 -0.30896536 0.105729155 0.28697062 -0.09540409 0.12609291 0.04881076 0.02129555 -0.25494272 0.020622788 0.11422639 -0.29301918 0.04169798 -0.2792656 -0.0018682915 0.31969938 0.16021171 -0.12937993 -0.21052507 -0.24242318 -0.0644354 -0.16040905 -0.17962006 0.04651546 0.4881173 0.22648026 -0.1696613 -0.53277403 0.31014404 -0.004343532 -0.12700826 0.19751568 0.16207847 -0.0038170863 0.05449593 0.23270069 0.08018892 0.081461415 0.5177253 0.11180801 0.0072573354 0.054356076 -0.21295422 -0.20933919 0.18989822 0.1079052 0.0028796818 0.07714922 -0.2255392 0.32542112 0.2562783 -0.05394008 0.04070637 -0.25233403 -0.12406263 -0.3105097 -0.34280515 0.17558001 -0.0041468437 0.04359924 0.07707071 0.036724847 -0.1619369 0.11009481 -0.050540894 0.15008916 0.27960768 0.24528821 -0.24237488 -0.0034382187 0.28067777 -0.09472325 -0.06884031 0.12781656 0.14051196 -0.19225614 -0.283414 -0.09086965 -0.24877347 -0.0011435988 0.088457346 -0.034504008 -0.013686299 -0.09956072 0.034884278 0.03670236 0.14372322 -0.18714577 -0.15408991 -0.15498412 -0.20283705 -0.17075276 -0.111358725 -0.2854509 -0.054596916 -0.15894386 0.10318903 -0.064839974 0.12805575 0.2471813 -0.19842903 -0.011663594 0.26213098 -0.056651056 0.06610229 -0.12571938 -0.34230322 0.012916302 -0.08323517 -0.12092203 -0.20596616 -0.14876273 -0.2988257 -0.23598567 0.0077739526 0.021470172 -0.19903556 -0.06620364 0.08927692 0.29487616 -0.29920718 0.28236812 -0.2838575 0.16852427 0.35184565 -0.2942856 -0.123651065 0.17265908 0.13786536 -0.0793299 0.3844384 -0.060134284 -0.4873355 -0.06545651 -0.2385501 0.07508026 0.11509916 -0.39374542 0.1427959 -0.36286446 -0.065448456 -0.028410992 0.29026264 0.19269311 0.06363124 -0.07039764 -0.089913316 -0.34219152 -0.09337246 -0.32663366 -0.138293 0.3197746 -0.36040655 0.07186657 -0.23052809 -0.020952659 0.02035714 0.160743 0.4058662 0.12060407 -0.079109706 -0.01871624 0.12936129 -0.24384443 -0.0813926 -0.0748542 -0.051026594 -0.15946119 -0.17942043 0.14668931 -0.20206712 0.035880882 0.12423535 0.11250883 0.12180534 -0.10790417 -0.27703086 -0.044467557 -0.26734003 -0.12900521 0.21512954 -0.39139888 0.06774933 -0.0795528 0.1554249 -0.048964143 0.1527193 0.21785995 0.008858854
IH0 -0.0008829769 0.19836672 0.09820895 0.20319536 0.070862755 -0.24636236 0.13975427 -0.5773214 -0.14126217 -0.2321703 0.1811552 -0.23098424 0.31437424 0.31021234 -0.3777242 0.259288 -0.0530999 -0.33356613 -0.08400946 0.22919266 0.02835755 0.44377133 -0.017990187 0.2025636 0.20991684 -0.07626454 -0.55058765 -0.060865033 -0.011671434 -0.30199692 0.21092078 0.15313454 0.08817016 -0.06013841 0.21088332 -0.63883746 -0.10008178 -0.09606663 0.26168606 0.0110811815 -0.143609 0.2095881 -0.30911508 0.265675 0.18007557 1.0638305e-05 -0.38498795 -0.31523418 0.035571974 -0.11974891 -0.50849956 -0.14982381 -0.16526276 0.272361 0.22942339 0.5236331 0.5049332 -0.056295563 0.17655958 -0.34985375 -0.25209895 -0.06569208 -0.18684822 -0.008419511 0.019531425 0.20537649 0.13648915 0.0678769 -0.016600553 0.26207933 0.18837439 -0.41620395 0.19815809 0.32828984 0.47545275 0.2807565 -0.50421697 -0.33576432 -0.18705542 0.22633353 -0.19084644 -0.092889056 -0.016021803 0.38746452 -0.073010094 0.00695769 0.126184 0.49028334 0.020338668 -0.1259965 -0.39496925 -0.03300439 -0.16557842 -0.044379774 0.077385224 -0.23039939 0.12725486 -0.42420903 0.37139088 0.20732582 0.30469784 -0.0056777117 0.49411568 0.43174058 -0.14044866 0.11617184 0.26713845 -0.20469816 -0.54569155 -0.01862328 -0.37163422 -0.09216858 0.36584243 0.01326881 0.12758842 0.21276233 0.11813942 -0.2702087 0.15030777 0.08387372 -0.35847908 0.20773779 0.36550754 -0.08401256 0.14413486 -0.17332616 0.19717504 -0.19440787 -0.09293283 0.11310661 -0.03170624 0.3982337 0.056031708 0.20671825 -0.07725105 -0.047010757 0.29628277 0.29348424 0.09435285 -0.5862263 -0.11992863 -0.297599 -0.4822433 0.21529315 -0.3047207 0.45010975 -0.24968688 -0.13759585 -0.2590211 -0.09544289 -0.24777393 0.060569648 0.3149873 -0.03484769 -0.30623275 0.18783943 0.4222538 -0.1923242 0.36527258 0.21182752 0.6150613 -0.00783449 -0.09809825 0.052314173 0.2833593 -0.41098404 0.29076043 0.044307604 -0.14775154 -0.49042934 0.025032725 -0.047881674 0.44197604 -0.4093451 0.36603212 0.019232603 0.24287064 0.30449465 0.5614575 0.29136708 -0.29351765 -0.0053507853 0.048175838 -0.14862499 -0.13852865 -0.33552232 -0.068034776 0.002058863 0.33453235 0.14113393 0.30258605 -0.3082635 0.3830599 -0.2637109 0.11192532 0.20423913 -0.03179583 0.33943635 -0.06413974 -0.35967436
M -0.225844 0.023544721 -0.45492125 -0.05883956 -0.05016903 0.22380713 0.010624275 -0.16899021 -0.19368054 0.3014081 -0.099996574 -0.05463895 -0.14551525 0.09659403 0.27890968 0.028435227 0.023632193 0.40600866 0.13417064 0.1030164 0.030409597 0.0021509898 0.036031906 0.041762643 -0.31063282 -0.026018728 0.30297172 -0.24661952 -0.16389261 0.08210888 -0.501589 -0.2726628 -0.42895812 -0.30078438 0.19999829 0.37659985 0.16953513 0.0012113114 -0.3063371 0.21895707 -0.07520961 -0.018992182 0.3918844 0.2380532 0.19499956 -0.025390586 0.32186446 -0.07670209 0.3782671 0.2678563 -0.023114637 -0.2083707 0.23154566 0.049573503 -0.3511919 0.008558177 -0.064483784 -0.057153497 -0.008579865 -0.17500083 -0.013541929 0.11875972 0.23990542 0.3098991 -0.13522878 -0.052054252 -0.15650335 0.0016040372 0.015765982 -0.29470566 -0.006552454 0.33257902 -0.30783564 0.13925649 0.14373651 -0.09098661 0.05286158 0.28609556 0.046744574 0.0730686 0.026404338 0.43586355 -0.23481064 -0.1970598 -0.011750245 0.2569113 -0.24124259 -0.050363522 -0.09034337 -0.28447905 0.13398752 0.063290276 0.34400406 -0.053774375 -0.06264345 0.16980495 0.0001436089 0.3385768 -0.32491714 0.22141933 0.01912406 -0.43834662 0.03529104 -0.06255926 0.08743511 -0.16759023 -0.123987526 -0.006077284 -0.1929647 0.20622838 0.19626175 -0.1911516 0.13448839 0.010069361 0.05091339 0.050844233 -0.068057574 0.062854424 -0.2700205 0.11901663 0.2358662 0.19381219 0.06644911 -0.12614113 -0.43696633 0.16412576 -0.23922089 -0.08218043 0.13993774 0.20680869 0.118086174 -0.20392674 0.30457616 -0.061622277 0.04760131 0.04219269 0.013383821 -0.28629512 -0.1025735 -0.10747819 -0.08349315 0.12690079 -0.03213546 0.07350089 -0.09016663 -0.08043097 0.43041384 0.08122304 0.067654416 0.32655153 -0.11377657 0.021861246 -0.45897692 0.121795885 0.0048498656 0.24672279 -0.32869855 -0.38202047 -0.27780586 -0.112900175 -0.03699053 0.02687719 0.2617363 -0.3457226 -0.4767124 0.2324075 -0.039047644 -0.07303123 0.025087617 0.1299521 -0.019557917 -0.045401707 -0.21761784 0.24743292 0.08789606 0.010917994 0.15542682 0.069228366 -0.009322108 -0.17477639 0.24436164 0.028525868 -0.4866243 0.1938393 0.19795409 0.3611313 -0.11644776 -0.25015122 -0.2876492 0.03481133 -0.21139179 0.08085286 -0.22084296 0.010309705 -0.06682649 0.025190206 0.13013841 -0.054127026 0.12267218 0.1451358
Z 0.053408854 0.3935677 0.08412396 -0.13895603 0.21647389 0.21593797 0.15338257 0.1967774 0.09530678 0.09950777 -0.19707261 0.042881764 -0.039012194 0.3741742 0.041136045 -0.13355651 0.033184983 0.11263586 -0.052638892 -0.065857165 0.09190689 0.12692243 0.16375752 -0.062366065 -0.39898726 -0.017130729 0.13790075 0.21527433 -0.22847305 0.03855708 -0.095306955 0.009871522 -0.19261563 -0.10815505 0.15369421 0.44552436 0.13364463 -0.08697628 -0.45180142 0.09306571 -0.16441986 -0.3931328 -0.16921927 -0.029914545 0.033047985 -0.14347817 0.026542926 -0.037138164 -0.07299787 0.24916025 -0.05290129 -0.40743876 0.085168645 -0.14859244 -0.116768844 -0.14887124 0.0846081 -0.13447772 -0.13607015 0.24207187 -0.07182801 0.26898155 0.004231863 0.10050642 0.20423524 -0.50697637 -0.052752387 -0.043279056 -0.081838384 -0.07059261 0.06541055 0.24815701 0.049786743 0.05775338 0.16536804 -0.08122828 -0.18864858 0.3824261 0.208081 0.0979916 -0.0014477458 -0.09860209 0.119503796 -0.044905405 0.10225824 0.20659544 -0.12563793 -0.3775826 0.2007942 -0.11835155 -0.16046123 0.25439864 0.01594782 -0.17788433 -0.3615703 0.23422639 -0.07598968 0.12548994 -0.019210003 -0.17493215 0.050646868 0.010894609 -0.027311135 0.029769674 -0.5147847 -0.165702 0.15464175 -0.17171393 -0.47564557 0.23065448 0.3059189 0.25779656 0.013349684 0.04835123 0.051685464 0.25578144 -0.44458652 -0.20648314 -0.02063049 0.13269387 -0.3556909 -0.6489888 0.056558076 -0.07912934 0.036977556 0.042317543 0.021714585 -0.24966358 0.0023503457 0.00452645 0.08451247 -0.35006315 0.41944608 -0.1992593 0.32106307 0.19607924 -0.33852175 0.04201054 0.060439028 0.19045244 0.116533466 0.2949235 0.08312418 -0.41584137 0.1450575 -0.14754786 0.04385345 0.10682584 -0.3638072 0.15048486 -0.22824576 -0.2064528 0.1505769 0.21464083 0.18819769 -0.011552477 -0.092179045 -0.100407794 -0.00028173332 -0.15329055 -0.2592805 -0.11191854 0.07629268 -0.13025996 -0.19964366 0.09629361 0.058139443 0.17266437 0.043783583 0.049462166 -0.2763914 -0.08945385 -0.22991866 -0.06855735 -0.13008097 0.07813443 -0.08006129 -0.24375758 -0.21649496 -0.13011287 -0.02520856 0.0477409 -0.14673837 0.136997 0.046267048 0.18654235 -0.13174234 -0.0009888795 0.03929141 -0.42651775 -0.23272532 0.15538144 -0.06621041 0.19678119 -0.08197589 0.012214864 -0.07452283 0.22719124 -0.01947485 0.08886647
ER0 0.06472871 0.62156683 0.112866044 0.35330865 0.06401902 -0.11741627 0.024748951 -0.45186746 -0.11170584 -0.1511516 0.03332364 0.11548359 0.0037159824 0.032571893 -0.13052927 0.16909428 -0.14243068 -0.3559547 0.31632078 0.1877851 -0.23828386 0.023545546 -0.2717215 0.08341509 -0.057623763 -0.21115188 -0.10475073 0.052850123 -0.2158738 -0.18188027 -0.06420963 -0.07521501 -0.00676613 -0.13888519 0.10528142 -0.036025833 -0.041079454 -0.23538488 -0.17359948 -0.027418524 0.16742207 -0.22789828 -0.19313426 0.20623626 0.35916796 -0.31769267 -0.010153701 -0.20932546 -0.08996121 0.26663068 0.035894535 -0.0097168675 -0.069925286 -0.01958249 0.116419956 0.33858088 0.27243763 -0.06411443 0.020027023 -0.29327714 -0.16241136 -0.029818507 0.04537941 -0.33240747 -0.24690737 0.08589538 -0.25019833 -0.15047944 -0.0930652 0.12920298 0.087068215 -0.33651653 -0.07127196 0.027074294 -0.0836023 0.008850391 -0.23436137 -0.19862978 -0.10110961 -0.091158934 -0.01827835 -0.024904521 -0.06931461 -0.14101952 0.23311579 -0.1210945 0.029636493 0.104469016 -0.18288998 0.2229327 -0.07415092 0.011571011 -0.24402915 -0.096002035 0.14253509 0.25252542 -0.08130113 -0.28361264 0.037287243 0.101457395 0.20121291 -0.14850754 0.34845337 -0.052742854 0.3892429 -0.19737577 0.18515515 -0.4688219 -0.14715475 0.06977766 -0.17913394 0.173467 0.60663307 0.3378609 0.10300499 0.40316617 -0.504648 -0.28314707 0.28589496 -0.09697429 -0.4115283 -0.3594644 0.12716797 -0.1904921 -0.34021166 -0.33313602 -0.32668045 0.004961806 -0.2701792 -0.17675076 -0.03590858 0.12347179 0.15239564 -0.6105098 0.10470891 0.1532971 -0.08649979 0.0788184 -0.08653068 -0.42618424 -0.12711276 -0.02362071 -0.33946693 0.26287797 -0.25363213 0.24167988 -0.12028 -0.24397314 -0.26258895 -0.07001246 0.16110519 0.006924355 0.5224849 -0.1603003 -0.3183886 0.18814598 0.48406658 0.025335042 0.29638126 -0.0046576057 0.56861734 0.08142553 -0.05832783 -0.10270671 0.63256407 -0.1911809 0.024432741 -0.056227274 0.1692145 0.0113511095 0.34403762 0.36420643 0.2055403 -0.041434437 -0.25176564 -0.08296145 0.104786105 -0.24998392 0.1869075 -0.2432353 -0.338089 -0.3537964 0.56229234 0.039512414 0.09746386 0.022961399 -0.035834562 0.20629683 0.47423038 -0.07404509 0.17725697 -0.07758046 0.5116038 -0.39061028 0.094923854 0.18946403 -0.17422359 0.9297353 -0.049911864 -0.123025395
IY0 0.2746694 -0.10041054 0.017758941 -0.010629509 0.2974756 -0.1864068 -0.2960212 -0.3166898 -0.19057812 0.14476758 -0.53364956 -0.12192884 0.025411602 0.23314658 -0.31625775 0.036016885 -0.1735945 0.11467447 0.04770068 -0.27203244 0.059533596 -0.09460447 -0.013514908 -0.30549273 -0.21184807 0.21742193 -0.20479843 -0.22417994 -0.19132456 -0.12819141 -0.1674983 0.1004525 -0.07675365 -0.06774242 -0.0701935 -0.08244782 -0.00852566 0.22319698 -0.20188507 0.055638187 0.22275636 0.123750925 0.036187395 -0.0077300672 -0.18032703 -0.25373882 0.14111823 -0.039425977 0.104132056 -0.095213376 -0.13672754 -0.048804853 0.05746142 0.11965925 -0.22191311 -0.16493286 -0.078528985 -0.1675841 -0.039101824 -0.03530524 -0.12737593 0.14842439 0.07414279 0.114434734 -0.057491083 -0.016804885 -0.13529846 0.21298373 -0.1267075 -0.22644301 -0.06824308 -0.009271984 -0.077744 -0.00077470375 -0.010421568 -0.21930061 -0.21346897 -0.15354517 0.054711755 0.17163907 0.11686742 0.33568752 -0.2881346 0.233085 -0.07407782 0.2270745 -0.05948184 -0.0007217816 -0.088465564 -0.29922184 -0.016538724 0.26397258 -0.11382618 -0.08436369 0.09989977 0.04079896 0.13422574 -0.023028003 -0.096757226 0.15337391 0.26818195 -0.16054945 0.18027326 -0.1115342 0.13457884 0.054310907 -0.041513577 0.1331883 -0.03174885 -0.28278276 -0.17284009 -0.17801836 0.08582927 -0.019387906 -0.03780097 -0.06899296 0.031947467 0.1651939 -0.07904735 -0.16514508 0.4019825 0.15611598 -0.13109875 0.023051834 -0.092061445 -0.01879182 0.16811822 0.1019914 0.23755448 -0.04870874 0.23107475 -0.10964226 -0.117459536 0.2730978 -0.2523278 -0.14419827 0.23061198 -0.041853715 -0.21308088 -0.32160175 -0.00053813885 -0.059398998 0.050715473 0.3027803 0.07698343 0.0113993455 0.045378722 0.027384661 0.117783055 -0.19937518 0.27748877 0.20465769 0.04397405 -0.07278488 -0.19384982 0.107761584 -0.102008276 -0.3074381 0.09176708 -0.17839988 0.21078527 0.10277589 0.026303481 0.13476108 0.078257866 -0.07423823 0.069861956 -0.023401378 -0.10991264 -0.16103528 0.081381544 -0.00022362861 -0.17013036 0.19610706 -0.27548286 -0.06827607 0.25472838 0.22205596 0.20163375 0.15793867 0.1529239 0.0975635 0.018669704 -0.039134134 0.14689825 -0.33466718 -0.1602378 -0.2397364 0.25984702 0.06797474 0.05245605 0.17000988 0.30285496 -0.07631051 -0.13273732 0.040573865 -0.02385041 0.2971219 -0.11596617 0.2019022
B 0.035461552 0.15323459 -0.23439908 0.08139939 0.022971313 0.20345236 0.06339737 0.19661206 0.07098077 0.5134131 -0.2317254 0.045730542 0.1327265 0.13292067 0.17602834 -0.06747494 0.1550202 0.1977888 -0.20831452 -0.05241947 0.044841282 -0.103114314 -0.042376284 -0.09419134 -0.15875797 0.09578003 0.45572323 -0.28458896 -0.12286884 0.026516853 -0.5953239 0.15281548 -0.4963839 -0.31281078 0.10717728 0.22395007 0.10312028 0.02429954 -0.103732295 0.29801583 -0.0029998412 -0.05583327 0.58187646 -0.013590743 0.15748765 0.014874393 0.5688738 -0.054707102 0.328655 0.059077222 0.22099409 0.38902146 0.20756552 0.14827678 -0.2456004 -0.11521286 -0.032856464 -0.027211376 0.18131281 -0.18425466 0.129394 0.12226643 -0.34072694 0.3526581 0.12082672 0.3005119 0.10290465 -0.092677526 0.02998467 -0.36784902 0.29149053 0.3887527 -0.14595123 -0.11524227 -0.05117965 0.069057204 -0.008146993 -0.24546178 0.10579701 -0.27301198 -0.25314692 0.57297254 0.006812867 0.27942434 -0.2010651 0.07744494 -0.21500722 -0.25735402 -0.1754418 -0.056442294 0.34851903 0.03023018 0.2337304 -0.07882154 -0.07114141 -0.15574959 -0.16124149 0.6075606 -0.00017045402 -0.10199911 0.05107586 -0.58604115 -0.00017834298 -0.031126989 -0.37914458 0.11090458 -0.17974174 -0.3198973 -0.41324475 0.3513519 0.12847477 -0.13037731 0.13498344 0.043247584 -0.011604619 0.08876231 -0.030601278 -0.16903612 -0.39582282 0.09237559 -0.3134182 -0.0035239507 0.2863863 -0.27471793 -0.18402486 -0.07677199 -0.11252219 -0.13588835 -0.038181953 0.34191003 0.13748872 -0.14391488 0.63253784 -0.12335227 0.12090909 0.3637349 -0.49802753 -0.31131244 0.110599756 -0.16431831 0.13028966 0.41721088 0.16686586 -0.32992756 0.0628796 0.03941769 0.22744791 -0.122755416 -0.05260896 0.26696384 -0.2979167 0.08000768 -0.25154346 0.3360607 0.23780186 0.11656424 0.079934426 -0.10358215 -0.45024502 0.08617189 -0.14678764 -0.16450495 0.49265435 -0.1161655 -0.3608106 -0.019308085 -0.056637336 0.022952517 -0.023134017 0.2114304 0.07445507 -0.3362897 -0.5242413 -0.020334013 -0.304838 0.04283976 0.2972515 0.05040179 -0.055733897 -0.15293263 0.118436895 0.044366688 -0.14439142 0.18350208 -0.018391086 0.23375402 -0.22570023 -0.34149688 0.23886685 -0.08352966 -0.2958153 0.088020995 -0.29121894 0.08965208 -0.36761147 -0.019917801 -0.040068768 -0.0009712954 0.057740036 -0.003644557
EH1 0.37618667 -0.10218513 0.4432991 0.17964761 -0.024032034 0.020485973 -0.16071633 0.24506111 0.2581065 -0.32949743 -0.1408977 -0.069145344 0.13029532 0.23497114 -0.21248809 -0.27611986 -0.5383165 0.0011743145 -0.2319464 -0.79490876 -0.15221027 -0.28412378 0.0045677526 0.08660811 0.1396072 -0.27995872 -0.26206487 0.55963963 -0.15602055 -0.34851745 1.0573659 -0.39832708 -0.10673589 0.5781583 -0.16221613 -0.580628 0.1702416 0.009756218 -0.32644513 -0.603067 -0.33615172 -0.40812567 -0.27048782 -0.021792952 -0.34682757 0.25865445 -0.8294634 -0.22357723 -0.28857562 -0.41577262 -0.6889347 -0.7218523 -0.31774884 0.1316169 0.32989812 0.6667709 -0.19484887 -0.015984112 -0.25690734 0.42806375 -0.2862489 0.10146102 0.3781933 -0.2441706 0.47210878 -0.4850702 -0.2734306 -0.09298279 -0.35867813 -0.032549445 0.4507228 -0.7098502 0.20248155 -0.086982146 0.5329635 0.1263593 -0.1139773 0.14290538 -0.30332583 0.33280197 0.59279454 -0.9562401 0.1268487 -0.49167404 0.13876611 0.020115716 0.48165956 -0.17513055 0.43684912 -0.27985108 -0.10532714 -0.42926595 0.12650485 0.28560203 -0.23433143 -0.23170114 -0.1277219 -0.31405276 -0.13021849 0.2775457 -0.9975563 0.6384883 -0.49396127 -0.048656702 0.7755272 0.31121916 -0.107696354 0.20903401 0.60136133 -0.22543494 -0.09391891 -0.31628123 -0.67409265 0.050129496 -0.057382237 -0.6749692 0.96198744 0.102696605 -0.2097707 -0.0037361032 0.47796026 0.6633298 -0.4983847 -0.030088356 0.8756493 -0.16340227 0.021210099 0.41515735 -0.35318726 -0.13293782 -0.04577839 0.38146803 -0.42650458 0.43921718 -0.42494074 -0.3334178 0.4303274 0.03206378 -0.53043914 0.08959036 -0.32267246 -0.58909506 0.082437105 0.5233837 0.21434578 -0.07672787 0.16101171 -0.19408754 0.8183563 -0.9225557 0.39943618 0.19449316 -0.10967653 -0.24144676 0.30047557 -0.30448306 -0.33218798 0.058165 -0.04715469 0.28320178 -0.39425948 -0.13547064 -0.6765964 0.078491375 -0.36241248 0.17012542 -0.3033863 -0.11453022 0.16140132 0.13917841 0.30855954 0.056298092 0.29637626 -0.4624569 0.8321957 0.7080116 -0.6339244 0.7057051 -0.6229523 0.25142464 -0.12987483 0.10589346 -0.28998762 -0.15793915 -0.20542112 -0.35447544 0.4246574 0.49791944 -0.74702996 -0.13486835 -0.12192574 -0.1799924 -0.5956968 0.0887913 0.400157 -0.18208952 0.61286396 -1.3072568 -0.029578643 0.54388714
P -0.27564952 0.009663928 -0.51613253 -0.30520508 0.06576595 0.16140871 0.4399072 0.12496663 -0.10488934 0.22588767 -0.40455583 -0.14179347 -0.023548724 0.26558638 0.007994306 0.07717048 0.017065015 0.20582785 -0.19028035 -0.12820122 0.35310525 0.042615004 0.080896325 0.13878566 -0.23717342 -0.086696096 0.110202186 0.15345465 -0.087534696 -0.12748879 -0.49179095 -0.20723334 -0.4885401 -0.26429468 0.113011114 0.16894302 0.10100942 -0.025167711 -0.2921156 0.38484535 -0.37375143 -0.24860853 -0.08443566 0.035734754 0.041363597 0.044961326 -0.022050818 -0.33107263 0.25556362 0.16206825 -0.21506038 -0.2885828 -0.17330468 0.06510051 -0.13027476 0.07051972 0.069694914 -0.10977803 0.19932693 -0.257293 0.23530973 0.065607466 -0.42148858 0.3753344 -0.21149512 0.23595665 0.16219041 -0.046222188 0.17436253 -0.05220143 -0.12933362 0.30598897 0.0034620215 -0.0047409297 -0.13691854 0.008749473 0.079103336 0.013454525 0.3068644 -0.024821404 -0.34116662 0.47704503 -0.18821968 0.1310893 0.052360583 0.45143226 -0.2791618 -0.15325499 -0.08253769 -0.0535876 0.066459656 0.15867715 0.06252243 0.038710948 -0.020887678 -0.387333 -0.006347462 0.5737722 -0.046012957 0.09174942 -0.02060059 -0.38863426 0.30875674 0.12061349 0.14961593 0.00067563343 -0.19174965 0.030561171 -0.25960353 -0.048962723 0.21134019 -0.57900816 -0.018065643 -0.12293116 -0.25598106 -0.3197566 0.39793444 0.29545492 -0.38787192 0.25076878 0.25407326 0.49022436 0.24183503 -0.19349027 0.06806714 -0.010993308 0.16491765 -0.18660478 0.19507208 0.12334479 0.0943889 -0.008277923 0.22795393 -0.01041407 -0.13840763 -0.061582588 -0.31646982 -0.22386125 0.1701569 -0.28830016 0.2652451 0.518744 0.012923117 -0.3726209 -0.0595744 0.15779212 0.085945666 -0.20592274 -0.48734272 0.4234563 -0.27514583 0.21921168 -0.06641641 0.2241958 -0.008870294 0.23534824 -0.042062037 -0.37009653 -0.27034527 -0.25258696 -0.31132632 -0.30672145 0.37026316 -0.21028209 -0.47663578 -0.050820317 -0.1248432 -0.08077072 -0.053905837 0.04511455 0.029347619 -0.17332254 -0.47017816 -0.18627587 0.04002233 0.18058454 -0.07003649 0.13621081 0.16457655 -0.16962658 -0.20323867 -0.021868773 -0.30439132 0.06350909 -0.10021286 0.30481043 -0.016303565 -0.026439274 -0.433703 -0.0010820535 -0.33360177 -0.081356354 -0.40144268 0.20100686 -0.07039763 0.22347967 0.3272016 -0.20279399 0.10851907 -0.25904846
AA1 0.31613812 -0.21072225 0.34668547 0.19083004 -0.031804364 0.042580716 -0.393504 0.23519208 0.3488224 -0.12992314 -0.036556248 -0.0026297444 0.045363024 0.06909625 -0.29709494 -0.45531818 -0.753636 0.19129069 -0.25859106 -0.78096145 0.060314853 -0.2746271 0.21051192 -0.19094726 0.24171849 -0.10042654 -0.42939156 0.23051958 -0.0061527495 -0.19785526 0.921473 -0.16284427 -0.05263749 0.8221658 -0.26232427 -0.78759503 0.29532006 0.2298619 -0.52614933 -0.74116117 -0.25615212 -0.26107392 -0.1730222 -0.073626816 -0.29020384 0.2609737 -0.42609677 -0.18905593 -0.18861909 -0.39221916 -0.4627947 -0.6642465 -0.20858155 0.06370076 0.2910154 0.49429724 -0.4551747 0.011383984 -0.38242465 0.5260517 -0.009075372 0.18968531 0.36936545 -0.07218308 0.54305583 -0.45420882 -0.17965078 0.106766485 -0.18127532 -0.30337802 0.2758773 -0.421563 -0.026559977 -0.1081132 0.5760277 0.11882639 0.046377722 0.32899907 -0.4728414 0.43222237 0.745745 -1.1292005 0.106045514 -0.6404213 0.09720983 0.18201146 0.57394797 -0.16273662 0.44153896 -0.4897761 -0.0001034409 -0.50448406 0.21870269 0.58766294 -0.23734927 -0.15290731 -0.1471791 -0.20928675 -0.034150936 0.3765644 -0.9114578 0.59172696 -0.569943 -0.0098051885 0.55307186 0.39425924 0.009758048 0.094513245 0.7015605 -0.32426047 -0.3853629 -0.27440467 -0.42948198 -0.043082763 -0.022583473 -0.62477225 1.1976731 0.28781813 -0.20095682 -0.1459904 0.67545146 0.8905414 -0.72003263 0.1587733 0.76998 0.2112337 0.04453453 0.53240675 -0.27800527 0.010856952 0.07109126 0.3097968 -0.24365446 0.5493798 -0.34296456 -0.47030655 0.53738886 0.011795231 -0.4578369 0.12111084 -0.41768104 -0.6567361 -0.09283968 0.63398975 0.20168702 -0.02233689 0.33276275 -0.06142918 1.1360373 -1.0656393 0.50837684 0.2081284 -0.43057013 -0.27824712 0.44779834 -0.29873475 -0.4354458 -0.014563448 -0.1555455 0.40560606 -0.44717914 0.032891188 -0.76616293 -0.046674013 -0.7097883 0.26789853 -0.36695048 -0.0042055473 0.033697687 0.16287003 0.10311806 -0.16886412 0.31214753 -0.1946734 0.7714992 0.6951106 -0.70160365 0.9514802 -0.62073755 0.14555073 0.088507555 0.29125085 -0.58910996 -0.37103146 0.11436101 -0.38512325 0.27695745 0.4023561 -0.8171756 -0.124082215 0.037224967 -0.041592054 -0.6012312 0.1413489 0.19621614 -0.07360605 0.6041494 -1.2930573 -0.040557973 0.7274956
AE1 0.47300407 -0.06280758 0.5628377 0.30808115 0.07285674 -0.06329883 -0.24313429 0.123431966 0.23252404 -0.3913407 0.1456487 -0.13026299 0.36137342 0.23500912 -0.38720432 -0.2923365 -0.48736274 0.0060372995 -0.2715871 -0.6853343 -0.26604182 -0.2044512 -0.0216896 0.10031986 0.20338173 -0.30786425 -0.3117144 0.3510092 -0.18849692 -0.3529288 1.3804444 -0.29590383 0.11496415 0.5968349 0.0064472565 -0.61764234 0.32440704 0.1725679 -0.3137665 -0.7492081 -0.2604595 -0.30332038 -0.26304695 0.22628039 -0.19587907 0.33855882 -0.7769646 -0.20507926 -0.27331236 -0.44533506 -0.59454256 -0.614523 -0.23788187 0.1866771 0.5052099 0.69202214 -0.23713389 0.08103519 -0.30341253 0.14473219 -0.3550247 0.20710783 0.47822538 -0.34119067 0.527175 -0.3237217 -0.310053 -0.12888132 -0.10184202 -0.16801603 0.73945785 -0.51402706 0.064492784 0.16062236 0.48999858 0.3094844 0.021572106 0.015865523 -0.44307953 0.3336437 0.6373673 -1.0016707 0.16540672 -0.43730235 0.09339964 -0.10898748 0.53667974 0.022264987 0.4605344 -0.22675021 -0.11310043 -0.48174092 0.18245435 0.38554713 -0.39769632 -0.33625466 -0.10387346 -0.25994137 -0.23487878 0.47184244 -0.89396757 0.50548434 -0.5102417 -0.08091658 0.48686522 0.4207872 0.05714204 -0.027383536 0.41597214 -0.11262263 -0.20948398 -0.19592129 -0.3951862 0.056095798 -0.009959928 -0.42374697 0.9072035 0.02643574 -0.13930163 0.07779077 0.22104193 0.5006553 -0.4212004 0.01750641 0.8006104 -0.21221855 -0.35617325 0.32466102 -0.5522992 0.03334769 -0.08377092 0.5401404 -0.332188 0.4981455 -0.3369795 -0.23608837 0.4749062 -0.024256472 -0.5926748 0.20557074 -0.53826934 -0.7643029 0.07347536 0.48554093 0.12742355 -0.09536911 0.16853395 -0.35565665 1.0555105 -0.7937575 0.20972745 0.08261293 -0.24788609 -0.19125965 0.37773523 -0.17409874 -0.1242578 0.20183137 -0.065323725 0.5207063 -0.14142637 0.046188913 -0.6457389 0.15256257 -0.4546754 0.13050765 -0.2679095 -0.22020082 0.28028202 0.14754322 0.3686984 -0.023260606 0.3869805 -0.5584238 1.2166533 0.7610052 -0.6360873 0.7631282 -0.559913 0.30006132 0.030868772 -0.037460033 -0.40880817 -0.25552666 -0.18640354 -0.28160712 0.437165 0.6349116 -0.8949218 -0.04214079 -0.031406704 -0.1850928 -0.65749323 0.029578337 0.4530466 -0.014102925 0.38783494 -1.1323277 -0.013177232 0.47164863
IH1 0.3367669 -0.07034582 0.37360916 0.2774645 -0.10225215 0.040105406 -0.24126285 0.20899801 0.33177486 -0.27458462 -0.0033758685 -0.07871724 0.33572936 0.0884166 -0.30203924 -0.18628035 -0.4028191 0.002757304 -0.14354624 -0.52195364 -0.27167028 -0.26384228 -0.050599683 0.13639688 0.2011544 -0.21206982 -0.31961057 0.45587113 -0.026978903 -0.32356155 1.1033196 -0.33941287 -0.018060265 0.45900384 -0.2170569 -0.7121274 0.12514605 0.11393814 -0.19612268 -0.69456196 -0.3069756 -0.34836027 -0.41787192 0.11344865 -0.40984493 0.42773652 -0.9309707 -0.35938233 -0.3422153 -0.46811327 -0.9556427 -0.8093507 -0.4065093 0.3301893 0.4390212 0.74420357 -0.14460713 -0.08803999 -0.27279216 0.3032638 -0.46222875 0.16363895 0.25863686 -0.25841686 0.3929138 -0.40432838 -0.30376917 -0.10368069 -0.3801171 0.017451255 0.54818904 -0.8412274 0.066927925 0.07300774 0.72394943 0.4181292 -0.23552239 0.13665801 -0.44057244 0.49845877 0.57482797 -1.1758319 0.25554785 -0.43976295 -0.025787933 -0.072857216 0.468999 0.09985914 0.2700906 -0.2641585 -0.049379714 -0.5593161 0.10792428 0.3764624 -0.051457316 -0.25312275 -0.3412608 -0.36282775 -0.17508528 0.3651599 -1.0386653 0.5876045 -0.38253748 0.095769055 0.6514389 0.35249484 -0.08133194 0.010476305 0.5653029 -0.15981273 -0.26692745 -0.36294279 -0.50891095 0.10447877 -0.112861365 -0.5315168 0.9809985 -0.10995173 -0.23838913 0.06404106 0.35484716 0.6772766 -0.41841316 0.020478198 0.7751925 -0.16880247 -0.19826856 0.37965572 -0.4050241 -0.00073460117 -0.06627302 0.5465106 -0.30212015 0.38472682 -0.425692 -0.16504402 0.4757968 0.058708046 -0.5059405 0.058346685 -0.3372167 -0.6594938 -0.035196617 0.63715196 0.12518577 0.027066981 0.22399154 -0.17227669 0.88860625 -0.7332728 0.24933441 -0.07488336 -0.15135987 -0.1192928 0.26531953 -0.2200949 -0.30016685 0.016086409 -0.15464245 0.49526483 -0.052503172 0.05568629 -0.45021132 0.061452936 -0.34392667 0.12955387 -0.23286292 -0.18453665 0.10864635 0.13539457 0.27536738 -0.07680515 0.49747342 -0.43767646 1.1026543 0.7275299 -0.56973827 0.8289113 -0.8096586 0.21379487 -0.09591079 0.02956742 -0.29733208 -0.36130342 -0.30681977 -0.42878836 0.52044564 0.51537865 -1.0227576 -0.02637983 0.011795012 -0.3512665 -0.75501406 0.14241903 0.40706825 -0.2639464 0.5387703 -1.4748218 -0.051212583 0.46360958
F -0.005226024 -0.04206626 -0.048642322 0.06470039 -0.20969519 0.32178748 0.18346407 -0.10773646 0.21370697 0.12934846 -0.061608978 -0.16252722 0.06857917 0.50231403 0.26560977 0.0981267 0.43625915 0.18606193 -0.026630085 0.1370476 -0.17903206 0.11229909 0.04431425 0.1819324 -0.26546225 0.11162334 0.30239615 0.14775926 -0.092159204 -0.21738702 -0.2960587 -0.040550537 -0.33455676 -0.44721618 0.16861166 0.4536989 -0.20656571 0.02630657 -0.113685906 0.4479012 0.046435907 -0.1371486 0.6259287 -0.0139735965 0.32662117 0.06395735 0.08115214 0.04351115 0.14356166 0.071075425 -0.05236302 0.1973713 0.029573523 0.17932364 -0.2241219 -0.14205119 0.19472933 -0.11931957 0.17911346 0.006387247 0.07938742 0.17942786 -0.25155437 0.19676545 0.102572404 0.15858342 0.12999009 -0.2325749 -0.11729838 -0.25250724 0.087566435 0.5029139 -0.00066492904 0.008219872 0.16060531 -0.006961235 -0.061977528 0.047209255 0.38838822 -0.10725471 0.082419686 0.5000822 0.06747463 0.23243439 -0.14804241 0.09163931 -0.29021576 -0.43556997 0.057776712 -0.011790035 0.13863309 0.016959382 0.2832526 -0.34164 -0.16911708 -0.11404961 -0.12038563 0.8386413 -0.3093641 0.19672574 -0.13634717 -0.41151232 0.27726457 0.041686065 0.15833056 0.081306174 -0.20313016 -0.21422157 -0.37580952 0.39095744 0.25077578 -0.29484066 -0.16542488 0.12161963 -0.01922103 0.04021331 0.00792847 -0.13281944 -0.40385714 0.2428669 -0.21229586 0.095788464 0.39254236 -0.3368964 -0.116276845 -0.11640995 0.10271747 -0.36392564 0.21890032 -0.002356557 -0.17466451 -0.11726278 0.45976624 -0.26324657 0.2269865 0.20319383 -0.4325305 -0.17850094 -0.18364938 -0.06786543 0.07754332 0.4569142 0.12599929 -0.26359972 -0.028379163 -0.1436937 0.25357392 -0.091962986 -0.14482437 0.43364522 -0.27411887 0.015550693 -0.058724526 0.43771985 0.048204307 -0.06590869 -0.10613121 -0.011384049 -0.3780904 -0.30615333 -0.26684493 -0.22633699 0.5799398 -0.2065733 -0.3937363 0.003299045 -0.00843907 -0.07863178 0.06122116 0.1079639 -0.13241044 -0.3860847 -0.43227538 -0.1302486 0.10659703 0.34882954 0.14046536 -0.15437266 -0.06774981 -0.22565818 -0.16137981 0.132586 -0.525092 0.39566216 0.23880732 0.46753716 -0.15206307 -0.14494877 -0.14920105 -0.13488324 -0.6229002 0.07073046 -0.34381008 -0.044624735 -0.2965015 -0.16536191 -0.20909728 0.26115912 0.24280983 -0.40790942
G 0.08933531 0.2367809 -0.17096877 -0.14086777 0.0881155 -0.13214812 0.21371198 -0.12559724 -0.014970859 0.073605016 -0.070941545 0.14150953 0.022219395 0.19244048 0.2513214 0.27456573 -0.20058806 0.006112626 -0.12923272 -0.13728392 0.019884344 0.26978588 0.40474433 -0.007569604 -0.20325406 0.24824964 0.28233695 -0.26880166 -0.082864776 0.30429843 -0.51330686 0.2726056 -0.024694951 -0.3300505 0.13094041 0.2478636 -0.027147928 -0.2868951 -0.2646777 0.1798312 0.10827329 0.564688 0.4061305 0.0455044 0.20553628 0.39810747 0.3222484 0.14657688 0.0878134 0.06686885 0.1485544 0.3474847 0.29310846 0.03641037 0.051018894 -0.30841163 0.008361565 0.06134152 0.4309172 0.022793313 0.20760748 0.13877462 0.075449504 0.12533791 -0.16809562 0.16318467 -0.13612513 -0.22516866 -0.04039225 -0.06636766 -0.026759496 -0.08000427 -0.0003786689 -0.05149921 0.36646837 -0.1044124 -0.063359015 -0.14717312 0.07251408 -0.05714376 0.0010672814 0.3546097 -0.073651075 0.2836959 -0.078558154 -0.05858972 -0.31384337 0.087178394 -0.11417805 -0.3359111 -0.101055816 -0.22169474 0.3080103 0.0030071854 0.04173885 0.04861971 0.072282486 0.2574045 -0.1258505 -0.2012362 0.10555906 -0.2831404 0.055309497 0.07079644 -0.54571456 0.06757761 -0.3121973 0.087163046 -0.27416387 0.2660377 -0.16527939 -0.23887008 0.013405625 0.09042023 -0.009787982 0.14799763 -0.046209577 -0.26910198 -0.37742218 0.09597259 -0.108025014 -0.191475 -0.08594103 -0.22038236 -0.22215624 -0.14279927 0.20179805 -0.24179332 0.14386635 0.31006712 0.13863665 -0.41139206 0.6077816 0.047525197 0.38698587 0.25131088 -0.042823248 -0.2265384 0.079856016 0.067006975 0.20259716 0.1055688 0.24385111 -0.38981685 0.08268395 0.015347269 0.39105594 0.11152906 -0.51800734 0.17355162 -0.53859776 -0.089249924 -0.072811104 0.4904757 0.07478253 0.009002037 -0.061146747 -0.09511789 -0.290338 0.028198278 -0.55003965 -0.17402995 0.3300184 -0.3754747 -0.14407003 -0.06936628 -0.08406739 0.17412189 -0.004628001 -0.013822113 -0.06721915 -0.45462853 -0.12550691 0.2748217 -0.49758127 -0.032263745 0.34320366 -0.05435625 -0.069023736 0.25955287 0.2222142 0.018622994 0.06127401 0.16853717 0.2868733 -0.06766665 0.013557627 -0.3270696 0.054281443 -0.13263063 -0.11664408 0.11718913 -0.3532551 0.16085975 -0.17563091 0.022680765 0.10704618 -0.5073742 -0.073698424 0.056880664
V -0.3395994 0.122130886 -0.17954424 -0.009295511 -0.07508761 0.38235384 0.3859052 0.053891692 -0.12229266 0.28012913 -0.23793629 -0.05949884 -0.32469788 0.20707843 0.44050238 0.10714146 -0.32224974 0.29889846 -0.49433464 -0.0419145 0.32649094 -0.052423295 -0.035238817 0.054808963 -0.24262908 -0.2815667 0.39215234 -0.11512384 -0.4909714 0.16699125 -0.4510663 -0.590415 -0.80382085 -0.24857904 0.4384362 0.13851482 0.09504476 -0.24275313 -0.31974715 0.34930378 -0.5177572 -0.21572693 0.3811693 0.10330994 0.1799498 -0.23118432 0.15494546 -0.17384438 0.47663814 0.18016164 0.06523567 -0.24423993 0.24618568 -0.0975323 -0.45595762 0.2708898 -0.10251713 -0.002138628 0.04694234 -0.13595957 0.26498622 -0.09038719 -0.044734906 0.54789394 -0.08483504 0.09087955 0.22156705 -0.008287905 0.06878385 -0.091520436 0.02232526 0.29411262 0.037068006 -0.10969588 0.0073066526 -0.1754247 -0.15322858 0.35675982 0.21225028 -0.29474223 -0.27903086 0.51262695 -0.25748274 -0.031256203 0.008727455 0.33780923 -0.02238887 -0.31264535 0.13913828 -0.30462515 0.25608984 0.22243877 0.43185377 0.05465043 -0.021945419 -0.10513734 0.15181841 0.41895044 0.09775182 -0.17333569 -0.1853266 -0.43280882 -0.15587154 0.023216568 -0.3873138 -0.38706988 -0.23661761 0.1544306 -0.45453683 0.49978083 0.4346651 -0.1774965 -0.11020421 -0.2381574 0.03779538 -0.20805612 -0.11643276 -0.045049727 -0.2661538 0.08153871 0.2868479 -0.16203888 -0.17551884 -0.3438792 -0.11463419 0.27653626 -0.10620624 -0.0071825096 0.091018744 0.09743257 0.22070642 -0.4025001 0.36509952 -0.03310455 0.22731227 -0.13082722 -0.16548169 -0.3769088 0.031124383 -0.2920142 0.16507052 0.26659605 -0.052470066 -0.18478933 0.10425136 0.031959068 0.46497023 0.13941039 -0.23082758 0.112234086 -0.19030644 0.05738902 -0.43122545 0.007407774 0.062017146 0.047165778 -0.5563596 -0.52750605 -0.065203495 -0.20532718 -0.64325976 -0.36200666 0.20169194 -0.48786828 -0.39740545 0.24637975 0.07736568 -0.07999997 0.13669913 0.16916963 0.1499083 -0.045064166 -0.5878872 0.07505992 -0.34494752 -0.35847145 0.012492527 0.12561008 0.12689523 -0.3900632 0.051985182 0.014586992 -0.46450904 0.06773604 -0.010058536 0.29495767 0.10934774 -0.030147102 -0.14621113 0.0034013127 -0.55274254 -0.055469643 -0.19046807 0.06846982 -0.29553202 0.26792067 0.31423488 -0.38182798 -0.1136432 0.059722822
IY1 0.35302174 -0.2729358 0.1660919 -0.07166582 -0.024944006 -0.029286863 -0.24579996 0.12020181 0.3250717 -0.20556596 -0.08661178 -0.12557343 -0.22755554 0.06719644 -0.080257565 -0.011560378 -0.6263006 0.16412911 -0.16960105 -0.5393053 0.20198292 -0.35690254 0.08753528 -0.14196774 0.146786 -0.062348254 -0.23306893 0.10155144 -0.15070134 0.15109386 0.34623012 -0.20302181 -0.036169033 0.42808485 -0.15033656 -0.45925128 0.108899355 0.13140118 -0.33021453 -0.44172698 -0.14355338 -0.0901853 -0.19939709 -0.23768057 -0.21457316 0.24752703 -0.41863263 0.0111938 -0.20783666 -0.40265355 -0.28724217 -0.24338894 -0.1815795 -0.1458219 0.3096187 0.18019809 -0.45658255 -0.072595015 -0.10147786 0.16257603 -0.063978866 -0.037402924 0.32035407 -0.19374192 0.3241668 -0.07964883 -0.23274605 -0.04506201 -0.22198938 -0.22137329 0.2681704 -0.29969922 -0.0700873 -0.14116856 0.35755795 -0.04541302 0.044822723 0.092674255 -0.13223772 0.12321631 0.57440907 -0.74579746 -0.09558998 -0.44484198 0.115763746 0.08235998 0.2680679 -0.29263055 0.24266164 -0.26594877 -0.12509656 -0.47417426 0.075538695 0.28301588 0.04466983 -0.13704005 -0.06739514 -0.11863587 -0.17933087 0.29853943 -0.61675507 0.3107739 -0.20821103 -0.17636374 0.52864563 0.32506984 -0.1540317 0.20404407 0.5175497 -0.19405575 -0.3156483 -0.30122033 -0.34069982 -0.046094652 -0.07889964 -0.5364436 0.8493737 0.19604181 -0.06627596 -0.14687683 0.77827394 0.55748326 -0.54694265 0.11811158 0.6664631 -0.093074866 0.27065116 0.26753342 -0.116781846 -0.02584 0.043796293 0.09042735 -0.2564126 0.40978226 -0.25032336 -0.5947676 0.13260128 0.04990373 -0.39883843 -0.033597674 -0.1432272 -0.37993515 0.23764935 0.39609712 0.102306604 -0.031661317 -0.003958122 -0.20843512 0.61395603 -0.6879677 0.4435857 0.0055917716 -0.20093375 -0.16656244 0.11713155 -0.34688056 -0.37253255 0.0012365411 0.016640218 0.22062466 -0.4257839 -0.10237467 -0.61800927 -0.0071204556 -0.4125862 0.118226476 -0.31476998 -0.21690956 -0.009685386 0.20815796 0.1963661 -0.063679 0.17987788 -0.06358511 0.2441534 0.51531506 -0.33547145 0.5705472 -0.4242036 0.091653824 -0.09974659 0.30681625 -0.10577763 -0.28960362 0.15606138 -0.4502054 0.4955817 0.44489485 -0.5503525 0.012323736 -0.22689621 0.042328704 -0.40197083 -0.012382972 0.041986722 -0.12981953 0.4134345 -1.0790228 0.044854783 0.35297644
NG -0.13090156 0.46019527 0.533951 0.18443348 -0.039022926 0.0055301497 0.26709914 0.1291381 -0.17112985 -0.108325176 -0.21166363 0.08714707 0.09247371 -0.0034630124 0.2566975 -0.1558352 0.21450233 -0.37326485 -0.16466902 0.28077796 -0.56246954 0.08167614 -0.22621371 -0.028756633 -0.47182715 -0.011236017 0.23886842 0.28408936 -0.46684375 -0.3623256 0.40502533 -0.53060704 -0.12001604 -0.06776267 0.20721175 0.768103 -0.009954776 -0.055035032 -0.370791 0.43301618 0.122727655 -0.2693247 0.603687 0.58217555 0.16524212 -0.57044965 0.50930256 0.25968194 -0.19308217 0.6594545 0.15627639 0.013811449 0.3465736 0.00605257 -0.98395985 0.14495507 0.45694926 0.16482554 -0.20205353 0.28407288 0.52709717 0.46100995 -0.159501 0.3040559 -0.43341446 -0.39356086 -0.102781765 -0.032423817 0.23742725 0.045714255 -0.14359815 0.009832351 0.35906798 0.038454786 -0.6217738 -0.29000705 -0.2433922 0.6754522 0.32907516 -0.53200376 -0.00031657357 0.26856267 0.17601562 0.58527726 -0.27918375 0.1208691 -0.10451049 -0.2271244 0.28672713 -0.044740804 0.15224904 0.6311293 -0.047381762 -0.3023814 -0.19411162 -0.019718565 -0.3334636 -0.075617455 -0.5675661 0.0029108387 -0.8036698 0.0034465427 -0.27637976 -0.0773791 0.0674562 -0.673219 0.20399083 -0.037413035 0.18524368 0.1630594 0.4721454 0.017834011 -0.6471313 0.23300438 0.027691916 -0.28159016 -0.33204666 -0.10282424 -0.26817197 -0.070629634 -0.18743503 -0.20954777 -0.493143 -0.35723957 0.069004126 0.5100526 -0.06454009 0.1904109 -0.1196738 -0.67516494 0.0934429 0.19360712 -0.24242537 -0.18450406 -0.29218686 0.8723704 0.16955303 -0.036748372 -0.368445 0.13679771 -0.25467995 0.26570964 -0.6460991 -0.087902665 0.11030478 -0.44761717 0.17018105 0.1122257 -0.44162658 -0.26636204 -0.14933948 0.5308028 0.2687619 0.20765331 0.1269567 -0.075887166 0.54538697 -0.11239139 -0.048286222 -0.16704074 -0.05274712 -0.20918164 0.761557 -0.27552563 0.6295309 -0.5580861 0.08288359 0.35278413 0.3809318 0.07936321 0.042172767 0.07390674 -0.07635556 0.11107607 -0.19884731 -0.25538185 -0.29876345 -0.2424197 -0.27433234 -0.71100974 -0.3521782 -0.6518825 -0.2972462 0.134015 -0.08732635 0.0676105 -0.41124886 -0.30061346 -0.27874652 -0.65406233 0.5788 0.04584135 -0.13774113 0.67312956 0.48196214 -0.25877133 -0.22242586 -0.13870488 -0.058986224 -0.1197344
HH 0.09539775 0.018313283 -0.28832057 -0.12166472 -0.14016674 -0.059846036 0.09288958 0.20352483 0.16299742 0.06608231 0.07215859 0.19032386 -0.06578032 0.3905633 0.23419984 0.07621362 -0.0056731505 -0.178938 0.21088995 -0.038493603 0.05188865 -0.11175294 0.16287956 0.11916467 -0.18942578 0.09201723 0.26817432 0.037465833 -0.04470761 0.15739512 -0.603139 0.0061684353 -0.35999352 -0.34956446 0.30269924 0.6280812 -0.10403399 -0.3509056 -0.5078323 0.32250646 0.024464617 -0.06740669 0.52106047 0.066276595 0.2516369 0.017233964 0.48149648 0.07340653 0.21925074 0.25949705 0.28356838 0.15013194 0.1426259 -0.10016423 -0.06397341 -0.11444705 0.0034549541 -0.36958852 0.2907593 -0.15194693 0.009941248 0.09834952 -0.25726607 0.17623861 0.15796924 0.1600039 -0.22464511 -0.16516852 -0.1895409 -0.14582044 0.11611364 0.2579198 -0.065674186 0.011080743 0.19361585 0.020479744 0.012383719 0.025353814 0.20499164 -0.35578254 -0.19538695 0.25159928 0.03693769 0.19452424 0.02348792 0.027317783 -0.26168168 -0.22525977 -0.119853385 0.13079354 0.3584582 -0.19490762 0.3038605 -0.036627423 0.1434812 0.18940401 -0.25836787 0.2945637 0.10554731 -0.088377394 0.07532779 -0.5466927 0.10392735 -0.16193156 -0.122268565 0.018246388 -0.2597049 -0.3035883 -0.20321633 0.31833646 -0.10227611 0.0693351 0.28795874 0.3061534 -0.0013848512 0.12323338 -0.511497 -0.42690003 -0.2761686 -0.061494 -0.25500196 -0.469175 0.16830781 -0.32788822 -0.3195046 -0.24317689 0.029144816 -0.19988379 0.094434574 0.08287948 0.06805328 -0.4065938 0.58297235 -0.25146738 0.22679149 0.23906167 -0.63681966 0.0051420773 0.24098586 -0.04886204 0.29129323 0.23375933 0.16062789 -0.59763926 -0.2702118 -0.111010574 0.33765838 -0.16162337 -0.56105924 0.46529618 -0.38548765 -0.158833 -0.0029869135 0.20606801 0.18411283 -0.12362336 0.19776838 -0.14042465 -0.15143159 0.10247016 -0.26393792 -0.4088607 0.085845254 -0.00612843 0.006278789 -0.012234071 -0.08273617 0.063954875 -0.030737676 0.15310954 0.10875621 -0.07073611 -0.3595944 0.15128857 -0.4554802 0.16152921 0.30415505 -0.3046969 -0.0014358573 -0.05020493 0.120640874 0.10157917 0.27332413 0.12088336 0.07405746 0.01022643 0.027438598 -0.18196517 -0.072747804 -0.42837036 -0.2076773 0.01471989 -0.35306254 0.056501117 -0.15107244 -0.08802097 0.0705258 -0.03530214 -0.13315485 -0.042680543
EY1 0.10251431 0.07486678 0.2759556 0.43082544 0.055574708 0.06505525 -0.041697945 0.15244985 0.34491923 -0.10616204 -0.29269978 -0.045300473 0.1669146 -0.248371 -0.3057908 -0.03806302 -0.4598062 0.21678525 -0.22683845 -0.5807911 -0.3510886 -0.15935558 -0.12679304 0.4270147 -0.1133328 0.047492232 -0.100368366 0.30272368 0.0017388461 -0.33942503 0.8285615 -0.2517942 -0.027540844 0.04451361 -0.17827545 -0.30021894 -0.023053918 0.17834833 -0.24886474 -0.57829636 -0.122491695 -0.13999452 -0.70896167 0.058614876 -0.2913953 0.5058054 -0.65465665 -0.19141045 -0.2198612 -0.36110955 -0.6633505 -0.65067005 -0.3504506 -0.08265872 0.46118957 0.1522423 -0.2864062 -0.003617332 -0.2693324 0.3072735 -0.1926632 -0.01615429 0.34497812 -0.17007734 0.30155703 -0.3344845 -0.47438544 -0.42791635 -0.41545445 -0.22567265 0.36819315 -0.67976993 -0.25024158 0.2287167 0.4057848 0.3486088 -0.0716193 0.029328937 -0.32761717 0.70909727 0.6921721 -0.9145582 0.18747734 -0.5446701 0.29089332 -0.087802455 0.47364277 -0.08496062 0.23150995 0.14747769 -0.39459807 -0.6203054 -0.0036446173 0.20939118 0.13274659 -0.29528034 -0.17823072 0.1886332 -0.2790502 0.054746013 -0.8774898 0.5040221 -0.15939675 0.03759969 0.47708791 0.1800897 -0.36486468 0.013080156 0.36681744 -0.17390952 0.07352708 -0.35344696 -0.39197683 -0.17003375 -0.2593196 -0.33577293 1.0511849 0.016078256 -0.023266954 0.2645154 0.5468826 0.80277246 -0.44392163 -0.06920003 0.5940205 -0.28363717 -0.13056326 0.2472393 -0.27300876 0.15822583 -0.12616032 0.085627116 -0.047339786 -0.07817431 -0.39138615 -0.3309935 0.42634124 0.08422801 -0.68305564 0.09417605 -0.33594835 -0.58118296 0.25189126 1.0047652 0.4156062 0.1412747 0.32284096 -0.2603679 0.9744149 -0.66664267 0.75420994 -0.33289924 0.09682524 -0.1085465 0.30888635 -0.28023586 -1.0885866 -0.20996395 -0.48403096 0.43834394 -0.25712687 0.22541136 -0.23936094 -0.37658292 -0.83592767 0.2960259 -0.2145497 -0.41077805 0.09053675 0.18251142 0.25866646 -0.13808657 0.33759207 -0.56335235 1.1428431 0.81335115 -0.71481985 0.44344994 -0.94252306 0.14176132 -0.29235128 -0.11617757 0.12539728 -0.291516 0.032699972 -0.25530517 0.82149065 0.6890298 -0.84291285 0.17681322 -0.48836967 -0.39117736 -0.6887932 -0.050762247 0.24835105 -0.15563375 0.5606104 -1.3297468 0.02469798 0.3856784
W -0.27854285 -0.14482354 -0.19239523 0.01865103 -0.14800338 0.40424255 0.14417027 0.09961961 -0.28771523 0.23140264 0.18038602 -0.372121 -0.18186705 0.198246 0.43112984 -0.109385476 0.5617536 0.21750577 -0.2588683 0.19171435 -0.0053789793 0.2148492 -0.35767823 0.1833561 -0.43505698 -0.21744709 0.49668825 -0.08273935 -0.13789475 -0.29733434 0.063392274 -0.118913576 -0.30064127 0.08689332 0.42488983 0.12193242 0.14727974 -0.34483194 0.14815363 0.20101893 0.03625341 -0.2007077 0.84315675 -0.08850768 0.32328415 -0.39210087 0.046563745 0.2430372 0.1454726 0.0051864996 0.26878625 0.8109253 0.55139947 0.14987008 -0.10494933 0.1439132 0.12375721 0.17230856 0.37269893 -0.47925088 -0.09112691 -0.24267878 -0.27380502 0.07167675 -0.001939872 0.07922363 0.44386947 -0.077242784 0.6138634 -0.33909655 0.36670026 0.6489234 0.115982 0.0857921 -0.2616629 0.08807198 -0.18223047 -0.3032913 0.54260707 -0.10583112 -0.0134403305 0.96929365 -0.22415009 0.246164 0.20968118 -0.17455353 -0.034620896 -0.37224984 -0.025155615 -0.25685057 0.29866353 -0.02010937 0.036123957 -0.29421824 -0.48575732 -0.25729975 0.31922022 0.41584587 -0.047707908 0.46088257 0.049055755 -0.272458 -0.08011852 -0.2098608 0.41268057 0.33033064 -0.084687546 0.11712042 -0.28207317 0.15295961 0.28196993 -0.0047707553 -0.15730675 0.5794969 0.0034840626 0.21678065 0.03225173 -0.21077406 -0.18435232 0.4079524 -0.32185283 -0.1297544 0.563531 -0.5522655 -0.019269388 -0.31943896 -0.15488702 -0.31119186 -0.13625368 0.10521572 0.059620783 0.0252411 -0.060545884 -0.30393964 0.362309 0.30819586 -0.19989496 -0.3133354 -0.4504997 0.07072438 0.17225389 0.32358477 0.15878302 -0.24022828 0.07147341 0.15563247 -0.06604628 0.0231042 0.24812396 0.2521683 -0.43005505 -0.12240859 0.3647478 0.2377753 0.16941012 -0.06812233 0.16273786 0.32416916 -0.13726674 -0.106181294 0.039801963 -0.26145938 0.38517153 0.13286497 0.19853166 -0.07222776 -0.025124094 -0.09767457 -0.053587105 0.32365942 0.43090147 0.022496646 -0.35353342 -0.114522845 -0.23514554 -0.20042065 0.43996063 0.210629 -0.00029785692 0.2468052 -0.27164438 0.002381204 -0.2756905 0.52864355 -0.063169315 0.16115724 -0.30517867 -0.28841776 0.85530114 0.32667765 -0.3779664 -0.022343341 0.38118982 -0.64129245 -0.17894709 0.22701547 0.022828862 0.85920167 0.103593 -0.2390129
SH -0.1604777 -0.06939257 -0.093772225 0.31970218 0.36967564 -0.3078552 -0.018451745 -0.02073024 -0.38423964 0.53418475 -0.44035584 0.07293897 0.08226319 0.092591956 0.17589574 -0.03557788 0.22057046 0.1553341 0.12169892 -0.24575947 -0.15265574 0.7214471 -0.29848716 0.4084362 -0.21493852 0.15450418 0.39978656 -0.046810016 0.2199779 -0.26555324 -0.45002285 0.07539519 -0.60809296 -0.51629657 0.09284032 0.44026908 0.0582325 -0.13386339 -0.41577908 0.42029613 -0.35863099 0.05506364 -0.13368471 0.1601562 -0.29980662 -0.06834655 -0.050097868 0.008180237 0.256544 0.58483934 -0.05414354 -0.20400137 0.25676376 -0.1768726 -0.2327383 0.104902685 0.10403531 0.06072572 0.32932958 -0.24077517 0.09890352 0.043899234 0.18725954 0.20072144 -0.25132847 -0.44088438 -0.49365824 -0.5234448 0.30018112 0.2004041 -0.12595426 0.34365502 -0.42976007 0.31143892 0.45468858 0.06325413 -0.11276425 0.4452552 0.15530069 0.46585807 0.030236134 0.35697308 -0.19410375 -0.2969933 0.18298118 -0.1718781 0.2703205 0.21403073 -0.024456814 -0.17954987 -0.1317398 -0.12192562 0.32071343 0.51634103 0.12067256 -0.19085507 0.10233182 0.17390907 -0.16788873 -0.4424258 -0.042684704 -0.07185448 -0.14555347 -0.019267485 -0.44141525 0.07056678 -0.32334882 0.39915228 -0.011244669 0.030374344 0.45121762 0.117335215 0.05961758 0.23795737 -0.013357752 0.26820737 -0.15683526 -0.09744503 0.11660112 0.09900256 0.049409356 0.063264705 0.15732947 -0.4150425 -0.7018177 0.08030768 -0.64314115 -0.06538797 -0.015470967 0.33537224 0.312331 -0.5131799 0.30617023 -0.24379502 0.40450463 0.23408149 0.28064 -0.4143866 0.2955402 0.59535086 -0.12572055 0.12324823 -0.059084322 -0.044558354 -0.053071372 0.05386418 0.62307125 0.21599184 -0.2590875 0.6068566 -0.41750923 -0.37164053 -0.2950887 0.00393657 0.017767036 0.42927316 -0.91479504 -0.44662812 -0.65502816 -0.15090208 -0.0585276 0.1177964 0.3720471 -0.4161394 -0.42660433 0.12117752 0.2722222 -0.12886475 -0.1384136 -0.033061314 0.19457605 -0.004046256 0.15390147 -0.005997497 0.17535639 -0.38279784 -0.24974841 0.19909506 0.21194685 0.40283722 0.77583635 -0.3771815 0.04741139 -0.052600764 -0.26296014 0.5221217 -0.10970403 -0.047904164 0.12870051 0.46857095 -0.29547182 -0.31761625 -0.3737919 -0.075548045 -0.094319046 0.49881575 0.60145056 -0.23538229 -0.1514089 0.52547306
OW1 0.20728752 -0.1310997 0.42029113 0.313876 0.11098111 0.04497927 -0.19858079 0.12424815 0.16120706 -0.2313149 -0.15776277 0.011226075 0.055994738 -0.1832721 -0.29055724 -0.3553409 -0.6286127 0.10005067 -0.30219743 -0.6601718 0.03759799 -0.34023494 0.042215243 0.111007094 0.20096898 -0.19485396 -0.2445579 0.16919379 -0.14867078 -0.06599026 0.79732084 -0.22204606 0.104216136 0.5417232 -0.046465475 -0.52584136 0.20686547 0.10876987 -0.30539048 -0.5848795 -0.16215432 -0.15005614 -0.2587498 -0.025799714 -0.19064043 0.30732155 -0.4333433 -0.09078577 -0.2347512 -0.39336646 -0.28255287 -0.5201598 -0.2438911 -0.036597192 0.47506922 0.4458808 -0.4810982 0.11296122 -0.3164282 0.31868613 0.011672157 0.039812952 0.4308387 -0.310835 0.33229122 -0.2643576 -0.22468434 -0.15280987 -0.06873021 -0.25294846 0.27986318 -0.37061816 -0.057230964 -0.056772597 0.29869315 0.11128632 0.08369167 0.18623643 -0.42778122 0.26346782 0.5447885 -0.7598984 -0.0332472 -0.6227492 0.32159305 0.020263318 0.43999028 -0.22633414 0.43903908 -0.14861427 0.034968138 -0.44989166 0.2753655 0.3981574 -0.26077136 -0.070292264 0.019331401 -0.048314176 -0.060991522 0.13502298 -0.71683496 0.4160812 -0.5132659 -0.15167658 0.36117747 0.33186838 -0.08121133 0.065891705 0.50988865 -0.16169252 -0.2165182 -0.18120548 -0.18361123 0.049317107 -0.10133642 -0.37061173 0.9686561 0.08147148 0.018498126 -0.20032583 0.46925336 0.5032633 -0.51391566 -0.04170497 0.5783573 -0.16701384 -0.12655656 0.3723819 -0.43751264 -0.01676312 -0.096370175 0.13270171 -0.027235404 0.17501533 -0.05496947 -0.40307254 0.2548365 0.02070329 -0.43018225 0.14388713 -0.31247163 -0.5178151 0.237782 0.33919126 0.16822857 -0.024267394 0.27925554 -0.23268285 0.9033495 -0.69762385 0.40440673 -0.038531866 -0.25118017 -0.23678377 0.37126264 -0.2155016 -0.3643403 0.17232914 -0.17628187 0.43562016 -0.4795024 0.041880637 -0.6135098 -0.035280317 -0.56326866 0.22232184 -0.38673103 -0.14213964 0.17067286 0.13432352 0.3924191 -0.027085006 0.17965019 -0.21933642 0.592543 0.565201 -0.62757653 0.52541083 -0.62318444 -0.041596305 -0.12062894 0.03039696 -0.1844302 -0.34812152 0.037063107 -0.17905359 0.46857753 0.6484042 -0.6477496 -0.02886131 -0.04810716 0.015755028 -0.591584 -0.1498697 0.07733082 0.14343934 0.5266469 -1.0064399 -0.007481896 0.6778413
OW0 0.04339196 -0.39823017 0.2581102 0.1481655 0.18250793 -0.1243608 -0.28933266 -0.4759105 0.11956652 0.08420297 -0.28483215 -0.05485884 -0.27649906 0.1895225 -0.39168328 -0.03360149 -0.48257056 0.33205417 -0.062959835 -0.18130648 0.4161568 0.19989786 0.29508626 -0.24508004 0.18072963 0.24418426 -0.5181185 -0.31404468 0.07828242 -0.16483386 -0.20507279 0.14397715 -0.020775136 0.23773012 0.016746715 -0.46833083 0.03322492 0.37279445 -0.3908218 0.011490103 0.2058876 0.1777836 0.09751415 -0.27443734 0.16580154 -0.20329474 0.19790944 0.10801737 0.1834601 -0.12987243 0.35755774 0.113109976 0.023203213 -0.34240636 -0.04120013 -0.26554248 -0.2829595 -0.09090426 -0.20859641 0.17724273 0.51825815 0.011973846 -0.039870344 0.138677 0.0063106352 0.20360857 0.09347993 0.17631169 0.17734618 -0.27573335 -0.4117405 0.5237964 -0.23026696 -0.12700826 -0.027939389 -0.2684311 0.15194616 -0.010724493 0.05750629 0.017929973 0.1056824 0.17953454 -0.29863447 -0.06313477 0.086725 0.27497482 0.3046091 -0.22586927 0.10673362 -0.23365833 0.08805656 0.13329767 0.013472251 0.23216675 -0.08936478 -0.01652408 0.33271307 0.37058428 0.15994056 0.3122117 0.28473234 -0.17386915 0.28765258 0.047148794 0.048028354 0.20133488 0.018099273 0.08201789 -0.11236314 -0.27069366 -0.52875394 0.02586886 0.4139971 -0.001274814 0.02127616 0.06312707 0.28252456 0.40837717 0.29563993 -0.37542635 0.27482468 0.047525626 -0.08651435 0.07026339 -0.15686612 0.19023919 0.37657723 -0.15782818 0.3053635 -0.0110496385 0.005541586 -0.45297542 0.30142334 -0.041464895 0.43449596 -0.6904894 0.01958829 0.106281504 0.07024008 -0.13744591 -0.021877889 -0.09361746 -0.009239133 0.28601855 -0.2148799 0.06434232 0.016987855 -0.12481081 0.21715999 -0.14345706 0.26804066 0.0563079 -0.12472011 -0.08809077 -0.18696487 -0.01448984 -0.19032395 -0.10205245 0.11785524 -0.31207347 -0.21655135 -0.052293323 -0.3063262 -0.058769144 -0.21708246 -0.052768566 -0.1125708 -0.16891678 -0.16345307 -0.15011485 -0.032396406 -0.30648184 -0.10196207 0.39266637 -0.4526354 -0.0702977 0.005984869 0.29991606 0.54054576 -0.066099726 0.04155932 0.34728664 -0.21548778 -0.13893463 0.6992943 -0.068301074 -0.22842596 -0.012409048 0.4168571 0.09175142 -0.089869246 0.26863012 0.41817188 -0.36545622 -0.5241073 0.35599965 -0.114811055 0.7436339 -0.07164158 -0.050264653
AO1 0.51453084 0.18270586 0.40828708 0.4299704 -0.20553377 0.028605446 -0.2829636 0.057045683 0.5272787 -0.049202703 0.014081475 -0.07248321 0.41321856 0.36575752 -0.19231991 -0.32428294 -0.607742 0.05320898 0.17601591 -0.6185188 -0.35028008 -0.004319384 0.29638767 0.039644383 0.19094105 -0.16743882 -0.21809839 0.32880554 0.23444663 -0.22389568 0.56033945 -0.1526945 -0.28735262 0.5886053 -0.50634885 -0.63043606 0.2612787 0.04589159 -0.27427226 -0.49890572 -0.22491397 -0.18017367 0.05650363 -0.06551002 -0.101442546 0.45881304 -0.5773033 -0.22540572 -0.27629465 -0.24180718 -0.6863469 -0.22488922 -0.20014268 0.3846507 0.25693443 0.6357264 0.008368966 0.053814583 -0.048814837 0.6252271 -0.23837994 0.2787354 0.24140747 -0.29121578 0.3433207 -0.42354605 -0.26343983 -0.17172323 -0.5018252 0.054291684 0.33843488 -0.69059664 0.08020001 -0.2621164 0.90996796 0.07560263 -0.026959056 0.14096528 -0.4114125 0.30629155 0.6708529 -1.0934802 0.36014178 -0.5784026 -0.029151386 -0.09138719 0.4361407 -0.07061388 0.069280304 -0.32815337 0.060359817 -0.6717132 0.092048615 0.49647805 -0.055524416 -0.24450517 -0.5209448 -0.3468628 -0.2993613 0.33942524 -1.0579493 0.6570101 -0.3526133 0.21167852 1.0752336 0.5855349 0.05356281 0.08981614 0.81527495 -0.37598833 -0.5144468 -0.3287789 -0.65918964 0.28289047 0.112606026 -0.5445533 1.2152466 0.32785568 -0.46104154 -0.08350311 0.25334224 1.0696193 -0.38334554 0.17963491 0.61639124 0.010420226 0.12044072 0.3683853 -0.13091876 -0.029519333 -0.055813737 0.6879147 -0.34608853 0.5046512 -0.32300416 -0.20789652 0.7292333 -0.15103729 -0.12722756 0.22220828 -0.406104 -0.28262568 -0.17129163 0.588892 0.08974344 0.040000074 0.16029751 -0.033187754 0.5904857 -0.8078795 0.03690189 0.325491 -0.14960292 -0.044499572 0.19633843 -0.16785994 0.19281948 0.26305905 -0.3877951 0.2050829 -0.23005062 -0.08688459 -0.40678647 -0.10423513 -0.45161048 -0.021012396 -0.4895318 0.21703027 -0.05087573 0.123252325 -0.1307656 -0.20372708 0.5439672 -0.23283753 0.62388664 0.77978134 -0.5159331 0.95294446 -0.64871407 0.38252676 0.054250784 0.28231665 -0.5217903 -0.03267768 -0.13825315 -0.00015565509 -0.046293944 0.1467053 -0.39736137 -0.056100417 0.09463808 -0.15903264 -0.7360448 0.16654694 0.22419758 -0.4643165 0.62825817 -1.3000885 0.16792557 0.38532293
AY1 0.4330231 0.08637731 0.32384858 0.21105929 -0.082981706 -0.11462288 -0.2720707 0.042320043 0.068325475 -0.28083953 0.14715534 0.009176916 0.20564523 0.14678515 -0.105707005 0.023677746 -0.4474106 -0.2719454 -0.07670897 -0.731896 -0.19478945 -0.24858132 -0.03959759 0.14670056 0.1922273 -0.22756651 -0.10044974 0.611636 -0.08475756 -0.12800246 0.5284983 -0.108812645 -0.3153684 0.35191494 -0.29508188 -0.27197307 0.19544695 -0.276246 -0.20709695 -0.31073752 -0.40161574 -0.04717066 -0.17629236 0.024242211 -0.21302933 0.37142074 -0.26500165 -0.07649628 -0.17785856 -0.14434844 -0.42174402 -0.31920007 -0.41621888 0.106224746 0.47620285 0.49511883 -0.16893382 0.026487619 0.1779953 0.07160571 -0.30784538 0.09839673 0.2506471 -0.42523772 0.51724863 -0.27532193 -0.4816934 -0.4643153 -0.54289836 0.030652978 0.49652645 -0.7718416 0.17821626 -0.23083901 0.8030415 0.27965403 -0.17927706 -0.0019634261 -0.36131132 0.43660817 0.55364466 -0.7901778 0.11592809 -0.5056972 0.3103311 -0.052317988 0.250325 -0.18103884 0.18117091 0.03767923 -0.13530733 -0.75133276 0.22771545 0.42600888 -0.07197461 -0.043089017 -0.19512627 -0.31057635 0.12422437 -0.15623248 -0.65107745 0.41445825 -0.43086836 -0.107070304 0.5122015 0.53198814 -0.2840869 -0.020625206 0.65420353 -0.19398409 -0.22760569 -0.29128438 -0.49484056 0.2040808 -0.06724279 -0.40223098 0.8934591 -0.32389748 -0.14676526 -0.21997315 0.45119938 0.662785 -0.4590218 0.062519155 0.56363356 -0.47577333 -0.057983946 0.529582 -0.28575027 -0.054249905 0.068514444 0.6333812 -0.35235485 0.5429087 -0.5639998 -0.21632011 0.5405093 0.030775342 -0.10816085 -0.12638463 -0.42972648 -0.42304552 0.13084728 0.25890562 0.11461934 0.043945406 0.18953386 -0.07443823 0.3634151 -0.5835218 0.12424353 0.05408675 -0.02186836 -0.13668422 0.28227463 -0.2662352 -0.28229478 0.22574034 -0.12981015 0.562623 -0.2532504 -0.12811734 -0.35815212 0.12800898 -0.05404436 0.045603205 -0.24407992 0.07938506 0.3284593 0.16548449 0.32114398 0.05174585 0.33271402 -0.58589095 0.51286566 0.48767796 -0.49023467 0.46713343 -0.60246384 0.13374478 0.076433234 -0.046863634 0.079595305 -0.2243393 -0.390487 -0.32684508 0.42771825 0.27400562 -0.15479684 0.011520771 -0.06190201 -0.16417086 -0.60164064 -0.32299903 0.058767296 -0.15070015 0.5190809 -0.93330395 -0.08760515 0.69269526
AH1 0.45300186 0.089305356 0.704898 0.45630172 -0.045347948 -0.038861465 -0.11477786 0.010256479 0.23795296 -0.57876647 0.28678107 -0.1300441 0.70047647 0.2487608 -0.5533321 -0.34354463 -0.31566775 -0.2650748 -0.18989961 -0.55625886 -0.45228723 -0.087399624 0.09299669 0.26899582 0.10173012 -0.35062337 -0.32958 0.47318938 -0.10402413 -0.19145924 1.4682478 -0.21507993 0.17627904 0.5022483 0.052768145 -0.5439499 0.1874367 0.05587395 0.0101344995 -0.6879642 -0.28989074 -0.1803874 -0.28883523 0.2885754 -0.07683706 0.35654676 -0.8630145 -0.12880753 -0.37041005 -0.45812377 -0.66422385 -0.51247704 -0.26727566 0.37753817 0.59016526 0.68726563 -0.1020077 0.16330586 -0.20900455 0.18539597 -0.57890284 0.13051105 0.40169325 -0.48766518 0.5768767 -0.28421435 -0.1370305 -0.12754782 -0.21851501 -0.03781245 0.705639 -0.56848687 0.29459867 0.29207936 0.44323128 0.35683545 -0.06893766 -0.020403177 -0.5032495 0.35779703 0.5660126 -0.82027584 0.2959687 -0.23772217 0.19989727 -0.2899249 0.38105372 0.114036456 0.4756066 0.020870382 -0.12635843 -0.46200514 0.11519589 0.1281461 -0.38550857 -0.20710488 -0.1184465 -0.3836862 -0.12389929 0.23535293 -0.690712 0.6055539 -0.4023781 0.01460343 0.4025478 0.44256008 0.24075194 -0.118976824 0.30381337 -0.085977644 -0.14228487 -0.03912094 -0.36456385 0.059994284 0.06348031 -0.23959295 0.76696694 -0.08695454 -0.10358841 0.09149049 -0.06708452 0.37636876 -0.24116234 0.049374823 0.7581188 -0.32387292 -0.3507331 0.350717 -0.48466554 -0.15141837 -0.2190952 0.68138516 -0.42079902 0.4268467 -0.4161195 -0.029073913 0.5869787 0.16118655 -0.58102727 0.24212095 -0.4791389 -0.6798532 0.0099734515 0.29215539 0.20025398 -0.06053029 0.10954852 -0.26032642 0.87263274 -0.6955297 0.102275975 0.03496152 0.106974974 -0.30240098 0.35153696 -0.21662852 0.27301848 0.40956667 0.005227519 0.5754049 0.058935117 0.09921732 -0.49577338 0.3643802 -0.1848994 0.028118102 -0.18094167 0.020964313 0.21962517 -0.10944931 0.24654725 0.06972783 0.37071875 -0.63246435 1.1306685 0.6725551 -0.49007303 0.4530938 -0.5292768 0.3713037 -0.19755849 -0.16813366 -0.24447559 -0.117238216 -0.33786428 -0.25922924 0.3095327 0.6076992 -0.45297435 -0.025606312 0.2025262 -0.2117435 -0.47343385 -0.12876208 0.39256656 -0.054994978 0.28127787 -0.9323288 -0.061663114 0.3291744
UW1 0.058401436 -0.07866701 0.120607376 0.5628643 -0.017891068 0.057955083 0.43036345 -0.10318236 0.4079898 -0.26189834 -0.2444751 0.24647224 0.3729517 -0.13912739 -0.25742325 -0.44575924 -0.8306587 0.28637263 -0.16554202 -0.25807664 -0.03417053 -0.07350389 0.726622 0.26813108 -0.22047998 -0.056056436 -0.26526582 -0.2585356 0.031860735 -0.3184427 0.68970543 -0.48184568 0.03143586 0.47106984 0.23350175 -0.6364889 -0.041429184 -0.12700765 -0.65022874 -0.9101269 -0.063415416 -0.10353742 -0.29660633 -0.014551872 0.3882482 0.3602109 -0.7530856 -0.3130319 0.32567438 -0.41246033 -0.118561976 -0.7163306 0.0007408388 0.2881308 0.22675084 0.41490647 -0.31849635 -0.035680737 -0.3108553 0.38525653 -0.1084242 -0.14175077 0.70316076 0.109846376 0.0800772 -0.5046789 -0.02386317 0.21709563 -0.19666275 -0.17936882 -0.17289051 -0.64506537 -0.10814089 0.17932957 0.035756025 0.16852732 0.20438287 0.16693278 -0.84427637 0.3212275 0.2775934 -0.8270372 0.3350183 -0.5532648 0.24273528 0.020506643 0.53790134 0.4144616 0.47084633 -0.310025 0.18473595 -0.48681292 0.37191534 0.20109814 -0.22540878 -0.039373662 -0.21807897 -0.09574066 -0.2514665 0.40683344 -0.9508098 0.46321124 -0.27316895 0.110438064 0.9482359 -0.08225054 -0.038415145 -0.1638933 0.35308906 -0.07118942 -0.29593855 -0.31946602 -0.11798947 0.030999774 -0.10642392 -0.297857 0.44874978 0.6110942 -0.529838 0.20716542 0.07664831 0.5795248 -0.47592282 -0.20054314 0.48871875 0.0101725245 -0.40114948 0.37235647 -0.25926647 -0.10649873 -0.44277164 -0.049444415 0.09055133 -0.136388 0.034746278 -0.5274216 0.6876121 -0.10189022 -0.9012874 0.14290811 -0.025681205 -0.78212553 -0.28437912 1.0355595 0.2512306 0.06727952 0.7332925 -0.27791053 0.96769834 -0.86367077 0.7282018 0.38184854 0.082998626 -0.35417435 0.24840754 0.10925175 -0.07397033 -0.24319239 -0.092176095 0.1619922 -0.3400932 0.16410106 -0.84021485 -0.3787998 -0.7579732 0.61826414 -0.5199598 -0.038246337 -0.10947908 -0.15907194 0.3358069 0.2035503 0.08071037 -0.20888527 0.86945766 0.87633425 -0.68992823 0.6038552 -0.5367228 0.33814025 -0.36295262 0.108180575 -0.37854853 0.1810551 0.15565209 0.11782127 0.31982157 0.68220705 -0.9291026 -0.19955532 -0.02976318 -0.4325094 -0.13316971 0.25915277 0.6398551 -0.09860194 0.98015094 -1.3404087 -0.12981778 0.35738754
JH -0.2836818 -0.07820618 -0.004305265 -0.12952088 0.022375882 -0.05459628 0.17130037 0.00057791715 -0.23239046 0.07551569 -0.16451529 0.17852342 -0.23051074 0.06767992 0.15638617 0.11004502 0.07106374 0.09577876 -0.2601281 -0.13676785 0.12262191 0.33042017 -0.15200496 -0.03121307 -0.04098162 -0.2270549 0.2987758 0.21185897 -0.07920966 -0.0435434 -0.13549879 -0.35474312 -0.53785956 -0.34697574 0.1765293 0.08738706 0.27140728 0.12880842 -0.3575304 0.4034131 -0.4083761 -0.14955075 0.08528889 0.22321628 -0.15173592 0.021465994 -0.13130221 -0.17865752 0.16953275 0.32477143 -0.09928447 -0.35874525 0.04092099 -0.14916043 -0.39515153 0.37377074 -0.021361185 0.13699244 -0.05437368 -0.20797807 0.39229578 0.2079109 -0.09169207 0.40513182 -0.11314535 0.15155065 -0.11662395 -0.104711786 0.3116257 0.10899362 -0.040576525 0.3364564 0.09441111 -0.08308417 0.092425056 0.033398207 0.24292417 0.2916717 0.18843524 -0.25999174 -0.11380994 0.5762035 -0.13619879 0.10496843 -0.18589647 0.11564863 -0.11507953 0.024841156 -0.0122321835 -0.3706145 0.089710705 0.1406675 0.23788577 0.24280638 -0.035055168 -0.19404176 0.22079176 0.21657115 -0.052637156 -0.15571097 -0.19981611 -0.2891616 -0.070465766 0.1271083 -0.5066306 -0.14774282 -0.18148364 0.23083174 -0.15742157 0.20794877 0.33147496 -0.19554432 -0.02960425 -0.08671088 -0.0034701305 -0.22733009 0.019036734 -0.08443236 0.076234035 0.0138364 0.036821116 -0.1033866 -0.10499199 -0.15341185 -0.36325157 0.45431423 -0.18431991 -0.109915465 0.06808448 0.17703323 0.32708126 -0.3733186 0.36368725 -0.03415016 0.028951006 0.2780734 -0.11439185 -0.17234075 0.45168334 0.2504637 -0.025176903 0.10185943 -0.12444904 -0.34128994 -0.116597466 -0.17992596 0.34593523 0.077877104 -0.18947564 0.2315532 -0.417469 0.053113252 -0.62941253 -0.021175425 0.091275685 0.18461888 -0.42191517 -0.28955224 -0.29842055 -0.19839367 -0.39952424 -0.15418157 0.20802541 -0.2999793 -0.14752418 -0.00089061883 0.093279794 -0.16016658 0.23628879 0.19442023 0.09303546 -0.22253853 -0.033049975 0.25343207 0.03237243 -0.361828 -0.0678026 0.04378729 0.40460253 -0.070859335 0.3682833 -0.21517928 -0.23557375 0.09834023 0.0108815655 0.12177213 -0.14256346 -0.27194917 -0.27911374 0.036814407 -0.051547006 -0.009205691 -0.44538808 0.29925928 -0.07335667 0.327678 0.0061112526 -0.30131817 0.06516081 -0.10410786
Y -0.279697 -0.5052218 -0.30588377 -1.032913 0.70720273 -0.5391218 -0.32739484 0.28953812 -0.47916648 0.23079261 -0.45920286 0.29879966 0.29957318 -0.0905355 -0.4357439 0.46692768 0.051000226 0.6233245 -0.60374963 -0.3635687 -0.041825812 0.21247424 -0.024822555 -0.38554198 -0.194895 0.39693925 0.21646678 0.09668763 -0.32962123 -0.58463234 0.08075422 0.2173379 -0.6394322 -0.1259827 0.21378794 0.29180136 0.7848782 0.80576974 -0.91581154 0.33932352 -0.18897077 0.01585656 -0.47695804 0.11771165 -0.7330842 -0.033955 0.74347895 0.4083975 -0.07033824 0.29054448 0.055723146 -0.51866615 -0.104132 -0.49350354 -0.5984407 -0.84497356 -0.31535807 0.4707308 -0.49846542 -0.29193085 0.6350125 0.75118804 -0.51604015 0.571458 -0.32451114 -0.18480624 -0.8926736 -0.12224369 0.863815 -0.20391782 -0.05695907 0.8024962 -0.6894525 0.2496834 -0.69018894 0.5470365 0.34080303 -0.28244406 0.041278373 0.5351957 -0.36471662 0.44651818 -0.30141506 0.65590364 -0.33558205 0.36107185 -0.03910805 0.34221727 -0.25937447 -0.46210998 -0.103642546 0.050429843 -0.034486607 0.7118051 -0.70531076 -0.13216273 0.28908825 0.20766352 -0.25447455 0.21300046 0.29052448 -0.25136644 0.13295203 0.13375269 -1.470711 0.45183125 -0.5048487 -0.30096453 -0.39014298 -0.50882286 -0.31294584 -0.11598138 -0.07978948 -0.090516694 -0.4589323 0.36406627 0.342329 -0.100275755 0.65996647 -0.15277015 -0.023595989 -0.551798 0.10884599 0.39070427 -0.07806722 -0.03198231 -0.48286808 -0.27271947 -0.15140311 0.42181364 0.29386082 -0.28526634 0.51932365 0.54837924 -0.18168372 -0.015021266 0.20875366 0.005068687 0.21111101 0.36515835 0.05776079 -0.044253007 0.72996706 0.23407036 0.0050498326 -0.33836493 0.36346015 -0.14715219 0.039938387 0.7603548 -0.6154822 -0.49282414 -0.446963 0.52946305 -0.014923911 0.75715417 -0.8852032 -0.045739677 -0.6309961 0.063721426 0.12696667 0.20608975 0.55459356 0.44498238 0.07315265 0.101228945 -0.23672451 -0.7072993 0.6028461 0.18331389 0.56398696 -0.51792604 0.19792469 0.3328496 0.74918073 -0.32728156 -0.3307061 0.68912524 -0.0637579 0.44861928 0.74276346 -0.22571106 -0.21347666 -0.48817918 -0.13301915 -0.50167197 -0.07916472 -0.31967244 -0.29689825 0.22464776 0.36050448 -0.004943986 -0.38900962 0.33964437 -0.13655996 0.42007908 -0.406792 0.11412643 -0.34200695 0.54391736
AA0 0.32915714 -0.6105247 0.41734996 0.2322792 0.33720246 -0.22117448 -0.32597208 -0.29767585 0.19089468 0.14991401 -0.30676425 -0.0126518635 -0.31995955 0.06664366 -0.48797494 0.1291118 -0.5538682 0.36997426 -0.0781374 0.008152959 0.53288525 -0.03078647 0.28806716 -0.69807404 0.5448487 0.39060044 -0.8349424 -0.4473833 0.2627241 0.06544788 0.28865597 -0.059363373 0.49480873 0.5607184 -0.5352173 -0.95653266 -0.14814529 0.547203 0.1319693 -0.54343706 0.2378454 0.36977825 -0.07413717 -0.51060843 -0.22968514 -0.00028246074 -0.05314247 0.20619534 0.20235063 -0.5619378 0.40152985 0.16999523 -0.03995665 -0.2978377 0.014868687 -0.4334646 -0.39689156 -0.14614543 -0.27510488 0.3103311 0.5491951 -0.22932294 0.14035025 0.06871692 0.10325453 0.14080529 0.31547 0.5866122 0.06375616 -0.17639314 -0.46734494 0.07683024 -0.2916147 -0.25976038 -0.20932089 -0.17436387 0.11442739 -0.08715984 -0.20094739 0.027419448 0.018691339 -0.45997578 -0.10421198 -0.026574964 -0.32577002 -0.016918298 0.46323827 0.16054438 0.13860288 -0.39198717 0.029872607 0.13408984 -0.07279692 0.36950678 0.12986057 -0.07215949 0.2908126 0.016311485 0.28666168 0.21122615 0.45703453 0.023722004 -0.11465541 -0.075155914 -0.15617637 -0.033188462 -0.04104814 0.37588972 0.33079618 -0.38865575 -0.6557443 0.100454055 0.107524514 -0.52242535 0.040718492 -0.28579608 0.21725903 0.672338 0.24164425 -0.4242977 0.4570812 0.29114953 -0.2510845 0.34382328 0.09535029 0.44738743 0.5284697 0.014394255 0.22290334 0.24440056 -0.014714624 -0.50404125 -0.18832946 0.19807525 0.5403621 -0.7759847 -0.20741369 -0.10996582 0.16749083 -0.00948386 0.12858464 -0.31343344 0.14520043 0.3268187 -0.10817277 0.033208933 -0.39218253 0.071057186 0.40227252 -0.23523223 0.40725183 0.09639367 -0.579126 0.1876309 -0.14339715 0.030262962 -0.018437184 0.085557446 0.3182282 -0.18351854 -0.26653504 0.045798365 -0.44293445 0.09242591 0.01500219 -0.1735108 -0.017498774 -0.16602926 -0.4873027 0.00495097 -0.11205075 -0.38019603 -0.24227704 0.6389491 -0.97859454 -0.40560028 0.2541838 0.26771423 0.57547325 -0.080133684 0.4140582 0.5414437 -0.019642467 -0.42870945 0.6270677 -0.2958628 -0.41458017 -0.31234473 0.34302902 0.12356906 0.20179762 0.34974644 0.7900265 -0.02044824 -0.6022493 0.07850235 -0.5219648 0.7675887 -0.14596714 -0.13406134
CH -0.28967977 -0.5222403 -0.14552113 -0.4402171 -0.045303263 -0.032613933 -0.19668733 0.04183598 -0.18203458 -0.06707144 -0.16381417 0.028715454 -0.22574401 -0.075819746 0.15972383 -0.13211426 -0.023922246 0.13726765 -0.20122994 -0.21605958 0.33833623 0.14082117 0.10105132 -0.098326035 0.10368285 0.15081413 0.113644555 -0.15439741 0.074589506 0.07534172 -0.51184094 0.24228442 -0.32440534 -0.055121724 0.22619846 0.13891418 0.22923146 0.038896818 -0.39607695 0.51248956 -0.26021826 0.20613977 0.25658354 0.06687908 -0.1250181 -0.053993404 0.3188421 0.17471583 0.20151716 0.41047472 0.10488938 0.020762987 0.049155984 -0.080237485 -0.32674292 0.10685362 -0.22600244 0.025346734 0.03277627 -0.22765279 0.331874 0.2402765 -0.23495561 0.36155403 -0.2411383 0.2716842 -0.0032048603 0.0072561856 0.28811407 0.1969892 -0.30920318 0.45508242 0.097074635 -0.13666902 0.22625692 0.013974564 0.2573837 0.4524039 0.18631417 -0.12552467 -0.12751107 0.5100721 -0.21274753 0.18150082 -0.044394393 0.36427948 -0.19196239 0.028002147 -0.018101355 -0.47002435 0.19262461 0.13674161 0.23034874 0.3058626 0.030829133 0.07664037 0.25307715 0.05324872 -0.044426184 -0.09401645 -0.11641363 -0.21946335 0.050446074 0.18174216 -0.8256511 0.15524207 -0.04049856 0.11189324 -0.11218527 0.06188657 -0.02560299 -0.19603342 0.15980141 0.05702123 -0.15221523 0.065637805 0.21009748 -0.29973727 0.25046775 -0.38414165 0.18585044 -0.3328215 -0.24868831 -0.11501986 -0.34078807 0.3292523 0.06634622 -0.065832116 0.20503849 -0.0849883 0.32956383 -0.4677641 0.6183393 0.04343561 0.10498276 0.21088104 -0.06638907 0.29068553 0.2993895 0.117332645 0.05280786 0.13234213 -0.19145936 -0.55290234 -0.23037593 -0.29561424 0.2933738 0.22888802 -0.41551054 0.30282512 -0.52348256 -0.108405925 -0.331431 -0.062317654 0.16780806 0.104333684 -0.29605445 -0.26665977 -0.21249376 0.044872604 -0.29494032 -0.08228909 0.28309435 -0.03369748 0.024493074 -0.17118362 -0.0727302 -0.019577045 0.07732783 0.044974294 0.029957918 -0.28435072 0.035270635 0.43213156 -0.16634013 -0.3699712 0.03372445 0.24162903 -0.03461499 -0.11590874 0.15047595 -0.1218012 -0.3685891 -0.16169418 0.057217825 -0.39835772 -0.023893587 -0.18716758 -0.018343402 0.029911138 0.29672685 0.08237148 -0.4270966 0.054855797 -0.3776064 0.38906148 0.09157916 -0.23739375 -0.23276177 0.10718944
ER1 0.15418634 0.15124816 0.24288592 0.04401816 -0.18281673 -0.020554036 -0.09948558 0.22630243 0.14066568 -0.44127795 0.46914414 0.20001113 -0.08807262 -0.24854311 0.10717572 0.019022785 -0.483654 -0.10396029 -0.11117568 -0.28973418 -0.23785971 -0.21806185 0.024396405 0.05256203 0.06919733 -0.46644226 -0.13965388 0.47684276 -0.14148158 0.009982311 1.1580771 -0.49569234 0.21081667 0.46288255 -0.10814877 -0.5297635 0.1961084 -0.034128774 -0.14709415 -0.82760656 -0.21062239 -0.30324784 -0.5100227 0.18190536 -0.18520488 0.2502983 -0.89465386 -0.23953521 -0.45614514 -0.2752189 -0.578504 -0.6374274 -0.15079302 0.023868684 0.4053913 0.5997914 -0.28178534 0.13703038 -0.2722019 0.06686683 -0.3819123 -0.067980416 0.63819 -0.3704979 0.3724758 -0.4223804 -0.38428015 0.004641369 -0.17763868 -0.023924008 0.47647706 -0.7282405 0.03396638 0.07717927 0.24592525 0.26073074 -0.035009753 0.14226425 -0.38473785 0.3568088 0.66716254 -0.9678898 0.14106244 -0.5851688 0.09787563 -0.19169289 0.24605922 0.12039577 0.33507937 -0.2131244 -0.27516827 -0.53804713 0.08941905 0.1769375 -0.09330046 0.08288944 -0.11951943 -0.52679 -0.24906017 0.43287677 -1.0106807 0.5846442 -0.48662084 -0.13186377 0.77118397 -0.047375306 -0.03941636 0.030265842 0.6964197 -0.015721478 -0.010409941 -0.07188146 -0.36620286 0.09875298 -0.06015205 -0.4415734 0.528572 -0.16073893 0.03256339 0.1807506 0.3552849 0.24956334 -0.6073496 0.07402262 0.5797278 -6.6309776e-06 -0.3500813 0.45400435 -0.5536418 -0.15529543 -0.104736365 0.50475436 -0.3782493 0.09691352 -0.48408484 0.06782606 0.2983832 0.20057194 -0.5562969 0.21248199 -0.37351006 -0.87300986 -0.054262575 0.5080393 0.08757634 -0.09292951 0.041249033 -0.19324327 0.8645054 -0.7983318 0.43695766 -0.032154154 -0.11809378 -0.3130148 0.2709177 -0.36879626 -0.20318784 0.20852423 0.1820685 0.48478088 0.0013562101 0.14557342 -0.61396056 0.04249101 0.09954729 0.26161075 -0.2731839 -0.22247736 0.35113534 0.26818752 0.29604384 0.2356654 0.6269862 -0.21037053 0.84556097 0.50814027 -0.39644352 0.27067703 -0.75048476 0.038464017 -0.3307092 -0.2247689 0.028454632 -0.14371122 -0.075412616 -0.52826756 0.61886877 0.55699354 -0.8760723 -0.07275546 0.2956882 -0.23414482 -0.384157 0.14117151 0.7963763 -0.19709727 0.3244572 -1.1387688 -0.045760453 0.3479925
IH2 0.15831022 -0.0645379 0.28144345 0.048323948 0.32816374 -0.20480832 0.24396627 -0.10068146 -0.07814546 -0.1618541 -0.29959056 -0.10132726 0.3392809 0.23456623 -0.70054996 0.35131735 0.030700143 0.14965701 -0.014243394 0.086851165 -0.18672025 0.17411242 -0.033908058 -0.02452773 -0.15290666 0.017474111 -0.31053498 0.1604071 0.1927702 -0.051383972 0.791358 -0.39166075 0.19805782 -0.18024966 -0.20402214 -0.19016877 -0.09708428 0.17083152 0.39966863 -0.3910799 -0.23589478 0.044793162 -0.92797357 -0.0033392932 -0.47244728 0.1818186 -0.93433124 -0.08491476 0.10566784 -0.28706557 -0.5668559 -0.46950004 -0.10558323 0.13414691 -0.016148206 -0.13247006 0.17079473 -0.060282934 -0.16206446 -0.07958624 -0.42732757 -0.16952553 0.20969932 0.092427835 0.037636496 -0.26403615 0.1251023 0.3124338 -0.26245138 0.38787118 0.013866264 -0.5447532 0.061532255 0.33684945 -0.16547406 0.2691978 -0.06879192 -0.15075548 -0.1359764 0.4385328 -0.11033148 -0.3114898 0.29043287 0.20094238 -0.20321034 -0.25804925 0.114897884 0.7363852 -0.028498776 -0.05435636 -0.50840324 0.15357038 -0.34352 -0.12943406 0.21485944 -0.18502547 0.15494876 -0.5385823 -0.045150787 -0.11502331 0.23604184 0.46353397 0.05398979 0.2851087 -0.18091166 -0.3122349 0.042712335 0.29070973 -0.025090788 -0.3028173 0.33279848 0.021682588 -0.31606582 -0.6553815 -0.08411519 -0.1129272 -0.11531743 0.17508703 0.22225772 0.40342793 -0.06651074 0.10021896 0.19587414 0.18156749 0.17917877 0.065714024 0.007226251 -0.135884 0.07171116 0.25625756 -0.024199655 -0.12840202 -0.50040483 0.10385943 -0.21592088 0.0513702 0.11706657 0.09381115 -0.026025198 0.17609881 0.20505269 -0.31777576 0.109381735 0.42248046 0.304123 0.08940976 -0.4104937 0.16439922 0.12932281 0.056588966 0.21993735 -0.16399132 0.071228586 0.043684207 -0.033604726 0.31256375 -0.28739446 -0.15822539 0.06290298 0.0025194895 0.3120986 0.25691336 -0.03762417 0.08314398 0.037063826 -0.0026659537 0.19917329 -0.1876138 -0.3169589 -0.1053374 -0.12038016 0.11842435 0.08416201 -0.25312313 0.520606 -0.1348568 0.14719258 -0.12253498 -0.0033493256 0.49285367 0.049301434 -0.036587924 0.2891595 -0.014203164 -0.31833735 -0.26716408 0.03037269 -0.044792 -0.16190602 0.3062623 0.013047192 -0.4267779 0.36084932 0.32682908 0.27489957 -0.12310958 -0.12736252 -0.07691558 -0.11318161 -0.3498151
EH2 0.11595742 -0.08690452 0.2508301 0.114766486 0.07766822 0.020666415 0.021047285 0.020567203 0.07554739 -0.023658486 -0.24385373 -0.01803885 0.26483524 0.063441634 -0.4680044 0.134237 0.063378565 0.1430908 0.23537466 0.12955455 -0.20437415 0.0066181687 -0.010223768 -0.16314009 0.18785176 -0.017985212 -0.38560405 0.30163175 0.32211223 0.21429327 0.6571352 -0.38505188 0.1594801 0.03032768 -0.5995298 -0.36050802 -0.21127343 0.3727571 0.6491476 -0.37203002 -0.22151308 -0.047017634 -0.6986606 -0.23786476 -0.5578284 0.16753876 -0.8289199 -0.024849135 -0.07097522 -0.3251902 -0.46890128 -0.45481163 -0.24729787 0.13020772 -0.13465792 -0.13831659 0.10217252 0.046624575 -0.36585638 0.33005446 -0.25206143 -0.24098563 0.25973538 -0.065430515 0.08764912 -0.36122426 0.24189265 0.45890012 -0.42238474 0.36775157 -0.27414483 -0.32686466 -0.068589434 0.057391845 -0.23486432 0.061951257 -0.05742964 0.16939947 -0.22511625 0.3108209 -0.06765446 -0.4063419 0.26039025 -0.048445143 -0.25515294 -0.22001757 0.013836745 0.43396565 0.099266805 -0.018328777 -0.38612124 0.15150648 -0.23574556 -0.17672358 0.17029902 0.082358226 -0.0088306395 -0.49953356 -0.094796985 -0.18485515 0.15670784 0.53597814 0.018306587 0.24709818 0.12124191 -0.3257256 0.16191706 0.26461264 0.39351532 -0.35263002 0.30664128 0.12682834 -0.46936935 -0.7806994 0.09381179 -0.33615464 0.16010632 0.49555746 0.25437158 0.08223984 0.10895697 0.5352168 0.16809575 0.4408042 0.20617041 0.3359649 0.14807975 0.1268306 0.09332814 0.091952235 -0.20909846 -0.015677048 -0.6017122 0.0664 -0.2084057 -0.117165044 -0.07257882 0.07461111 0.12468361 0.19904947 0.16320992 -0.11478254 0.111278564 0.48419717 0.24800983 0.0034535343 -0.5398603 0.23934612 0.23460948 0.016237166 0.4758977 0.04535496 -0.28173038 0.014117247 -0.11005451 0.29141387 -0.068132125 0.09755506 0.0381946 -0.17396338 0.21694328 0.30526426 -0.040260352 0.1670244 -0.050145343 -0.044573613 0.015952408 -0.0557887 -0.4995421 -0.13305461 -0.32640213 0.0697989 -0.00039571733 0.028187381 0.046013214 -0.2256543 0.10603919 -0.24851145 -0.011037913 0.04769417 -0.041234627 0.13244998 0.058493935 -0.04997513 -0.21155186 0.042295665 -0.36437964 -0.12359416 0.15902221 0.26979473 0.280815 -0.14973995 0.5905186 0.2867007 -0.042317275 -0.33613107 -0.30537084 0.18838276 -0.021208143 -0.19861498
EY2 0.017358756 -0.4364663 0.63920903 0.11568978 -0.2129385 -0.21556464 0.18199392 -0.16032502 -0.074971996 -0.16262454 0.32409033 0.10990321 0.6446424 0.27384147 -0.55492777 0.25329706 0.33512118 -0.24837816 -0.14110251 0.68688774 -0.25430673 0.059422236 0.15804364 -0.08281391 0.48084962 -0.03317536 -0.38282627 0.030166391 0.28782353 0.06324728 0.6307595 -0.33177495 -0.066898525 -0.03444027 -0.015808228 -0.26526827 -0.45110917 0.10954378 1.1267414 0.0094753895 -0.35289446 0.17159134 -0.021344906 -0.05363406 -0.18540242 -0.38672733 -0.35590807 0.20755808 0.32037994 -0.30878022 -0.07252205 -0.026717115 0.04384474 0.45940006 -0.6288638 -0.07768276 0.28696105 -0.0009212483 -0.1315911 0.23385058 -0.35271052 -0.2715389 -0.10023049 0.39801887 0.26660135 -0.09579409 0.6416362 0.7829775 -0.552708 0.6773566 -0.25664276 -0.387895 0.31655487 0.16584785 -0.34470233 0.228149 -0.33317658 -0.007172699 -0.3574248 0.06879968 -0.35116476 -0.3006835 0.542808 0.6051244 -0.696231 -0.35603502 0.23414707 0.9684266 0.33777443 0.023058549 0.0790455 0.36307696 0.121289104 -0.066296965 0.27670783 -0.022929987 -0.06239837 -0.8778034 0.2006989 -0.14137712 -0.098502964 0.4319872 -0.025931455 0.55377495 0.010857975 -0.5144549 0.33544648 0.062492367 0.3028212 -0.18810898 0.21762365 0.27126703 -0.514189 -0.7922774 0.059978466 -0.4130868 -0.19394134 0.15680084 0.13661425 0.027942203 -0.26932237 0.24098936 0.40422407 0.06433712 0.14046463 0.464354 0.06021439 0.2543106 -0.03732703 -0.2286331 -0.3248122 0.12335762 -0.30790284 0.095003486 -0.26335797 0.44532487 0.019169083 0.389716 -0.011602752 -0.06757782 0.2415997 -0.5391461 -0.35761178 0.49254808 0.1653246 0.047112267 -0.1983752 0.1828468 0.1958605 -0.06504583 0.3250627 0.44284827 -0.22903745 -0.26047367 0.0778616 0.31856686 0.11037799 -0.11559523 0.2847501 0.24325407 0.48540688 0.057941295 0.036574762 0.4322337 0.30898094 -0.17886066 0.14510553 0.14888646 -0.36797327 -0.52391416 -0.14947496 0.13112831 -0.07558821 -0.276941 0.42083928 -0.33907026 0.25172523 -0.12782405 0.048190404 0.070615225 -0.13918984 -0.0259841 -0.145939 -0.07905405 -0.6957592 -0.43381235 -0.371068 -0.119300865 -0.13090508 0.14034867 0.7023856 -0.70854557 0.40259942 0.5021935 0.18376496 -0.4189635 -0.058615737 -0.3745213 -0.6101301 -0.13498324
