45 30
a 0.077539325 0.17567353 -0.098242104 -0.24734293 0.028037827 -0.34524035 0.075680494 -0.007850446 0.29926226 0.06851566 0.068736084 -0.17761861 -0.13388658 -0.08471855 0.060303174 0.08518834 -0.17300886 -0.039742056 -0.052397378 0.052504655 -0.23547898 0.022727206 0.10813605 -0.08741401 0.4033841 -0.17262052 -0.13330004 0.04976463 0.20982638 0.2196535
# 0.026326085 0.13925096 -0.10150518 -0.278618 -0.009374303 -0.3663571 0.027878135 -0.03674312 0.34781307 0.07544331 0.09355578 -0.20712918 -0.10721841 -0.093331575 0.1520589 0.059907816 -0.19412863 -0.055944294 -0.08417009 0.026196295 -0.24084644 0.008598693 0.13714121 -0.049038123 0.47271115 -0.22101681 -0.110746935 0.08095508 0.21998186 0.23273821
r 0.021854898 0.08506537 -0.049308024 -0.19888455 0.024483025 -0.17718813 -0.009081534 -0.022611173 0.18897267 0.016823608 0.061879355 -0.16259858 -0.09245276 -0.034453508 0.06306978 0.066007726 -0.10789376 -0.03837065 -0.03406429 -0.012410808 -0.1281641 0.016380424 0.09115102 -0.069342054 0.29443038 -0.124887906 -0.07576933 0.040994626 0.13249695 0.13185857
N -0.02686769 0.0037494176 -0.13723251 -0.16051483 -0.039329585 -0.19109514 -0.046699133 -0.069104105 0.2359123 0.048429105 0.07608741 -0.055470772 -0.05977408 -0.015641004 0.095282406 -0.03826769 -0.06263241 -0.119285725 -0.07424033 -0.041853152 -0.10458301 -0.019671882 0.08972044 0.04510865 0.23079161 -0.11616204 -0.067526355 0.0583395 0.13537352 0.12248463
A 0.06381461 0.16267815 -0.04270199 -0.19076116 0.015059262 -0.25862762 0.06673771 0.025321973 0.21232668 0.0644978 0.051812794 -0.1442675 -0.09142356 -0.07204267 0.04793495 0.066309914 -0.14914702 -0.029827502 -0.03811574 0.059003524 -0.1859474 0.0375836 0.07948053 -0.08021386 0.309398 -0.15594007 -0.09477793 0.06685111 0.15174168 0.16782926
i 0.054661926 0.13735121 -0.020319493 -0.15636885 0.013584771 -0.27397263 0.08780755 0.04541196 0.23166306 0.041306417 0.079146825 -0.1789866 -0.127312 -0.029763155 0.071523026 0.0811665 -0.18110962 -0.052813835 -0.06370487 0.059549533 -0.20534924 0.02147015 0.12854253 -0.017324438 0.29423922 -0.14751595 -0.038928054 0.046039086 0.19468006 0.122776575
R -0.0030435147 0.11849752 -0.026478386 -0.1653321 0.017092187 -0.18732946 0.040751696 0.008007288 0.22321215 0.024064371 0.074487925 -0.12325326 -0.051915247 -0.030223507 0.15308303 0.026378537 -0.1567169 -0.074973345 -0.07360613 -0.0014643329 -0.18488017 -0.03908679 0.05590864 -0.041567214 0.31560388 -0.14092287 -0.06274387 0.07166289 0.22845307 0.12823018
v -0.0018718968 0.031971153 -0.026035853 -0.06606662 0.009176252 -0.08480798 -0.0065124673 0.00988545 0.08134644 0.014722342 0.03129403 -0.070987955 -0.03853957 -0.01027531 0.045465395 0.014242053 -0.03313553 -0.016620541 -0.045413055 0.0055408934 -0.061029736 -0.012332162 0.045252547 -0.011751213 0.09943191 -0.034667946 -0.0074729486 0.03228889 0.052123357 0.05897239
w -0.013739446 0.0646694 -0.074647486 -0.11191784 -0.006338672 -0.12532037 -0.015752211 -0.024215035 0.15013462 0.026499415 0.05351428 -0.071690746 -0.060902208 -0.019277321 0.07184212 0.014345917 -0.055338614 -0.055187628 -0.030119844 -0.01071004 -0.08781753 -0.012694668 0.029314304 -0.013632716 0.15507255 -0.07507609 -0.041078843 0.0349273 0.10811484 0.09915794
m -0.012895108 0.041282304 -0.05502146 -0.123334676 -0.004861788 -0.12103312 -0.041739073 -0.023840062 0.13108015 0.046947077 0.07212772 -0.08591744 -0.03207672 -0.014935913 0.0775689 0.021820152 -0.091091506 -0.04137732 -0.022993123 -0.0006693617 -0.06470433 -0.0022308389 0.04243901 -0.025110228 0.18930809 -0.08634998 -0.006420881 -0.0025669062 0.08066184 0.039275054
y -0.0019306984 0.06742828 -0.03178642 -0.12521493 -0.013694315 -0.13331741 -0.017229898 -0.005272921 0.13157354 0.02592633 0.058784805 -0.08567152 -0.027948778 -0.051379144 0.038757235 0.05108507 -0.09861143 -0.04301686 -0.041543644 -0.002744485 -0.094901554 0.011958722 0.043260794 -0.01079299 0.19860728 -0.08113223 -0.021588389 0.007621401 0.072485454 0.04970515
u 0.042110275 0.10187443 -0.049123965 -0.17604445 0.0077552283 -0.25019172 0.040898766 -0.008284625 0.21517473 0.03855987 0.052334856 -0.13411643 -0.11417679 -0.06713385 0.07029815 0.04203304 -0.12477152 -0.04967857 -0.06481049 0.020333158 -0.16663413 0.015048784 0.1125742 -0.016851997 0.2778113 -0.13145149 -0.078413025 0.038124375 0.17140056 0.15836832
n 0.0019075812 0.04115301 -0.043313496 -0.10012715 -0.0006202458 -0.14553155 0.026416896 -0.0021926153 0.15958309 0.02441354 0.064946756 -0.09794658 -0.04149093 -0.039259847 0.0863223 0.00891215 -0.09286226 -0.03914417 -0.031799786 0.0057824217 -0.08577105 0.009508532 0.061670985 -0.0024464333 0.18052317 -0.08549969 -0.03310183 0.025511982 0.10991027 0.081833765
t -0.035826147 0.024520142 -0.06854914 -0.12103594 0.004561486 -0.1490884 0.0692601 -0.037098784 0.13924684 -0.0022748134 0.05934298 -0.09172932 -0.108267024 0.030952951 0.10325744 -0.036141165 -0.018416876 -0.096736215 -0.071266 -0.048438687 -0.09895952 -0.039602917 0.09995973 0.026728444 0.18987732 -0.065324284 -0.024805909 -0.0045433324 0.04421465 0.041609485
s 0.017627548 0.025222713 -0.039605204 -0.08149744 0.00855965 -0.086420484 -0.015018258 -0.017581556 0.09227518 0.015782893 0.043516856 -0.04893251 -0.049123198 -0.031449914 0.03143552 0.020005902 -0.05738477 -0.039181 -0.019166352 0.01368156 -0.070008546 0.0018763137 0.046243627 -0.017984122 0.13255452 -0.055647213 -0.014291984 0.0042651775 0.06992086 0.037016463
q 0.0710961 0.11648996 -0.00069598045 -0.104660064 0.05828382 -0.22487074 0.034193486 0.026972199 0.13713874 0.058249503 0.054727353 -0.14953056 -0.073860705 -0.036007147 0.06471878 0.07342958 -0.139461 0.021438232 -0.035519883 0.035078287 -0.15288693 0.035186373 0.08382945 -0.057770137 0.18696786 -0.10805635 -0.060516555 0.051412076 0.1272715 0.15899467
e 0.017667243 0.08743951 -0.022491878 -0.10412682 0.022776969 -0.18589778 0.044949178 -0.0043258877 0.15400885 0.02541037 0.033227205 -0.114378445 -0.054278888 -0.052943613 0.07098132 0.055886738 -0.12156375 -0.012378888 -0.026721613 0.039849266 -0.14155786 0.008731801 0.07925239 -0.017291088 0.1972057 -0.11445463 -0.048901085 0.041489165 0.13128358 0.09675816
x 0.008579693 0.021040834 -0.05143436 -0.05863817 0.010778965 -0.081723616 -0.012981396 -0.00637447 0.09820971 0.029807929 0.045771055 -0.061084956 -0.02871067 -0.019089954 0.052542355 -0.00864357 -0.04092258 -0.03227586 -0.023718387 -0.0063975076 -0.06858504 -0.019095808 0.042391986 0.0063071493 0.10881341 -0.041196477 -0.022791516 0.030099994 0.06646517 0.059328187
o 0.037486576 0.12066977 -0.05522977 -0.16816996 0.003390076 -0.21399167 0.054269243 0.014837146 0.2006834 0.054571792 0.06333008 -0.11160944 -0.10779473 -0.059033502 0.07552302 0.04728786 -0.1353029 -0.050466854 -0.05155572 0.021070633 -0.14282563 0.025525017 0.0773545 -0.019516071 0.26228753 -0.12631145 -0.06536934 0.049054552 0.15027463 0.13290831
p -0.02611676 0.030490644 -0.012292772 -0.034570504 -0.00534279 -0.023093844 -0.026214898 0.0043215784 0.06154753 0.020984977 0.006622755 0.005750932 -0.042275086 0.0017477622 0.029904269 -0.016627748 -0.0055680335 -0.032518018 -0.012369179 -0.003071823 -0.014068112 -0.023758782 0.009480958 0.009308752 0.049441107 -0.018104784 -0.0040065693 0.01931376 0.048274495 0.045313407
k -0.014358971 0.019079585 5.827315e-05 -0.028388707 0.0040918216 0.004201752 -0.0020525989 -0.0149166 0.0061812415 0.021473384 -0.0038493648 0.0022562756 -0.02283314 0.015644193 0.00056897046 0.006781057 -0.010227223 -0.008497321 -0.016864205 0.020642897 -0.015222339 0.014833935 -0.015858984 0.0072884737 -0.009920364 -0.002914535 -0.003898508 0.023467137 0.012239157 0.03173384
M 0.011492758 0.044457197 -0.037446544 -0.058217283 -0.012611938 -0.09488211 0.025288193 -0.005631462 0.100478776 0.036019575 0.037279416 -0.06196356 -0.044581752 -0.043777775 0.050757658 0.020579977 -0.053312898 -0.012724425 -0.023656938 0.03024412 -0.052182738 0.012457884 0.035253614 -0.02071763 0.12959233 -0.059487175 -0.014291866 0.034578484 0.08438683 0.044940308
I 0.018951701 0.1038197 -0.034459036 -0.12071059 0.013208808 -0.19192335 0.044221375 0.0064350995 0.15040766 0.027253263 0.035990115 -0.08644605 -0.09496445 -0.028525801 0.062167767 0.037424166 -0.10328211 -0.04566064 -0.056403413 0.016105281 -0.14091505 0.0061407494 0.08914279 -0.044281416 0.21894313 -0.11698189 -0.05215633 0.04140249 0.11478075 0.119108126
H 0.019491522 0.036725875 -0.03076416 -0.06727175 -0.011536078 -0.07691479 -0.006191565 0.005616134 0.072247796 0.029079692 0.027268114 -0.06059252 -0.033357773 -0.007117532 0.028403135 0.011890382 -0.07218842 -0.027198734 -0.030154057 0.008119338 -0.065495834 -0.0011642387 0.028228508 0.00038684774 0.12643626 -0.05985023 0.007849892 0.010334027 0.051786445 0.037371036
h -0.002376526 0.054236412 -0.037474833 -0.07841456 -0.028702594 -0.052444153 0.0086721 -0.009477935 0.06700052 0.011223261 0.03292559 -0.063044794 -0.03252134 0.0011165463 0.058482453 -0.025564857 -0.04797781 -0.028191362 0.0061196685 -0.01772141 -0.05373711 -0.019056225 0.039090816 -0.027039714 0.12638742 -0.020738132 -0.033621088 -0.012998919 0.016520958 0.03085931
S -0.015894383 0.020397013 -0.03618446 -0.038360488 0.025021276 -0.019353468 0.007099436 -0.016565628 0.056602757 0.014454308 -0.016138993 -0.015768744 -0.0081562735 0.011944744 0.013594225 -0.013842467 -0.013503734 -0.023201825 -0.0033215806 0.005390743 -0.02371876 -0.011697282 -0.0063971356 0.0033883 0.024429617 -0.018377576 -0.025433382 0.019753756 0.037292976 0.0599486
B -0.027492773 0.025672274 -0.028148554 -0.05283955 -0.003252308 -0.07156351 0.036226854 -0.012237173 0.12171494 0.009172593 0.039843246 -0.06352417 -0.056056112 -0.016228901 0.06239781 -0.038390614 -0.016388316 -0.055521347 -0.02253917 -0.03130171 -0.059126478 -0.01687849 0.061373442 0.019786634 0.13700947 -0.045539204 -0.005001888 0.01815025 0.07196161 0.045914467
j 0.0077680605 0.032467984 -0.024925835 -0.046361953 0.001240637 -0.06741758 0.02161455 -0.012949406 0.049118154 0.009018668 0.007096919 -0.03821657 -0.04565551 0.0059359414 0.041269094 0.020259172 -0.011180255 -0.018286387 -0.002187665 0.00933537 -0.056469403 -0.027015213 0.007661248 -0.0071450304 0.07143326 -0.018273028 -0.013522987 0.0023572901 0.043336455 0.0437031
g 0.0030729116 0.043512505 -0.0146169495 -0.04074654 0.0054919496 -0.029579926 0.010605132 -0.0062544555 0.06396381 0.013842499 0.0092435 -0.012033157 -0.04674043 -0.00026114745 0.040302206 -0.0034868636 -0.037536394 -0.029520744 0.0060901847 -0.0017580126 -0.049818117 0.009689634 0.031934485 -0.0013738571 0.046769105 -0.045854967 -0.03175255 0.013418242 0.026358444 0.04323056
X 0.008476086 -0.010285583 -0.027910968 -0.018839456 -0.0030808204 -0.021569977 -0.0016045396 0.005346546 0.048487194 0.0143028265 0.0040249447 -0.008366141 -0.019205479 -0.010827515 0.015863912 -0.0025994182 0.0002585421 -0.018009515 0.011389561 0.014026372 -0.014935833 -0.012656007 0.014935517 0.017793404 0.0060057607 -0.0038129485 -0.001728523 0.007163507 0.023957884 0.027807489
c -0.009856989 0.005707819 -0.03747034 -0.040081363 0.011243599 -0.07207472 0.023079643 -0.023474688 0.068154596 0.0135454135 0.009917756 -0.03289378 -0.036222667 -0.010091832 0.012598343 -0.0028646586 -0.032641213 -0.014543229 -0.027103342 -0.014732089 -0.034646843 0.025210258 0.047258012 0.007630772 0.0916328 -0.012757935 -0.042098254 0.004603767 0.04772186 0.07334797
U 0.03826645 0.096354745 -0.04121068 -0.11769845 -0.012049534 -0.17381924 0.03433469 0.0055874237 0.1284734 0.02052573 0.05045898 -0.09881382 -0.06730806 -0.056881227 0.019087942 0.038029067 -0.07165139 -0.036309 -0.022430848 0.018902954 -0.10575533 0.035750583 0.0860317 -0.047699817 0.19934888 -0.09876897 -0.05628167 0.030592045 0.10142695 0.08653983
b -0.015914803 0.0046510817 -0.040938783 -0.072440416 -0.013384945 -0.08267877 -0.0047322502 -0.003632559 0.039868683 -0.0008715487 0.038446903 -0.042152252 -0.034270667 -0.03504405 -0.018814486 0.042437278 -0.0153757995 -0.035811223 0.016651267 0.006098517 -0.06946458 0.027025314 0.028895205 -0.031227304 0.066396914 -0.040355403 -0.01882459 0.003337442 0.030092778 0.018932963
W -0.009390549 0.009817122 -0.034633745 -0.059130646 -0.0028259954 -0.056019604 -0.019431487 -0.01855334 0.08953125 0.02153588 0.024319135 -0.04736038 -0.026549514 -0.0037107181 0.012326994 0.014581189 -0.025552643 -0.020134125 -0.011023415 -0.008171754 -0.038516667 -0.01623594 0.010244272 0.00027995618 0.10338909 -0.02264234 -0.007301072 0.017631674 0.04324377 0.035236523
d 0.013690829 0.06481713 -0.051988658 -0.1176246 0.00019136319 -0.13710305 0.021921359 -0.021507658 0.1437684 0.019307641 0.045691 -0.091636196 -0.053867534 -0.039656185 0.056897838 0.005451918 -0.06398426 -0.016629575 -0.042310644 -0.002771362 -0.120115764 0.011334227 0.080474146 -0.032512337 0.17317712 -0.095542215 -0.03782465 0.04012165 0.11297915 0.093739316
ai 0.015261842 0.02261182 -0.011319976 -0.047575705 0.0031057203 -0.07754254 0.0046741012 0.018659012 0.058242165 0.014839966 0.02911816 -0.026537025 -0.022765303 -0.015321642 0.0060662394 0.021585548 -0.027038692 -0.031293783 -0.023120958 0.018762177 -0.06402299 -0.012058349 0.032806743 -0.026539449 0.08868057 -0.027367735 -0.023332303 0.013383111 0.049855176 0.03210477
G 0.015510446 0.003531806 -0.0017125852 0.012634882 -0.01045536 0.0030916648 -0.017606573 -0.008424453 0.019563545 0.022319127 0.010649269 0.006015516 -0.010534852 0.0046984237 0.0026352094 0.017048871 -0.00913298 -0.0077146464 0.0077266907 -0.00607479 -0.007087105 -0.015440045 -0.018721132 0.011482917 -0.004905298 -0.0001877925 0.0070919995 0.01483783 0.009511532 -0.008210842
au -0.0021809686 0.03678606 -0.0038884992 -0.040563934 0.004196099 -0.056651942 0.0014252168 0.012706862 0.0563719 0.00055978587 0.00024681093 -0.01818731 -0.02891597 0.0020097813 0.03451213 0.013797113 -0.03978132 -0.0118353395 -0.011470786 0.013370474 -0.022074707 0.0016933234 0.028832044 0.0038280988 0.06261679 -0.032518234 -0.00051127415 0.004332166 0.044977117 0.016225515
C 0.016724136 0.01658527 -0.020234337 -0.03225958 0.013666473 -0.060056202 0.0027616327 -0.0114527205 0.08078148 0.02374006 0.019888422 -0.034590274 -0.01941921 -0.023469245 0.019336073 0.023695337 -0.021236546 0.0059825215 0.0002336756 0.0025533768 -0.036586832 -0.009814126 0.0051896707 -0.010217626 0.08953649 -0.034582436 -0.019178022 -0.001086033 0.06337969 0.057908766
f 0.0020699282 0.025208084 -0.023344837 -0.005397155 -0.014705089 -0.030918 0.01121218 0.0032056773 0.0214166 0.014869572 0.020561952 -0.0039509404 -0.017354948 -0.00469156 0.011746173 -0.0034598475 -0.008181697 0.007322432 -0.011645652 -0.0041551264 -0.010831293 -5.214202e-05 0.017275928 0.004038354 0.047790926 -0.014211532 -0.007817864 0.016024387 0.02678992 0.015877293
F 0.013081764 0.00476745 -0.022076333 -0.031285234 0.01641856 -0.062111247 0.021145876 -0.014753713 0.050986413 0.003396009 0.024323663 -0.04454576 -0.035688464 -0.026062127 0.035568435 0.020643674 -0.033200655 -0.016588762 -0.0024943373 -0.004892244 -0.039549064 0.0052488456 0.017075844 0.008082523 0.08704402 -0.014643362 -0.0067380206 -0.0036430922 0.04040855 0.03666928
l 0.010318099 0.022299238 -0.012821733 -0.018713597 0.01808886 -0.008417087 0.017219286 -0.010269293 0.00043218807 0.007588017 -0.004984608 -0.013587225 0.005512419 -0.004300264 0.0031577896 0.002096281 0.0022187321 -0.0044135205 -0.008368387 0.012554541 0.004809699 -0.0010986851 0.008659468 0.012482155 0.004261205 0.003623285 0.0022606465 -0.0073751537 -0.0031010045 0.010669566
L 0.012081054 0.014587076 -0.019333273 0.0066279364 0.00038672917 -0.0089180395 0.0105204405 -0.009397641 0.023388267 0.012310145 -0.009116233 0.0056263893 -0.008948287 0.014129652 0.0063437414 -0.014885152 -0.006088314 -0.0001913158 -0.014208704 0.011777508 -0.0033799168 -0.008094674 -0.0016202144 -0.016162485 0.014712928 -0.003326041 0.007126332 -0.0048101614 -0.005784667 0.020679336
K -0.007942218 -0.019970633 0.008508547 0.009565507 -0.0019241316 0.02200757 -0.016616669 -0.0061588767 -0.021179043 -0.009588361 -0.002597451 -0.0071975496 -0.003000255 -0.0021710752 0.010807995 0.011704266 -0.00585801 0.0009195009 -0.0068586767 0.01612892 -0.00300779 -0.0024207581 -0.0045868307 0.009267535 -0.022413518 -0.009845012 0.01481344 -0.0155621385 0.0005971857 -0.0119183855
O -0.0023060695 -0.013133207 0.014422169 0.007250478 -0.0023975691 0.013534175 -0.016042097 0.013735181 0.015847702 -0.013098911 -0.011867998 -0.0022740124 0.007581268 -0.000111499074 -0.015145289 -0.015183056 -0.004329266 0.015089454 0.001967069 0.013824933 0.012675888 -0.0152223725 0.010586416 -0.014962631 0.00802625 -0.01550224 0.0024012285 0.013008756 0.007023956 0.00034898042
