20 30
# -0.7126653 1.2415278 0.004224464 -0.1779009 0.57002956 -0.24399245 -0.1408108 0.42012295 0.20493251 1.2667906 -0.46828473 -0.60363716 -0.018151637 -1.3034618 1.2898369 -0.3720647 0.37939933 -0.2838973 1.0715646 -0.22799852 -1.1501635 0.23048809 -0.0155812 0.41245672 -1.0794832 -0.4527944 -0.8149235 -0.92535084 0.628993 0.019133743
r -0.6674277 -0.051533062 0.6247701 -0.14380454 0.5597283 0.26217094 -0.42604828 0.42258653 -0.5836016 0.32776934 -0.38576618 0.23629285 0.14363247 -0.27006614 0.41845948 0.31690192 -0.18671502 -0.33364204 0.8108854 0.33802924 -0.57323116 0.66624326 -0.19048028 0.4072726 0.045151178 -0.17944495 0.22495827 -1.2075032 0.4764521 0.13953853
u -0.18724291 0.91938233 -0.17540652 -0.0953735 0.5283647 -0.7413319 -0.33680472 -0.060235564 -0.1571106 0.44386742 -0.38029805 0.5798439 -0.3838439 0.134434 0.27234808 0.21647733 -0.78753364 0.0866642 0.20142494 0.07679369 -1.250393 -0.13282733 0.22149651 -0.09188967 0.2022226 -0.03289975 -0.4970551 0.20465593 0.43736225 -0.032908827
i 0.33031633 0.47934246 -0.7423672 -0.28112653 0.1945878 -0.42159334 -0.078081384 0.20381424 -0.4175507 0.35802895 0.08343966 -0.009621022 -0.32190105 0.371636 0.5839325 -0.51147324 -0.019787896 0.6206127 0.6630921 0.7800671 -0.47633055 -0.3855676 0.8561708 -0.049962007 -0.4344536 -0.9986874 0.16625515 -0.02317036 0.11099148 -0.14722747
g -0.101696506 -0.22371706 1.0434289 0.019981006 0.15851593 -0.82102567 0.66320163 0.08359799 -0.017512476 0.6814865 0.095821984 -0.7703454 -0.40714532 -0.7858451 1.1843412 0.27556282 -0.76109856 -1.7149835 0.11909451 0.20583604 0.48452973 0.4038567 1.1216068 0.41969794 -1.3708029 0.024384003 0.7107437 0.15449764 0.94626766 0.05442852
d -0.3483727 0.39104542 0.55632085 0.96145195 0.4935965 -1.6238347 -0.53543913 -1.1418386 -0.103933044 0.19026451 0.12303921 -0.6011169 0.13567245 -0.7694557 0.48937333 0.4119876 0.98982316 -0.4752935 -0.29278263 0.5790973 0.36429593 0.4299547 0.42505497 0.87715065 -0.8199764 -0.18589936 0.21209072 -0.9111433 0.061263654 0.45357484
b 0.062357232 -0.7064534 0.50440913 -0.45784104 0.26684868 -0.36973616 -0.28934744 0.14314704 0.1909556 0.48071188 -0.96751153 -0.59476453 0.48904774 -0.3353595 0.51532453 0.8901976 0.47563237 -0.91345483 0.26287025 -0.53872156 0.13753314 0.0037841497 0.64374936 0.1939769 -0.32839045 0.29534873 -1.3508384 -0.4671654 0.19488814 0.67181045
a -0.16468342 0.94435513 -0.4416699 0.4813578 -0.059831634 -0.2685059 0.35386434 0.353576 -0.66919327 0.32171714 -0.55824846 -0.47152868 -0.6119434 -0.8507019 0.5895077 -0.23238207 0.085302144 0.014957864 0.41060722 0.36482945 -0.8716559 0.28247523 0.23448294 -0.23125093 -0.08796962 -0.004855833 -0.0635686 -0.11695697 0.6347301 0.15487154
s -0.689106 -0.36465266 0.4970222 0.2780702 -0.17216873 -0.21740484 -0.73339987 -0.41615456 -0.6080789 0.5871148 0.7263944 -0.22131738 -1.1545085 -0.24365129 0.85935915 0.00014498236 -0.10542044 -0.7028577 0.54690456 0.69669366 -1.1022651 -0.30495173 -0.5531559 -0.22291796 -0.7144837 -0.942127 -0.7240357 -0.4124025 0.70359254 0.82646847
t -0.5779252 0.7180594 0.6532098 0.47997734 0.99405104 -0.81069213 -0.36290047 0.11395568 -1.4114157 1.038263 -0.8217786 -0.7058794 0.0443239 -0.17802 0.26220956 0.0013651465 -0.12121422 -0.4659488 0.31463388 -0.4309856 -0.6262947 0.5122018 1.529432 -0.54680145 -0.32832932 -0.49006543 -0.23350166 -1.1536101 0.10832576 -0.3859799
K -2.205746 -0.30223587 -0.05799598 0.6351445 0.27043703 -0.5922661 -0.14574642 -0.029643193 -2.0699985 0.53315896 -0.6609755 -1.5473348 -1.0918272 -0.10645481 -0.3046044 -0.21021709 -0.36337516 -0.9031563 1.2252349 0.74394274 0.8795033 -0.4909548 -0.106711626 0.0101940315 -0.39778838 0.2645476 -0.6520326 -0.3884017 1.2093804 -0.090617135
p -0.6155068 0.8213699 0.5931089 0.54028416 0.9394326 -0.7280361 -0.26974052 0.100685716 -1.5155907 1.066917 -0.75026447 -0.8736813 -0.12338586 -0.21436237 0.21247151 -0.17401917 -0.10988804 -0.51993626 0.29141906 -0.41427064 -0.6610249 0.401791 1.5464469 -0.5843045 -0.3522515 -0.52430195 -0.30863017 -1.1175917 0.14821556 -0.49217036
P -1.1825446 0.21585712 0.52911115 0.23749922 0.40029544 -0.106107645 -1.4745144 -0.61589783 -1.0881386 -0.19152704 -0.76766115 -1.3670794 -1.3760166 0.06287595 -0.735351 -0.54946285 -0.97026306 -0.90641266 0.15016665 0.36026913 -0.13743675 -0.6085435 -0.26800978 0.42771533 0.011768592 -0.042220272 0.29450333 -0.49773112 0.42152417 -0.43002734
T -1.5619838 0.017950086 0.5303558 0.09543812 0.36899215 -0.02644764 -0.64009655 -0.3565515 -1.7388144 0.3626155 -1.063017 -1.6918175 -1.3170421 0.08280863 -0.24705508 0.40203878 -0.4055529 -1.2572292 0.21172084 1.3259482 0.05169658 -0.74258345 0.15376632 0.21737696 -0.33896783 -0.28672045 0.42760763 -0.17026003 0.5939585 -0.5128661
k -0.5818607 0.5900668 0.59872836 0.39976606 0.9948374 -0.7861601 -0.43601102 0.16009974 -1.6363982 1.0420722 -0.9064217 -0.7613198 -0.1368122 -0.1116388 0.28024024 -0.09673357 -0.24008867 -0.476167 0.37793395 -0.34924728 -0.6895281 0.39876512 1.6960021 -0.5451675 -0.30479085 -0.52723324 -0.117451794 -1.0039074 0.12941392 -0.44092035
n -1.2076313 -0.9872517 -0.68089336 -0.09368212 -0.3232618 0.37179017 -0.96856326 0.58782697 -0.5019319 1.0615176 -0.08009497 0.4431438 0.13861056 -1.1436319 0.4086203 -0.07804586 -0.1658088 -1.4591616 -0.25346977 0.00214712 -0.7186756 0.36354426 1.0055821 0.27886057 -0.35816255 0.028549993 0.6792557 -0.097710796 0.00558117 0.09484183
m -0.06689066 0.2652151 0.85593194 -0.115352996 0.5520785 -0.5634937 -1.0979527 -0.4952944 0.29694152 -0.10881861 -0.36895102 -0.04625872 0.4851915 -0.8383655 -0.3850358 -0.35019663 -0.8841895 9.782701e-05 -0.045266632 -0.30331916 0.15911077 0.64175856 -0.5375979 -1.3058041 -0.5113712 -0.35267603 0.7761373 0.35602093 -0.08107724 1.3603177
N 0.051397827 0.33762804 -0.072109886 0.848127 -0.65333134 -0.08222758 -0.04375549 0.027798517 -0.6396429 0.4030311 -0.6941842 -0.5143953 -0.24394715 -0.11637384 -0.46023083 0.30831116 0.97415215 -1.9526517 0.81498426 -0.61704326 -0.9106973 0.21676743 -0.3465897 0.13309713 -0.3775625 -0.8214545 0.70364857 -1.5304928 -0.65925145 0.35856202
e 0.42565724 0.9607394 -0.71059245 -0.11030216 -0.02428969 -0.22385184 0.27911353 0.3240768 -0.57192916 0.077333465 -0.11960435 -0.20701276 -0.4807062 -0.41082937 0.2001589 -0.69250846 0.40212715 0.6889528 1.0469356 0.5709578 -0.6851056 -0.16147305 0.7060879 -0.40623578 -0.20554446 -0.45486823 0.0051072603 0.3227763 0.21564417 -0.41286188
o -0.1743701 1.2307006 -0.71886265 0.19246607 0.21787797 -0.15139216 0.14629556 0.33245268 0.010315315 0.31628528 -0.50727123 -0.09621734 -0.38484028 -0.13244453 0.49836102 -0.1314427 -0.7753077 0.3994334 -0.42999545 0.20914954 -1.0109439 -0.020373927 0.086043246 -0.16954194 0.25829348 -0.033790227 -0.5627109 -0.014947988 0.66698503 0.13245101
