15 30
# 0.2296965 0.7276883 -0.1321266 -0.1293111 0.026991213 -0.6222908 0.012869961 -0.6459872 -0.10899552 0.5916693 0.5796673 0.6246161 0.55640006 -0.12041752 0.2062405 -0.14078091 0.1576478 0.54951555 -0.35939065 0.4933986 -0.081234224 -0.7747783 -0.731228 0.28602594 -0.5944427 0.024216663 0.3161311 0.9463639 0.16620894 -0.50944483
d 0.13174064 0.19996805 -0.058915924 -0.35307273 -0.13356896 -0.033913527 -0.15622601 -0.37752044 0.31149876 -0.20544018 0.30491993 -0.2842914 0.09731715 0.0015053282 -0.32675344 -0.15578349 -0.14373082 -0.057119843 -0.1426736 -0.09109859 0.0350963 -0.3247149 -0.02652467 0.15465781 -0.3337606 0.076295 0.28450933 -0.036255267 -0.01254295 -0.29301426
g 0.090405084 0.1773977 0.0012537228 -0.25338134 -0.19006404 -0.023911148 -0.2209901 -0.2678982 0.33025026 -0.3062546 0.2616518 -0.39711794 0.08811885 0.015248543 -0.30630565 -0.18618609 -0.14611052 -0.09005611 -0.10060335 -0.08173573 0.032736573 -0.23543367 0.0059661954 0.09351864 -0.1967451 0.09563107 0.16692516 -0.06241433 -0.0034842573 -0.24748468
b 0.069267005 0.23370379 -0.024665514 -0.33003685 -0.13793983 -0.004853421 -0.18981701 -0.2619674 0.3316224 -0.24888258 0.2920195 -0.35924336 0.04292094 -0.01145328 -0.41059187 -0.14889225 -0.14162476 -0.0956215 -0.106235445 -0.063458785 0.08353913 -0.27876446 -0.016445426 0.13582836 -0.29923758 0.060547356 0.29014316 -0.09920012 -0.033578075 -0.24961834
a 0.2143102 -0.07084266 0.3798631 -0.09775132 -0.31407034 -0.1311592 -0.086379096 0.031631727 0.118221916 -0.1542155 0.09970386 -0.115798615 0.16905858 0.079791464 0.3719175 -0.112138145 0.10244934 -0.0053976774 0.085825235 -0.23289753 0.07295076 -0.16628638 -0.17702545 -0.055309147 -0.054602887 0.08471688 -0.2871933 0.34135747 0.35020572 -0.16685264
u 0.33472094 -0.113453746 0.4819529 -0.06919459 -0.3742768 -0.16651174 -0.10407814 -0.00010950392 0.11844316 -0.1606456 0.06477432 -0.08707988 0.2407495 0.0779405 0.5804371 -0.15298454 0.123510785 0.09069569 0.05823172 -0.2764908 0.0647728 -0.19839585 -0.19213995 -0.093766496 0.02270112 0.1761499 -0.4116188 0.4658505 0.40537876 -0.14055774
o 0.261894 -0.08861517 0.4412227 -0.08020978 -0.36392152 -0.16770339 -0.062266096 0.026298303 0.06960861 -0.1333806 0.062035665 -0.07547931 0.28980467 0.08985547 0.5257712 -0.11824433 0.16028452 0.035915516 0.051669 -0.24185897 -0.011581499 -0.15494587 -0.21897666 -0.11432237 0.027776593 0.111304164 -0.3964754 0.39936244 0.3703213 -0.17446
e 0.2628474 -0.08773105 0.3966556 -0.06305932 -0.3637522 -0.17154293 -0.09247803 0.014832484 0.1340926 -0.18600687 0.05605996 -0.14902706 0.27308714 0.04692512 0.46568486 -0.1771851 0.12622698 0.020178564 0.06836887 -0.2361139 0.013734265 -0.17691685 -0.16832492 -0.078681946 0.04866613 0.12608263 -0.40141305 0.37283513 0.3679023 -0.16904148
i 0.28522176 -0.15321618 0.4863287 -0.11731557 -0.40076745 -0.20339616 -0.017185593 0.028745834 0.023102041 -0.08128652 0.08010958 0.005279619 0.33284324 0.117171444 0.66515136 -0.07801128 0.2546582 0.10776569 0.0025633296 -0.2732551 -0.028301459 -0.15664585 -0.26967543 -0.15917717 0.036549725 0.10740502 -0.44459435 0.50615263 0.41065294 -0.18760589
K -0.5112389 0.62355065 0.6102881 -0.46699664 -0.18830322 0.5861534 0.10325396 0.49968165 -0.7735365 -0.085804045 0.118813165 0.41986376 0.33536926 0.90378094 -0.30494794 0.8401155 0.0070273364 -0.09214286 0.40549403 0.15653284 -0.5672734 0.7521542 -0.34395614 -0.7189178 -0.049852893 -0.5871829 0.009254733 -0.12798885 0.022398222 -0.39118448
T -0.6172632 0.57226634 0.59111583 -0.43698946 -0.1588908 0.6194158 0.14910194 0.59485006 -0.773893 -0.04375778 0.104619235 0.41716436 0.25966594 0.9195454 -0.35365415 0.8462873 0.016636765 -0.17608348 0.51455456 0.17190196 -0.5057857 0.75707096 -0.35358045 -0.6542755 -0.11647463 -0.64981323 0.042259257 -0.1443057 0.07636447 -0.38979298
P -0.55995864 0.59532577 0.67666435 -0.3088266 -0.22762501 0.47569808 0.12155669 0.5979112 -0.8626817 -0.018876577 0.08718788 0.49596617 0.3500257 0.9160643 -0.108945176 0.793936 0.05176848 -0.079496905 0.5097844 0.20647812 -0.52127075 0.7422964 -0.42403322 -0.7084072 -0.014471968 -0.6084985 -0.15694164 0.06141151 0.17269549 -0.39643943
k -0.17136909 0.89617187 0.22649243 0.8825115 -0.045018066 -0.19287202 -0.24243452 0.7542522 0.25378782 0.24829799 -0.27688542 -0.1866875 0.451222 -0.34877363 -0.24648933 -0.57496923 -0.050231256 -0.34183004 0.93922687 0.78218454 -0.062118493 -0.5856521 -0.30641735 0.50932986 0.11524557 0.00706798 -0.48384863 0.099182524 0.62657845 -0.48029944
p -0.2185156 0.890988 0.1960248 0.7748013 -0.0026996261 -0.16175784 -0.1894918 0.70201635 0.19662847 0.26203778 -0.21647784 -0.100673385 0.42665213 -0.2812775 -0.30638933 -0.4830573 -0.046567053 -0.31446654 0.9134355 0.8004779 -0.094614595 -0.5383086 -0.32149187 0.48524457 0.012068214 -0.07036062 -0.379601 0.06867512 0.5633835 -0.51216054
t -0.22527511 0.9171418 0.24783416 0.83381706 -0.026966298 -0.18435691 -0.25588888 0.7164673 0.19220647 0.23297249 -0.22223192 -0.14215879 0.38253385 -0.28621757 -0.26420417 -0.50556946 -0.06505648 -0.30157888 0.9281945 0.8268916 -0.07319772 -0.5106015 -0.30670902 0.47608867 0.079639494 -0.012047116 -0.42724586 0.08781935 0.57120293 -0.46759132
