45 30
a 0.18836993 0.9625834 -0.27649492 0.017346129 -0.56739813 0.08032048 -0.21466753 -0.2509558 0.31559727 0.50132906 -0.03242365 -0.3664974 -0.39499593 -0.24372844 -0.0144237345 0.5083163 -0.092614144 -0.18055901 0.09704372 0.22262457 -0.30932873 -0.49141076 0.02998005 -0.34251466 -0.052518878 -0.6324784 -0.0019154833 0.14368114 0.58557683 -0.778687
# -0.5560667 0.66080153 0.17249267 0.041706383 0.45909014 0.27371165 1.0733198 -0.2801838 -0.032905493 1.1380361 -0.18922529 -0.34297383 -0.17102769 0.18162824 0.5837958 -0.13363843 0.042657565 -0.7025856 0.18072684 -0.056993604 -0.9287957 -0.41700912 -0.32771647 -0.15652455 0.5356692 -0.510535 -0.1913678 0.66522765 -0.15559506 -1.274907
A 0.25698692 1.031582 -0.23895115 -0.22623068 -0.65554875 0.22251527 -0.03145172 -0.23981859 0.42492226 0.38790858 -0.27075982 -0.07729696 -0.114675574 -0.13051914 0.24846362 0.46610245 0.14050236 -0.100728475 0.11649394 -0.06819218 -0.24473515 -0.66461766 -0.014003553 0.08153479 0.080745995 -0.39485276 -0.07219479 0.39122945 0.42634928 -0.7475742
r -0.07129202 -0.02519804 0.50934577 -0.2547014 -0.5484976 0.33809003 0.13309008 0.031347465 0.058902156 0.3476264 -0.861597 -0.0026246037 0.16571228 0.011042326 0.74715704 0.15746866 0.4159257 0.056229167 0.32318532 -1.133317 -0.66021496 0.1718187 0.00852557 -0.4129878 0.32453755 -0.15858866 0.10407207 0.39797938 -0.7009627 -0.24901414
w -0.35686475 0.3864693 0.08919509 -0.36726078 0.20469378 0.20602882 0.39238694 0.08932131 -0.10766214 0.27309525 -0.22066636 -0.0758452 -0.069695175 0.08746447 0.35703897 0.07573472 0.21038924 -0.6308669 0.29956558 0.27407965 -0.13616443 0.46936065 -0.31664544 0.1904257 0.39389926 -0.015473381 -0.18718797 0.21088664 0.05484283 -0.10545393
i 0.41741133 0.13511066 -0.08319339 -0.11454744 -0.66719484 0.19301605 0.039851405 -0.9049395 0.066469766 0.25634184 -0.06421486 -0.43481532 -0.23268747 0.04271352 -0.5452201 -0.20981409 0.71499246 -0.2662974 0.18247771 -0.33523098 -0.59818083 -0.2263221 0.077599205 -0.5398559 -0.016928468 -0.794597 -0.084792696 -0.30730414 0.45599848 -0.8850113
v -0.44366604 0.04001598 0.6931828 -0.22416514 0.09090337 -0.5396031 0.45288798 0.26366156 -0.417617 0.16384406 0.24895906 0.44987452 -0.47173676 0.02862695 -0.013685992 -0.063767076 0.19653761 0.029704189 0.17592068 -0.44216445 -0.004727329 0.080708824 -0.46996573 -0.3712488 0.293202 -0.7563856 -0.34816992 0.15777844 0.06764987 -0.4395046
n -0.5640291 0.5832491 0.2547075 -0.20711547 -0.03829004 0.3896553 0.3506824 0.12239147 0.2124567 0.01812785 0.14644752 0.36318427 -0.39810818 -0.038216382 0.37055746 0.008486219 -0.30424696 0.121518664 0.20118995 -0.33412784 -0.21438664 0.020939983 -0.3432869 0.12003445 -0.01094005 -0.40617168 -0.036811974 0.18985881 -0.112869315 -0.1633968
y -0.50277853 0.6118245 0.40044817 -0.15005125 0.120538466 -0.22101294 0.4192889 -0.31399572 -0.14907482 0.750523 -0.06684069 0.07695663 0.21971457 -0.024984293 0.16482377 -0.314896 0.37046304 0.1807334 0.2888958 -0.041055493 -0.85336053 0.10690085 0.539923 -0.43962464 0.39344606 -0.2858674 0.008835629 -0.17793429 -0.23080254 0.039814465
m -0.64459753 0.17371722 0.5251593 -0.11970398 0.14915252 0.16871245 0.06258963 0.006942232 -0.17876929 0.61929685 0.32666343 -0.039701417 0.07189783 0.0664761 0.3666254 -0.38667288 0.24546242 0.17496555 0.29851267 -0.10603113 -0.2152898 -0.1684341 0.23429236 -0.2838557 0.4414644 -0.16183794 -0.6740028 0.28549218 -0.15570983 -0.07045274
s -0.5474422 0.5012402 0.40720966 -0.34586707 0.10529721 0.20288739 0.3382713 0.13044743 0.31446746 -0.2666791 0.09289951 -0.56964916 -0.11917966 -0.13594374 0.10812001 -0.19633874 0.2970072 0.172418 0.036682665 -0.059623454 -0.2987022 0.076618135 0.8031284 0.07350483 -0.50161535 -0.24197622 0.09084726 0.25211906 -0.535296 -0.18570744
u 0.55464596 0.6519097 -0.24386318 0.47989547 0.11614443 0.061160203 -0.25872877 -0.44568107 0.26175624 0.7034668 0.02966814 -0.17383473 -0.5279222 0.44844568 0.013683792 0.049514864 0.6503887 0.24700336 -0.0341975 -0.39695635 -0.47272065 -0.022777569 -0.31542107 -0.55315435 -0.12741362 -0.80244184 0.021311149 -0.21091922 0.7075496 -0.6508183
x -0.35697103 0.072156526 0.4240905 -0.006970736 0.09407957 0.44963136 0.23120542 -0.09779883 0.055470128 0.16541871 -0.26867628 0.19215542 -0.119751945 0.15823899 0.05206042 -0.4021522 -0.3135941 -0.56443626 0.10756092 -0.0055445028 0.20924483 0.12687181 -0.3518729 0.039380085 0.0663245 0.09577726 -0.51940656 -0.3383633 -0.4452053 -0.7727203
e -0.022076136 0.25687984 0.10334863 -0.3652108 -0.37966585 0.5317705 0.11185484 -0.4170309 0.4555877 0.47985008 0.2626819 -0.14696452 -0.35409167 0.11428366 -0.04213733 0.29212224 0.6784206 -0.052783024 -0.011517201 -0.64686453 -0.35757115 -0.27576268 0.22666165 -0.58515674 0.028372025 -0.48865387 -0.53783756 -0.13529007 0.5564642 -0.5538442
p -0.12429038 -0.6014786 -0.15717301 0.30434477 -0.0968748 -0.3466556 0.31673187 0.33218777 0.064175926 0.042478092 0.112096824 -0.5316251 -0.23949441 0.7502052 0.62971437 -1.1793338 0.3506858 0.19607374 -0.084591165 0.34565604 0.50147957 -0.0011384307 0.45974997 0.07243419 0.426425 0.3528254 -0.42514062 0.3514312 0.07854597 -0.8024042
o 0.029424446 0.9972476 0.105417974 -0.032846354 -0.3998879 0.44539097 -0.43068132 -0.08643004 -0.13186195 0.5267025 0.18555513 0.16353714 -0.29738978 0.15532343 0.2514903 0.11128658 0.72749394 -0.008246494 -0.023200862 -0.34637278 -0.114526585 -0.3808486 -0.35276803 -0.47286108 0.13300344 -0.2619377 -0.28540143 0.3342523 0.63181365 -0.8478623
R -0.062701575 -0.71050584 0.935094 -0.8780004 0.16785723 -0.17629269 -0.22218509 -0.73213726 0.837951 0.06380117 -0.548807 -0.39601818 -0.076734506 1.5701777 0.87286764 0.57755154 -0.007833108 -1.3587009 1.662936 0.03490001 0.8663929 -0.34578928 -0.40708596 0.69065744 0.4891826 -0.8943906 0.95157975 -0.05870716 0.03403521 0.21866715
M -0.89427614 0.53128827 0.315023 -0.30211565 0.046543013 -0.12355259 0.044728257 0.37157962 -0.2417059 0.5465976 0.25147906 -0.3754234 -0.5608516 0.2912734 0.7994591 -0.16977115 0.6154604 -0.04403062 -0.02792689 -0.3818238 0.13480091 0.043356508 0.11721696 -0.103358194 0.15863173 -0.42837107 -0.2590811 0.4023513 0.5093711 -0.3049617
S 0.0080317 -0.20324393 0.3059289 -0.8072123 0.04895836 0.5075493 -0.03661974 0.44003165 0.41980657 -0.44263485 -0.8556934 0.09292091 -0.744308 0.6191297 0.29761922 -0.21304832 -0.60653687 -0.8209913 -0.26374784 0.4161571 -0.62316364 0.07835603 0.33456933 -0.24688293 0.33456358 0.3128677 0.08454502 -0.49733976 -0.0953995 -0.43938106
k 0.5443984 -1.2418736 -0.085128486 -0.48338562 0.51316345 -0.3522947 0.4749314 1.2552724 -0.07333314 0.10143656 -0.37620747 0.0045388006 0.6808619 0.7375626 -0.37964413 -0.51034397 0.65986186 0.49056673 -0.94179845 0.007254151 -0.17483516 0.2732938 0.4927418 0.37686428 0.4787128 -0.19281071 -0.25244606 0.4039938 0.66436756 -1.600295
H -0.63873094 0.19489989 0.6077629 -0.43963206 -0.37537017 0.61760783 0.0139796315 -0.1672103 -0.4978675 0.5147508 -0.4145178 -0.39358407 0.30298626 0.5678019 0.46623027 -0.0025899953 1.3204604 0.0455847 0.34179783 -0.8602445 -0.076783374 0.27795884 0.20327522 -0.38582796 0.14423078 -0.1369558 -0.5078887 0.14828332 -0.36021993 -0.37889722
B 0.3648069 -0.6051187 0.044368237 0.027296199 -0.58190596 0.45807025 1.0558735 -0.7086352 -0.61959344 -0.26719734 0.67080075 0.18695939 -0.533899 0.67082566 0.56679827 -0.50219053 -0.5116198 -0.23282081 0.74757594 0.37461248 0.5393015 0.34537613 -0.27532884 0.20696563 0.079004794 0.09387412 -0.41451934 0.4131059 -0.52484435 -0.5236414
I 0.5077268 0.6895397 -0.29547295 -0.550342 0.36330208 -0.07443107 0.1484153 -0.5560654 0.14496651 0.08444984 0.28767136 0.08648644 -0.25254825 0.21567932 -0.07570375 -0.088052906 0.44273654 -0.58121824 -0.29523093 -0.4563209 0.039891433 -0.010726768 0.35654956 -0.6544578 -0.07263125 -0.4285193 -0.047265545 0.3594934 0.62093484 -0.88273495
h -0.06393454 0.2492528 -0.5472355 0.22381514 0.3257162 -0.13508202 0.4037997 -0.11967076 0.22197755 -0.2528449 -0.5674028 -0.2013991 0.22094266 1.0608445 -0.10278191 -0.551601 -0.78814405 0.21077898 -0.07807266 -0.1873334 0.77487975 0.13234733 -0.00016278998 -0.51807016 0.26526278 0.015215933 -0.6743819 1.0123003 -0.7262928 -0.122804195
q 0.33745894 0.381359 -0.23914842 -0.03555775 -0.2162067 0.29939276 -0.41313213 -0.7040492 0.5328562 0.75271875 -0.6181988 -0.30408087 -0.16301133 -0.118024305 0.06637959 0.13888127 0.7771262 -0.19106254 -0.01044954 -1.7768589 -0.28874826 -0.50102925 -0.09978312 -0.7723794 0.017805537 -0.8850581 0.09813071 0.97238165 1.3246065 -0.026154963
j 0.33188727 0.30361238 0.06168161 -0.9779499 -0.24245839 0.5862285 0.86565024 0.35500157 -0.086739816 1.3938674 0.6036607 -1.0060277 0.5031458 0.46841162 -0.6013929 -1.1780465 -0.6480743 0.31291765 0.37465546 0.23523583 0.046611983 -0.49906668 0.018315142 -0.010986972 0.16123137 -0.4438961 -0.8592793 -0.07786227 -0.6219191 0.8749376
X -0.05116531 -0.2746491 -0.06635658 0.43126523 0.5162004 0.502728 0.5109985 -0.16716947 0.48813906 -0.72315323 -0.56112224 -0.75006986 -0.0086355405 0.61273885 -0.15992084 -0.6749546 -0.5404803 0.4032109 -0.21893996 0.49289972 0.13296917 0.32731053 -0.24416319 -0.13125715 0.37288496 -0.04154663 -1.1165348 0.3874034 -0.622616 -0.17802605
c -0.18525594 0.39015853 1.6144321 1.145529 -0.93776506 -0.6241118 0.14390177 0.46657777 0.0070610833 1.6559964 0.15734717 0.3031486 -0.36593652 0.5742991 0.4236787 -0.63745505 -0.07999168 -0.4871901 -1.2027764 0.5180049 -0.3666783 0.7833297 -0.49033007 1.3104413 -1.2931186 -0.5046833 -0.4316888 -0.08602972 0.17182529 0.104478315
g -0.13548294 0.030628543 0.6436835 -0.051761393 -0.6144954 -0.118412435 0.9124718 0.29383555 -0.20798513 -0.45181578 0.31659663 0.15525784 1.0933186 0.15209484 -1.5704895 -0.3345788 0.4804188 -0.8726998 0.12865458 0.5525752 0.2699337 -0.07638123 0.18318394 -0.4642011 0.46959484 -0.15058398 0.22812241 0.7917097 -0.6440599 -0.63554764
N 0.4600417 -0.32791907 0.2199792 -0.15470856 1.661909 0.8722117 0.78669065 0.07365999 -0.326818 -0.31618765 0.21075542 -0.080943555 -0.2082579 -0.5269018 0.13279763 -0.8438368 0.735189 0.013809974 -0.27327225 0.8501798 -0.006423366 0.9319835 -0.6488327 0.76023614 -0.15353522 0.34865865 -0.37636474 0.539592 0.6925958 -0.46254706
U 0.7705207 0.9683678 -0.38657218 -0.03873884 0.07132729 0.23959795 -0.31369826 -0.029150777 -0.21868572 0.6857482 -0.34495687 -0.17141095 -0.26745412 -0.0050219726 -1.0053139 0.012537112 0.48793423 -0.43740565 -0.46432936 -0.18536928 -0.16431428 -0.03562018 -0.023820737 -1.2598464 -0.33915088 -0.28044558 -0.1325296 0.16797242 -0.077732444 -0.9275429
W -0.094970204 0.22407106 0.17440869 0.13155213 0.851784 0.21604033 0.2031915 0.0672016 -0.16278939 0.13055252 -0.5258183 -0.051380426 -0.5779872 0.64443606 0.2501191 0.11265926 0.15682442 -0.118874975 0.5358094 0.65572786 -0.063640885 0.6621316 -0.6250997 -0.14504246 0.13263653 -0.03051021 0.024661984 -0.25034407 -0.64282954 -0.15857519
t 0.97967196 -1.7898172 -0.7538663 -0.5438883 1.1246452 1.3888057 1.0051414 0.7750067 -0.42934868 0.85456115 0.36300224 1.1717826 -0.6400862 -0.47565114 -1.4211727 -0.7228635 1.6272477 1.0244136 -0.21331388 -0.8166421 -1.0812651 0.6485937 -0.41874966 0.9026686 0.35997277 0.37109125 -1.4288403 0.55712885 -0.09976106 -0.5659921
b 0.8354829 1.4450791 1.1711736 -0.5124392 1.373854 -0.26719868 -1.1806666 -0.07834538 -0.9266748 -1.243964 1.109627 -0.4751051 0.7641167 -0.94494915 0.62440425 -0.67346627 0.4739307 -0.28528064 0.586105 -0.24637246 0.5602826 0.42604262 0.31479207 0.001249522 1.0901089 -0.039449904 0.6841292 0.62980735 -0.6814252 -1.6359168
ai 0.24179572 0.625756 -0.16510591 0.38477594 -0.1672048 0.15495443 0.5156031 -0.89997786 0.33365062 0.79757005 -0.06958738 -0.3624648 -0.35765123 -0.17923082 0.17228504 0.2768842 0.19883253 -0.33292907 0.26619595 0.1995446 0.22240812 -0.26190794 0.006526802 -0.18351483 -0.30836478 -0.32560793 -0.077803835 -0.59515357 0.6826516 -1.0250982
G -0.55920327 0.7245647 -0.074777246 -0.6865725 0.4095081 -0.2793823 0.9822054 0.58507526 0.4647459 -0.89389753 -0.23748787 -0.42863378 0.9035086 0.28629047 -0.6621081 -0.16705675 -0.6589593 0.65465045 -0.4277545 0.7365235 0.4320646 0.16571327 -0.19284156 0.06098315 0.25419104 -0.679716 -0.47101837 -0.050314028 0.51095665 0.18674062
F 0.020831972 2.093552 0.44310814 -0.5743217 -1.1724516 0.5554071 0.2670516 0.06620075 1.1902959 0.73625845 0.16746885 2.4038203 -0.898387 0.7521236 -0.3602237 -0.4847672 0.9005711 0.10337514 -0.04234183 1.4494195 -0.9724164 -0.58959 -0.99190325 0.7014899 -0.4599604 1.4642739 0.13594228 0.033428602 -0.6716787 0.75969225
C 0.12742995 0.39804536 0.76899165 -1.7169966 -0.84470296 0.386652 0.030634701 1.3761752 0.41729873 0.44729653 -0.062522724 0.041690454 -0.80222887 1.8545907 1.4366667 -1.1702584 -1.8027972 0.24668646 -0.66043437 1.2712585 -2.1772325 -0.46139404 0.77580374 -0.21220143 0.39120883 -0.17539388 0.8220272 -1.8484906 0.23799887 -0.016784884
au -0.1856411 0.1531011 0.057657667 0.24782337 -0.5238355 0.20322055 -0.34554026 -0.456643 -0.04551074 0.4322618 0.34673607 -0.060299408 -0.94089437 0.76132756 0.32539675 0.2808164 0.51126456 -0.023201816 0.5059122 -0.26790297 0.037179537 -0.32353002 0.011430528 -0.68432415 0.12622 -0.63853294 -0.38776934 -0.2824277 0.5588178 -0.5653314
L 0.16757804 -0.03831723 0.447583 0.021318797 0.6728732 0.33388504 0.09939243 0.38897112 -0.18241778 -1.2793759 0.4546924 -0.7159802 -0.3750256 -1.2688135 0.53967476 -0.4937779 0.13818428 0.15398806 0.5696607 0.09805918 0.2526797 0.79317075 -0.9261926 0.74509454 0.64826196 -0.29591516 -0.31729552 0.83844346 -0.25212464 -0.079642944
l -1.0814661 -0.44274557 0.65849316 1.2983313 0.7113956 0.3937437 -0.29274562 -0.2649755 -0.8030884 -0.555656 -1.0582496 -0.26898664 0.4393774 0.41493157 0.15041566 0.30948988 -0.84408534 -1.0442742 -0.035309006 0.2121535 -0.5606302 1.3261985 0.44101292 -0.09656008 -0.29642108 -0.42277974 0.4062701 0.9546315 0.8796196 -0.22181801
f -1.1022617 0.08444519 -0.08677554 0.096897855 -0.38565424 1.0595245 0.6379499 -0.4498883 -2.3985388 -0.4471673 0.32730064 0.53563035 -0.6902109 0.23906113 0.24757 0.36367553 -0.22379877 -0.17373215 0.87527007 0.24563959 -0.085252285 0.47321886 0.14342406 -0.95623404 -0.6499352 -0.6704344 0.452526 0.92358553 1.667584 0.080958806
K -0.68251896 0.057090677 -0.026619358 0.6849727 -0.1146494 0.18278033 0.31954 0.661325 -0.13815229 -0.45634338 -0.40413415 0.12523736 0.42500675 0.08853385 -0.47364667 -0.0511895 -0.52941525 0.21294855 -0.16487196 0.67283905 0.33482084 0.4204093 0.1690338 -0.41919094 -0.12662756 0.38509023 -0.32446277 0.44274712 -0.28622952 -0.3788576
d 0.17952657 -0.048955582 0.2262583 0.17656842 0.21909672 -0.074068144 -0.065160446 -0.038530387 0.27731958 -0.65936893 -0.6510943 -0.19414659 0.14176582 -0.18696341 -0.109827474 -0.13526547 -0.102342315 -0.62342995 0.08346916 -0.14868572 0.01510543 0.36471236 -0.18510343 -0.3006644 0.41584936 -0.29248565 0.24896689 0.8593221 0.2064484 -0.0724864
P -0.18987527 0.3285825 0.29129326 0.09351237 -0.17342703 -0.06827022 -0.28190783 0.15740281 0.022430686 -0.013235214 -0.04329527 0.21254389 0.19220167 0.07688347 -0.04724933 -0.07747322 -0.073067635 -0.32509848 -0.08468499 0.17258565 0.069928624 0.14790556 0.24285476 0.045888543 -0.065152586 -0.028682511 0.15092254 0.33985177 0.28205824 -0.4334273
