47 30
a 0.091192804 -0.22462629 -0.014725199 0.2913295 0.04828982 0.22360243 -0.08257956 0.33334848 0.01950303 0.14953598 -0.06455638 0.05485187 -0.24537916 0.13227926 -0.28181076 -0.21355683 0.22069918 -0.14653139 0.15547068 0.16478804 0.05068974 0.3370147 -0.16342326 -0.03062408 -0.22827083 -0.22496065 0.04382626 0.26716426 -0.040888857 0.33671182
# 0.28916493 -0.5243417 0.33818236 -0.17998186 -0.45051786 0.4338829 0.33649978 0.28859365 0.21319951 -0.21159394 0.23596999 -0.4188171 -0.18954149 0.32410383 -0.3197103 -0.12564546 -0.06995101 0.18130362 -0.33578348 -0.1761316 0.4561876 0.39852157 -0.18759058 -0.3823049 -0.56757706 0.07054708 -0.16011712 0.1906524 -0.315888 0.35878608
A 0.082637526 -0.27967173 0.0029251666 0.19350196 -0.006965806 0.23182766 0.0031123122 0.33636272 -0.0066736205 0.26748645 -0.005605455 0.08521014 -0.13414165 0.13941896 -0.46567973 -0.18005891 0.12259611 -0.047860816 0.073271215 0.076036416 0.12105008 0.19887216 -0.23318222 -0.12491433 -0.23091136 -0.25489497 0.22324091 0.08477244 -0.106510796 0.24597691
r 0.050824612 -0.3953562 0.0030382418 0.42101413 -0.34347293 -0.16956143 -0.06473316 -0.006543765 0.03092 0.17233919 0.20127764 0.048374552 0.30426303 0.51713765 0.036959782 -0.18163593 -0.06140205 0.009456197 -0.31124327 -0.09709501 0.08041836 -0.06927577 -0.17117295 -0.05377429 -0.09129927 -0.16375373 -0.06280153 -0.29806596 -0.14229552 0.23705477
w 0.034481943 -0.20948558 -0.08327398 -0.0067236 -0.065275446 0.122018225 0.21614493 -0.19165148 -0.11280862 -0.06409984 0.03285808 -0.019573199 0.18229797 0.09059744 -0.08589599 0.13979691 -0.36820242 -0.02477015 -0.0006962068 -0.14701346 0.09629135 0.30622467 0.11784646 -0.14671311 -0.26535454 -0.16949089 0.07871874 0.04041564 -0.16674058 0.17954414
i 0.24466808 -0.12311478 -0.14734931 0.42120066 -0.027860837 0.31121382 -0.43826008 0.5073005 0.2869141 -0.025458962 -0.07363783 -0.067733735 -0.013616631 0.15649202 -0.20347406 -0.24691232 0.033976816 -0.32219478 -0.09580183 -0.25666013 0.2948159 0.033891995 -0.08338101 -0.019178635 -0.0874725 0.039217092 0.20137194 0.20184627 -0.07212173 -0.06822549
v 0.00060070644 -0.02574778 0.11301498 0.21477306 -0.07616512 0.14914498 -0.21274966 -0.17471488 0.050200783 0.0029417786 0.14378452 -0.09545719 0.16809015 0.482837 0.11564448 0.0900327 -0.19893028 -0.378405 -0.002405136 0.09846793 -0.0743499 0.13509245 0.08276876 -0.21489356 -0.013430277 -0.24330926 -0.070553474 0.24306186 0.010875079 0.22686565
n -0.061766062 -0.09976044 0.20737186 0.042906806 -0.28263643 0.04614089 0.15059657 0.076818526 0.16738041 0.051772647 0.019038238 0.01794811 0.032730993 0.4449641 0.15099892 -0.092551686 0.071664475 0.059780017 0.10318092 -0.023686538 -0.05121825 -0.14399824 -0.21387862 -0.28063452 -0.10871629 -0.32174283 -0.03116358 0.15066504 0.031659428 0.24893558
y 0.31075668 -0.10786173 -0.2539805 0.3106589 -0.11648593 0.031010075 -0.0531718 0.028392639 -0.07078725 -0.08512914 0.15455942 -0.051469743 0.1365987 0.36824265 -0.061095145 -0.010457114 -0.09419408 -0.13529345 -0.17660937 0.12753083 0.24700843 0.017661136 -0.16896515 -0.48305848 0.10464255 0.019317938 -0.031983748 0.3717725 -0.30368036 -0.0043532695
m 0.008061721 -0.047842618 -0.17632365 -0.08829948 -0.121500134 0.01428503 -0.017827285 -0.13130581 0.15813655 -0.058345247 0.08475632 -0.030257888 0.13835272 0.38157052 -0.0408252 0.0055025667 -0.12130925 -0.39417455 -0.26295272 -0.06094104 0.028075615 -0.0657813 -0.3036521 -0.4329956 -0.15184052 -0.14281079 -0.04890517 0.17491005 -0.07938756 0.21628141
s 0.347121 -0.20610787 -0.12467375 0.017177472 -0.041383702 0.023341788 0.06650862 -0.13534817 0.0033788995 0.43722057 0.11211666 0.06336782 0.23371494 0.094979964 0.29637173 -0.41662896 -0.037718177 0.120439745 0.1296148 0.04467756 0.07891501 -0.05544959 -0.17151454 -0.059200242 0.03928062 -0.09334248 0.025109751 -0.0069253286 -0.1742082 0.3482682
u 0.3055349 -0.0007461989 -0.07005559 0.33290812 0.019587798 0.32514435 -0.33881956 0.31206322 0.12453612 0.12519895 -0.10937078 -0.055784546 -0.2760125 0.18158293 -0.07696358 -0.16832766 0.021616176 -0.35117364 -0.14552337 0.15648203 0.07965028 0.15544787 -0.064772815 -0.108674556 -0.20222245 -0.013648801 0.055234123 0.069611184 -0.07365171 0.2350049
x -0.25752985 0.01822989 -0.07968986 0.15881832 0.039681107 0.15043402 0.029790385 -0.04520393 0.10318493 0.05353459 0.035940055 -0.11914145 0.37243432 0.24684457 -0.025247136 0.0074242833 -0.14719267 -0.24005225 -0.08802634 -0.26876453 0.022719007 0.12865031 -0.13222602 -0.21374613 -0.12847674 -0.52495944 0.18921296 0.11357381 -0.018229984 0.04008958
e 0.14378624 -0.16971008 -0.08048661 0.0906939 0.13050382 0.317675 -0.3255152 0.3376622 0.29093716 0.11664434 0.0792621 -0.050780762 0.005027587 0.2073968 -0.25650698 -0.24076582 0.17149474 -0.2853541 -0.17449313 -0.1876415 0.08857852 0.031232959 -0.29185027 0.038435955 -0.18580025 -0.11406091 0.12980556 -0.04935252 -0.1324451 0.15352209
p 0.08173698 0.11693529 -0.13187769 -0.13674839 -0.1562508 -0.002161096 -0.27539903 -0.26731715 -0.3645567 0.35820627 -0.14273621 -0.184059 0.13494094 -0.23387204 0.29118082 -0.20882194 -0.10131644 -0.48803395 -0.25826034 0.21018007 0.40352443 0.45745388 -0.08457875 -0.08680312 0.18150443 -0.05682795 -0.107783005 0.05946634 -0.1267574 0.28089705
o 0.11731616 -0.093071535 -0.047866143 0.09942886 0.018748574 0.23609188 -0.24991699 0.28794622 0.11708627 0.21699908 0.037478745 0.023545701 -0.23970065 0.17633885 -0.1767982 -0.26283047 0.18270253 -0.3692457 -0.19975732 0.08843774 0.12867434 0.059519704 -0.30774844 -0.25805244 -0.32696605 -0.0078884065 0.11948471 0.09060209 -0.104554385 0.3128622
R -0.5334893 -0.40544382 0.11508602 0.26944217 -0.37614423 -0.3024059 0.26556343 -0.20968813 0.12095251 0.75576675 -0.27224106 -0.34149873 0.1985683 0.2196025 -0.48906052 0.40286753 -0.16781285 -0.5124681 -0.13137329 -0.31756592 0.33820927 0.121977694 -0.37131807 0.58630264 0.0274579 0.2592166 -0.0996355 0.22580034 -0.42631394 0.029085264
M 0.06872786 -0.2299852 0.068406835 -0.36593685 -0.055583294 0.03345918 0.017525263 -0.009069076 0.06896241 -0.06927376 0.13209635 -0.08047213 -0.07002571 0.442764 -0.0019021471 0.043035425 0.051705543 -0.38476086 -0.4560329 -0.036350537 0.096767284 0.022068629 -0.21008424 -0.18905933 -0.27248764 -0.091197215 -0.123824164 0.024011225 -0.24224214 0.3698954
S -0.34638515 -0.09747647 -0.32247368 0.22057806 -0.051332075 0.020208467 -0.08092162 0.07305321 -0.116052575 0.094740294 0.40760028 0.13380226 0.31636447 0.15212792 0.1751425 -0.034121 -0.17689489 0.0021322127 0.22838047 -0.4548675 0.25480574 0.37099767 -0.17000356 0.2840271 -0.17423138 -0.17523529 0.11331825 0.27204207 -0.02282483 0.087313116
k 0.17764856 0.22013552 -0.3031311 0.3819187 -0.0181885 0.30053034 -0.54393816 -0.21349722 -0.083756715 0.06719998 0.08957585 -0.19019976 0.3350274 -0.25429884 0.238231 0.08329505 -0.53804415 -0.2778606 0.06794279 -0.21664035 0.05317978 0.47248465 -0.07350535 0.19044009 -0.10106432 0.31332448 -0.3240514 0.10586569 0.06160629 0.28336453
H 0.05120186 -0.24808761 -0.027387192 0.061776094 -0.16726999 -0.018166872 -0.1701268 0.04669058 0.04484492 0.03196567 0.20421961 -0.11658352 0.30760744 0.34723422 -0.041473743 -0.049734563 -0.081602186 -0.30991656 -0.59911954 -0.29297176 0.20225528 -0.1790541 -0.3211829 -0.32427758 -0.22379477 0.045831926 0.05512017 -0.15915337 -0.25213036 0.12649736
B -0.29790744 0.0940972 0.5458557 -0.0077688526 -0.558706 0.12035109 -0.0041676005 0.16156173 -0.030917292 0.4841573 -0.4298618 -0.3647198 0.19488421 0.022455687 0.34574753 -0.08891963 0.031969763 -0.24967293 -0.049998015 -0.20406586 0.28270417 0.022682892 0.00391769 -0.22998546 0.015976712 -0.36782053 0.17883253 0.034711044 0.121702276 0.10161338
I 0.22629924 -0.20462415 -0.13928995 0.19585454 -0.07595071 0.23095633 -0.35118914 0.36373398 0.18383291 0.06287074 -0.042510893 -0.03716922 -0.078668594 -0.028735675 -0.2653868 -0.2468677 0.018004017 -0.20320635 -0.14756061 -0.1375447 0.20291047 0.27625033 -0.16800456 -0.0037844416 -0.17295654 0.11643126 0.05355343 0.17784862 -0.09369848 0.17961907
h 0.029307976 0.03469838 0.10137636 0.16650553 -0.34864688 -0.046936378 0.08098591 -0.18014926 -0.10156241 0.0042232946 -0.38216007 -0.17821637 0.34526548 -0.29338044 -0.22560306 -0.26261348 -0.16836564 0.040522747 -0.12019206 0.0642946 0.28775853 0.19193174 -0.2645869 -0.31602398 0.20359135 -0.16668017 -0.1877986 0.027373949 0.02153926 0.23441122
q 0.30647793 -0.25901717 -0.20468481 0.5101782 0.028651655 0.100128226 -0.3876061 0.2546361 0.35573 0.304038 -0.17747267 0.1289139 -0.15552406 0.3606902 -0.43809196 -0.15158892 -0.043923598 -0.49936086 -0.3214815 0.03285619 0.026525244 -0.069166966 -0.402167 0.24004713 -0.08299228 0.15353909 -0.09546197 -0.08392196 -0.18103431 0.32217768
j 0.101867154 0.23869622 -0.12153718 0.0015765566 -0.14295672 0.13023083 0.20286019 -0.056525156 -0.2930452 0.61475396 -0.21836269 0.080510244 0.13786435 -0.16159827 0.046609167 -0.21311025 -0.3698484 -0.28046638 0.062175844 0.19887467 0.38124132 -0.3364339 -0.18936196 -0.7407 -0.043161996 -0.013398471 0.53166354 -0.087847196 -0.07259061 -0.03383797
X -0.017101027 0.16078293 0.07694236 -0.0029311557 -0.16362168 0.23467733 0.077178486 -0.06424035 0.03806214 0.034385934 -0.40405124 -0.2664155 0.47608915 -0.2735295 -0.02886854 -0.24032097 -0.16592164 -0.044273518 0.08004381 -0.24760097 0.23174009 0.090142585 -0.3321009 -0.29137447 0.108317494 -0.32200262 -0.08279531 0.1842904 -0.018499723 0.18602332
c -0.25772488 0.5381149 -0.04446357 0.067540936 -0.03492962 0.30406478 -0.06683196 0.042441007 -0.13230714 0.3076457 0.5949395 -0.06619663 -0.27863836 0.58945245 0.40178242 0.33502027 -0.42762893 -0.20367812 0.026864255 0.072586186 0.4758394 0.43241498 0.06085852 0.41468772 -0.11583299 -0.33084506 0.07256298 -0.038578708 0.12076568 -0.102692954
g -0.114779584 0.0059547364 -0.05654342 0.5676342 -0.521802 -0.046887178 -0.14570107 -0.012806617 -0.067417674 0.09737437 -0.11366495 0.0039662635 0.36315313 -0.28946966 -0.23807631 -0.20370837 -0.27978528 0.049567513 0.04188644 -0.13455468 0.17609237 0.02519112 0.007963162 -0.6587564 -0.005781288 0.03352132 0.2993831 0.14482722 0.2165073 -0.12610349
N 0.26340327 0.07388621 0.1655618 -0.159245 -0.217354 0.47005013 0.10381462 -0.045387972 0.057272032 0.02626759 -0.30693343 -0.16216885 0.13645972 -0.21286267 0.25070375 0.12342585 -0.62639534 -0.02939184 0.14221388 -0.48698762 0.06909679 0.22111808 0.17822555 -0.087377414 -0.50475985 0.13783158 -0.08356509 0.11613922 -0.05933505 0.41445073
U 0.28063607 -0.34493613 -0.05151935 0.33165833 0.03796613 0.20152079 -0.3607992 0.4126398 0.050913993 -0.10241466 -0.05444584 -0.0020030036 -0.16558698 -0.02556887 -0.2827288 -0.28660008 0.14293353 -0.15879042 -0.21958773 0.070488125 0.037508354 0.27716658 0.2624069 -0.0980078 -0.15871434 -0.012548158 0.28842604 -0.0900297 -0.016046455 -0.018590428
W 0.10038425 -0.16697462 0.12244378 -0.08277281 -0.14113134 0.057323106 0.32632396 -0.25416598 -0.11006831 0.03708494 -0.12855947 -0.18042594 0.059607685 0.08895966 0.10543952 0.13951023 -0.28643224 -0.03840961 0.0068022683 0.02493364 0.12912986 0.28067034 0.06902016 -0.061375525 -0.1096636 -0.13007598 -0.112461664 0.19170216 -0.21150291 0.25974026
t 0.27567202 0.17693692 0.49561024 0.6383774 -0.09529252 0.62385845 -0.3493127 0.11478994 0.07609318 0.15582706 -0.30118904 -0.35074914 0.33178437 -0.0766487 0.14201699 0.4670755 -0.54452133 -0.0632078 0.04733091 -0.43596727 -0.29873314 -0.22308066 0.13523017 -0.079512455 -0.51935613 0.38367212 -0.11996084 -0.45421562 0.0975573 0.18249604
b -0.067211255 -0.4622101 -0.565641 -0.00018331921 -0.6589298 -0.2816705 -0.16838972 -0.5112345 0.73181176 0.2623523 -0.3793121 0.1596901 -0.064623676 -0.2562401 -0.024907222 -0.47574055 -0.25657004 -0.5208353 -0.23932481 -0.00715237 -0.21927369 0.49645957 0.36388734 -0.35860986 -0.19939171 0.30468452 0.17101063 0.17025383 0.29124534 0.13536195
ai 0.23383246 -0.16756569 0.014804988 0.12737729 0.032936163 0.35091072 -0.13238528 0.5587426 0.09335394 0.29057375 -0.27409884 -0.15212572 -0.10533889 -0.07906487 -0.1997464 -0.2857343 0.16637895 -0.16238071 0.042125646 -0.15489429 0.29978898 0.28219882 -0.029031456 0.06873681 -0.09048204 -0.16524333 0.26654366 0.31053203 -0.18937594 0.0540524
G 0.08339073 0.08547129 -0.19316928 0.26418796 -0.17627877 0.07540889 0.018195895 -0.22300017 -0.027183607 0.05523093 -0.04294629 0.05446995 0.3504959 -0.23498681 -0.080553144 -0.16285622 -0.4011941 0.17626214 0.38628268 -0.059188355 0.11658127 0.09185341 -0.14265077 -0.27083674 0.08932444 -0.023933146 0.0076470054 0.2669492 0.07268061 0.09898709
F -0.16668934 0.4157095 -0.028349685 0.41272897 -0.22075832 0.13050842 0.23322925 0.16614838 -0.4941797 0.63822436 0.7914355 0.25505516 -0.54400116 0.2191326 0.07401981 0.17465921 -0.34490138 0.21558994 0.1324285 0.43525198 0.58737624 -0.043774623 -0.13315834 -0.58559686 -0.6282467 0.36153546 0.43501705 0.15778154 -0.07637091 -0.07193764
C -0.4242794 0.41252196 -0.4695274 0.09448252 -0.18868396 0.16996415 0.060221788 0.26292437 -0.28522706 0.33821034 0.7785138 0.15485527 -0.2509359 0.2796857 0.52680176 0.09803294 -0.39427012 -0.059613492 0.2281441 -0.2671262 0.63830256 0.24186079 -0.43051326 -0.045951262 -0.595566 0.33472195 0.12139337 0.4390213 0.042906966 -0.013881354
au 0.030995352 -0.17731886 -0.041917827 0.15821122 -0.020200813 0.14907855 -0.22814567 0.24759169 0.14022966 0.23236398 -0.062611245 -0.059221637 -0.09608804 0.23573183 -0.17128201 -0.1785861 0.13970637 -0.43935266 -0.21915266 0.018618952 0.18220551 0.12047526 -0.17227738 -0.008212844 -0.088175826 -0.1630869 0.1464228 0.08482172 -0.12806119 0.14018343
L 0.13359529 -0.20239519 -0.10710116 0.0756444 -0.37530616 0.060061317 0.07946201 -0.429719 0.1442495 0.25126627 -0.41762054 0.011716581 0.38981736 -0.15489773 -0.023676276 -0.15638673 -0.55716413 -0.25765333 0.08606308 -0.16923565 -0.040307537 0.1672701 -0.035143964 -0.26921418 -0.17906702 0.04742571 -0.10383013 0.055655584 0.0258039 0.49526298
l -0.03297303 0.045408323 -0.114960365 0.20172237 -0.29531032 0.1008663 0.06144588 -0.28245512 0.10813579 0.29146302 0.016147753 -0.13841397 0.19654691 0.32775584 0.059451327 0.13199918 -0.59176344 -0.41293132 -0.27409106 -0.1313582 0.30293885 0.23006497 -0.24148667 0.032630213 -0.2091912 -0.014545911 -0.17186321 0.10652602 -0.1128131 0.35313368
f -0.14515817 0.023390481 0.09236099 -0.034123402 -0.4014323 0.20575489 -0.0822105 0.30145532 0.14060062 0.19404487 0.022701506 -0.015267413 -0.07728912 0.3987851 0.27123618 -0.071805656 -0.15687789 -0.31915438 -0.26449502 -0.29048344 0.33166614 -0.21148975 -0.19084555 -0.3108373 -0.41546673 -0.13521683 0.25761658 0.024159895 0.04252603 0.16517748
K 0.012769514 -0.027307283 0.078012995 0.037630066 -0.012481121 0.07241986 0.06662596 -0.10467143 -0.12065909 0.043363698 -0.04066229 -0.08315215 0.17663866 0.10829769 -0.04058163 -0.06077412 -0.013342258 -0.07390472 0.0118152 0.10774783 0.027597547 0.039545532 -0.06653347 -0.20147862 0.07977234 -0.27449724 0.011291166 0.0724154 -0.046135858 0.13862722
d 0.079671055 -0.13353778 -0.022605684 0.22249164 -0.2253642 0.16413392 -0.09430122 0.0012643316 0.09455738 0.20942484 -0.17127939 -0.056005735 0.21054792 0.04126445 -0.09063595 -0.12492083 -0.28047678 -0.24270862 -0.057007387 -0.18630828 0.097125135 0.06519555 -0.113122046 -0.16122764 -0.18802656 -0.00081309554 0.049353093 0.01642922 -0.056700595 0.27672812
P 0.015266401 0.04135107 -0.06857076 0.08422627 -0.11445597 0.09425177 -0.032557383 -0.032522403 -0.007139975 0.13117035 0.013752829 -0.04928443 0.048846107 0.049628984 0.012262604 -0.014420293 -0.16465676 -0.17761438 -0.081258915 -0.008670961 0.1488006 0.1460248 -0.06497901 -0.06734402 -0.08055019 -0.0056400164 0.019280976 0.08855905 -0.043139786 0.118570454
O -0.008050195 -0.0009849749 0.0031588222 0.0062547065 -0.0053276476 0.0032683546 -0.0043472406 0.0038236724 -0.008532866 -0.00017211324 0.011704537 0.0057359897 -0.0069063 0.024410782 0.012593072 -0.010224683 -0.021114638 -0.030085146 -0.0049479823 -0.009522954 0.013737514 0.0014312667 0.0021254981 0.009621395 0.0030206037 0.015566803 -0.0137447035 0.02127609 -0.006756992 0.008324359
J -0.0016629738 -0.0072463104 0.012107168 0.026374022 -0.027987534 0.025799755 -0.016483368 0.00733327 -0.004628912 0.003151469 -0.002962787 5.4378877e-05 0.0024672772 0.031193944 0.005969191 -0.014934753 -0.020341568 -0.009181834 -0.01435607 -0.018771257 0.0054980945 0.01900016 -0.0018834493 -0.03601654 -0.013474419 0.005307558 -0.012132581 0.0032443951 0.005618862 0.037040837
