70 30
# 0.18370746 0.25572938 -0.56993115 0.3940729 0.5149444 0.33174616 -0.043057173 0.5257999 -0.55940664 0.09279717 -0.400575 -0.011137227 -0.17413288 -0.4398381 -0.049387608 0.3105642 0.051615383 -0.17698543 0.30603772 0.20420384 -0.17650394 0.17690653 0.16405626 -0.014886241 -0.30456588 0.10979594 0.7696041 -0.8525395 0.19720568 -0.15355079
AH0 0.09785114 0.27031144 -0.13090229 0.08785072 -0.03931167 0.063737676 -0.18623772 0.5891922 -0.11336573 0.16838156 -0.04598245 0.38187262 0.0019845222 -0.1414356 -0.46146533 0.28493306 -0.062341236 0.12225553 0.4650385 -0.21131563 -0.2423883 0.4057893 0.0014596197 0.1395111 -0.15148026 -0.262003 0.19230865 0.099765666 0.02755343 -0.61424816
N -0.12267565 0.040044714 0.20369577 0.077316016 0.38473552 0.27551234 0.22163662 0.0023472894 -0.30260506 -0.35368356 0.19711107 -0.09989025 0.2181387 -0.03555382 -0.080623224 -0.04623043 0.21360902 -0.40083763 0.1927814 -0.22916107 -0.3782957 0.4969811 0.24227825 -0.16595557 -0.1384529 -0.33602 0.5127589 -0.28235218 0.26167524 0.12237983
S 0.32851353 -0.3719648 -0.013961504 -0.03908153 0.17863928 0.22247368 -0.059867725 -0.22531575 0.16437094 0.07222788 -0.014098314 0.2529477 0.13629222 -0.47380155 -0.028150072 0.28260544 0.46977276 0.0794694 0.11079745 0.18551078 -0.37191862 0.4257763 0.34753495 0.0012037125 0.15274243 0.09081033 0.2321286 -0.3438319 -0.29917625 0.10366568
L -0.5325046 0.11159101 0.120963134 -0.18663284 0.36277938 0.12686075 0.082723886 0.25060728 -0.3241532 -0.05683453 0.41014466 0.17563696 -0.1967005 -0.056413926 0.34290275 0.17613283 0.3453746 -0.1532333 -0.12044441 -0.30903667 -0.5073123 0.13928884 0.40782875 -0.045951985 0.37512723 -0.07637929 0.35030338 -0.40558308 -0.009007674 0.12611997
T -0.1767887 -0.22476435 0.22520062 -0.21472792 0.08308337 0.47702768 0.17086227 0.45960912 -0.2399446 -0.2998294 0.10642932 -0.03295108 -0.42555088 0.099154115 0.09930166 0.12198915 -0.08790688 0.009191808 0.1279757 -0.1845107 -0.11804392 0.028238403 0.13961206 0.54311305 -0.2842546 0.41016346 0.499527 -0.32395923 -0.1698381 -0.03303878
R -0.2046754 -0.1732351 0.26582474 0.21882118 0.529719 0.25379008 0.1537213 -0.070710965 -0.06063226 -0.01270943 0.06835154 0.46398285 -0.20432924 0.05096983 0.40505955 0.587981 0.52959067 -0.490264 0.26816878 -0.08374222 0.16750474 -0.08017348 0.5714629 0.10001 0.65097743 -0.43990356 0.18769877 -0.25129047 0.026692532 -0.28953943
K 0.10377 -0.29136592 0.30675164 0.09720317 -0.18283696 0.7217682 0.3117642 0.0823019 -0.11823692 -0.014697284 0.19005357 -0.34936208 -0.0013596064 -0.29986742 0.18772559 0.54454684 -0.06862193 -0.113000646 0.087825924 -0.04117376 0.04600341 0.17847651 0.6181554 0.22894818 -0.26642185 0.17237839 0.2691947 0.20578453 0.16830884 0.035091337
D 0.18714365 0.0134845255 0.26425305 -0.50619733 0.34176463 0.29070097 -0.12702715 0.22578757 -0.06828158 -0.20642804 0.023431093 0.04862693 -0.16408406 -0.10065866 0.01725177 0.49155962 0.2444705 -0.005690777 -0.14047666 -0.24143794 0.102423295 0.22666775 0.15476373 0.057827633 -0.041900553 0.2937647 0.3731835 0.058465883 -0.2647648 -0.07070092
IH0 -0.17708018 0.42388365 -0.035784453 0.104058504 -0.23853986 0.36044762 0.33800647 -0.08076529 -0.37404892 0.4723959 -0.059979267 0.08931618 -0.001108252 0.0028835584 -0.18200615 0.09494671 -0.49091256 0.27980742 0.5060399 0.049706005 -0.58842504 0.11308577 -0.091591775 -0.028050013 0.23096463 -0.1518715 0.42737898 -0.23251708 -0.66679835 -0.24659187
M 0.12702616 0.025943957 0.017421393 -0.0075492137 -0.026176667 0.5315056 0.09195352 0.029004639 0.057959717 -0.48086572 0.08559546 0.21948688 -0.11407817 -0.11124523 0.27953488 0.41187796 0.3502569 -0.12818572 -0.3452989 -0.041349977 -0.31942615 0.366616 0.029926542 0.25901794 -0.05409677 -0.22811516 -0.10822167 -0.44839075 0.07312153 0.054941256
Z -0.01947462 0.042066842 0.26050273 -0.074249 0.61140454 -0.32435244 0.2836854 0.34954825 -0.42363232 -0.049186945 0.35750288 0.28772405 -0.05184375 -0.33200225 -0.57983243 0.34364846 0.19936138 -0.10052493 -0.29580295 -0.45349413 -0.24044494 0.13096464 0.09120938 0.17439888 -0.2902847 0.28225362 0.36849537 -0.12926997 -0.2308149 -0.119544744
ER0 0.0034343358 0.33608595 0.19919972 -0.045644403 0.20236166 0.5002846 -0.1999161 0.33647266 -0.19621092 0.20461603 0.15437987 0.7126324 -0.06547748 -0.023331162 0.01879022 0.09382659 -0.18653889 0.031521723 0.38129583 -0.122591354 -0.22424276 0.36088437 -0.3787763 -0.27330884 0.40373805 -0.22673355 0.6817494 0.25164646 -0.13805762 -0.40444937
IY0 -0.14866483 -0.13363193 -0.041446567 -0.055030473 0.06901244 0.46119145 -0.03002898 0.08637242 -0.40893552 -0.1568205 -0.54086936 0.014055434 0.20555738 0.30911642 -0.26956937 0.44459158 -0.3469582 0.09291736 -0.056450907 0.1911689 -0.075245716 0.45302337 0.13990685 -0.09831825 0.0018170987 -0.33516178 0.093087 -0.30759236 -0.32361895 -0.116619974
B 0.1875364 0.2734668 0.24760632 -0.064313166 0.28258622 0.22472835 0.33057138 0.12525849 -0.09453489 -0.37797496 0.3890787 0.10368907 0.21090156 -0.028816381 -0.009906319 0.28181964 0.19427028 -0.36586574 -0.2750784 0.18219502 0.07183617 0.34984758 0.2031083 0.07977752 -0.51099765 -0.19266655 0.20556563 0.15102686 -0.48424736 0.055812713
EH1 -0.13126335 -0.45578495 0.33994532 -0.19949242 0.21081181 0.4478854 0.23762414 0.18296517 0.12943874 0.3435162 -0.53213835 -0.070599295 0.34403828 -0.20514527 -0.49933186 -0.546439 0.47179165 0.45044968 -0.2344686 -0.28980133 -0.041461226 -0.7116922 -0.08458822 -0.03882874 -0.22704916 -0.20934606 0.10356046 -0.12952185 0.21713653 -0.3045009
P 0.08992746 -0.17252392 0.34687778 -0.049486503 -0.10844403 0.4691769 0.2103418 0.09048456 -0.074140355 -0.37963462 0.41991118 -0.13614917 0.014646003 -0.0073681134 -0.24001937 -0.041404076 0.0952396 -0.1986586 0.28422183 0.088533916 -0.080719255 0.32827777 0.5705335 0.09021105 -0.51488733 -0.18127155 0.308966 -0.11389111 -0.33358777 0.16457912
AA1 -0.23031226 -0.34987116 0.18292107 -0.15095875 0.34676546 0.5180362 0.19548863 0.345514 0.27947038 0.25557223 -0.4492895 -0.029743865 0.61362743 -0.15101734 -0.31139445 -0.7630526 0.5228885 0.18652721 -0.38667753 0.0014322178 -0.1627462 -1.0998024 -0.07143651 0.13186063 -0.1779615 -0.29145628 -0.064024456 -0.24203412 0.18521984 -0.40228438
AE1 -0.3038896 -0.23571575 0.41733515 -0.13274394 0.02298084 0.2596748 0.42041442 0.27341074 0.26019168 0.7173593 -0.19357838 0.03688311 0.42264822 -0.16714823 -0.47853518 -0.5708578 0.7522364 0.36541536 -0.28541452 0.0898431 0.116698645 -0.95180583 -0.42810094 0.00137397 -0.057814226 -0.37461704 0.07654985 -0.31328636 0.03836923 -0.49804258
IH1 -0.21844351 -0.23748371 0.42844778 -0.13074829 0.19807702 0.43965966 0.5430752 0.16974181 0.42041034 0.75422055 -0.47625962 -0.2797132 0.57311183 -0.14599498 -0.14514619 -0.7217847 0.27733377 0.41432652 -0.04822192 -0.20113489 -0.020211097 -0.93367517 -0.3456998 0.17852636 -0.13456744 -0.36809245 0.2160547 -0.099733666 0.23055948 -0.41387883
F 0.2109558 0.056631245 0.16014111 -0.03365743 0.28734726 0.25350416 0.17563878 -0.099375024 -0.015567155 -0.17883532 0.2796038 0.2843899 -0.08635397 0.009639408 0.043374978 0.36387247 0.31702068 -0.08335952 0.29542896 -0.15265979 0.13325822 0.17983435 0.23433189 0.45547014 -0.66780764 -0.29989663 -0.14038254 -0.039411347 -0.44415393 0.06812865
G 0.028359039 0.2638545 0.047219377 -0.23125207 0.32212457 0.60112303 0.28595743 -0.0039657773 -0.38392285 0.0054892483 0.3556071 -0.28542498 0.077743836 -0.30450785 0.21386607 0.5896106 -0.08369561 -0.22954361 -0.5620123 -0.046096537 0.09908268 0.15397716 0.24429204 -0.022074845 -0.25155297 0.30518365 -0.041451503 0.16987409 -0.24136181 -0.06024876
V 0.32646573 -0.054086827 0.24683863 -0.21522142 0.00439083 0.18211675 0.41801822 -0.026032249 0.17578685 -0.870751 0.21616548 0.24721406 0.026360625 -0.3067722 -0.07609788 0.46837318 0.01400833 -0.05086175 -0.19247943 -0.26546046 -0.39044794 -0.0077227564 -0.08676164 -0.110432066 -0.35248753 -0.022076624 0.4486321 -0.2382079 -0.27803835 0.24503887
IY1 -0.19961621 -0.22989446 0.31718838 -0.16121359 0.5506211 0.51679504 0.18627582 0.095487446 0.06681895 -0.107422926 -0.7148314 0.12201886 0.35555053 0.1207167 -0.31095678 -0.44113886 0.22980943 0.14115112 -0.3358929 -0.47124493 -0.08138437 -0.6265583 0.2026047 -0.085280955 0.015640708 -0.2631139 0.0047695404 -0.18080562 0.05863268 -0.26042467
NG 0.10199011 -0.37237704 0.14389487 -0.6897981 0.47443947 -0.18428493 -0.3748475 0.0734256 -0.07950588 0.15921839 0.16694385 0.15029559 0.0005451251 -0.24928539 0.64267796 0.62289846 -0.09736918 0.24959765 0.3766241 0.3075741 0.112013005 -0.043917514 -0.33101568 -0.15875751 -0.4804254 -0.3955679 0.8401643 -0.35999715 -0.11494314 0.18395886
HH 0.23233375 0.13435195 0.30129948 -0.09189133 0.31200033 0.40576106 0.26900738 -0.22176681 -0.11053693 -0.24420373 0.42324227 0.538459 0.028649649 -0.49113443 0.31550506 -0.026647715 -0.107508846 -0.18791306 -0.17927253 0.10800875 0.38557988 0.4931588 0.51212424 0.3148449 -0.05892442 0.004812828 0.3316521 0.4515865 -0.10979855 -0.28004453
EY1 -0.15490647 -0.062400706 0.2934144 -0.42663497 0.4004888 0.14433588 0.35939786 0.3789589 0.31121558 0.23122095 -0.4173941 -0.40198657 0.18710077 -0.29491222 -0.52821255 -0.36358383 0.4431978 0.20577547 -0.2389728 -0.58505917 -0.08496658 -0.3892331 0.011552949 0.030288285 -0.10299736 -0.6593491 -0.034992676 -0.0033051907 0.3632386 -0.66486555
W -0.2347925 0.38392428 -0.006436838 -0.24784446 -0.16158207 0.20792289 0.4312925 -0.23062678 0.09385939 -0.6957395 0.1229044 0.68296415 -0.14847787 -0.007132122 0.047160868 0.48719072 0.6100714 -0.1296735 0.565855 -0.1690914 0.54763407 0.06562328 0.012078287 0.088609375 -0.27063984 -0.43801317 0.081190996 -0.27429342 -0.5999286 -0.009932369
SH 0.2875942 0.46247625 0.20371634 -0.37860203 0.13678631 0.3093325 -0.232511 0.106145725 0.5391115 -0.22893208 0.14570564 -0.15879537 0.14111681 -0.23344734 0.070682146 0.3952439 0.08891596 -0.35378197 -0.12758401 -0.16994378 0.12070679 0.3536866 -0.075923316 0.26964733 0.34073547 0.62479275 0.12011594 -0.55946183 -0.2023133 -0.29685435
OW1 -0.28028148 -0.28795972 0.17932427 -0.21952151 0.45908776 0.26493484 0.39058673 0.4821759 0.2735627 0.08392684 -0.5053597 -0.10763711 0.29957977 -0.16216902 -0.3613256 -0.525035 0.5316194 -0.013313754 -0.44520202 -0.027757863 -0.016647104 -0.9637356 -0.29958594 -0.30876777 -0.06588202 -0.32060018 0.12976493 0.0986829 0.057857346 -0.5638564
OW0 0.09191863 0.17702654 -0.5183005 0.005688203 0.24649106 0.38029796 -0.23601383 0.1909553 -0.18717985 -0.37126973 -0.14392745 0.4504542 -0.04164204 0.0947179 -0.2010082 0.17909877 -0.09419912 -0.33571392 0.05119856 -0.005173058 -0.4789206 -0.40310884 0.3416662 -0.118147746 -0.040627502 -0.18511142 0.07755409 0.14700525 -0.38323057 -0.41272303
AO1 -0.03137162 -0.026841087 0.01666788 -0.42944658 0.32472467 0.90403545 0.039631605 0.0033873168 0.12347356 0.75163025 -0.12838507 -0.123768516 0.46674025 -0.17951776 0.07528945 -0.79160756 0.5247562 0.482941 -0.07979361 -0.27166522 -0.077775285 -0.78660005 -0.33007935 0.18275844 -0.39848068 -0.20868427 -0.07555219 -0.16701972 0.044086713 -0.18758108
AY1 -0.1667571 -0.076754995 0.3094814 -0.42816353 0.43638837 0.63526803 0.33928195 0.012366957 0.19997436 0.3200024 -0.6882856 -0.15772161 -0.038267296 -0.047875818 -0.09586541 -0.8420203 0.5258168 0.37444225 -0.27725258 -0.11733815 0.15840803 -0.23727344 -0.44333148 -0.28004047 -0.18619671 -0.0016028458 0.21290101 0.11328987 0.030234898 -0.51060504
AH1 -0.38508993 -0.22815391 0.27189407 -0.12081227 -0.12959483 0.19682558 0.5325636 0.24663101 -0.022247378 0.93250024 -0.13794348 0.14521739 0.22464621 -0.1970847 -0.29044372 -0.51781744 0.6477148 0.46634442 -0.12794082 0.12644579 0.17537685 -0.7791544 -0.55262655 -0.11749868 -0.15171848 -0.44428948 0.16331583 -0.048789658 -0.08650327 -0.47422385
UW1 -0.016083213 -0.19773427 0.34057516 0.17339543 -0.07637286 0.52163553 0.43429872 0.6224973 0.057333823 0.15788788 -0.07902815 -0.010587643 0.60038894 -0.3511646 -0.01073921 -0.20645827 0.2986096 0.3343976 -0.42032275 -0.15673064 -0.15151045 -1.0478452 -0.3497726 -0.22197422 -0.28050956 -0.71400857 -0.13813552 -0.16702445 0.45596856 -0.3762036
JH 0.3575453 -0.035911307 0.22151615 -0.24563235 -0.037598398 0.09997816 -0.0030049498 0.111819394 0.32678422 -0.15925865 0.15504251 -0.10418639 0.09628896 -0.026487494 0.14702123 0.5412948 0.10464149 -0.19563493 -0.23037674 -0.25210035 -0.49781242 0.07428641 0.14643164 0.22772965 -0.08045128 0.30544233 0.26562917 -0.11075985 -0.19453797 0.08419075
Y 0.011011383 0.40756616 0.13334098 -0.16076772 -0.39360467 -0.1615785 -0.05748697 0.4166883 0.4434799 0.1486054 -0.16746311 -0.34988853 0.32724342 0.6925665 0.25299266 0.42787242 0.58847344 -0.7907138 -0.732595 0.7366335 -0.04741981 0.15214075 0.50231755 0.6270901 0.025758915 -0.22964817 0.44214928 -0.36735702 -0.39907804 -0.5657856
AA0 0.17714614 0.17389378 -0.44618037 0.20820107 0.11384625 0.06252957 -0.39835423 0.040410794 -0.058177713 -0.30513918 -0.57981807 0.44743076 0.37228692 0.12990116 -0.15177104 0.018312981 -0.32703292 -0.3693796 -0.24887732 0.16181317 0.123318814 -0.89529836 0.89891773 0.0687363 0.16155325 0.07209889 0.10718453 0.108337894 -0.12072014 -0.12535703
CH 0.16808437 -0.15711528 -0.119734995 -0.3538316 -0.062529035 0.11515009 0.14314507 0.12718725 0.18608777 -0.2071049 -0.21458127 -0.1961743 -0.03038053 -0.14420746 0.3718888 0.2922136 0.20345514 -0.18787977 -0.24731298 0.05033724 -0.65250605 0.124860555 0.50014275 -0.0044110403 -0.08647265 0.5074437 0.45313472 0.086549476 -0.45973316 -0.123274215
ER1 -0.60013676 -0.31235114 0.63788885 -0.068311974 -0.10423821 0.23457283 0.4794204 0.32937613 0.29860267 0.6120327 -0.42170873 0.25744626 0.5124958 -0.21968213 0.11503013 -0.6861815 0.661183 0.26694295 -0.24158448 -0.16549921 0.051817644 -0.81904244 -0.41573882 -0.04830774 0.29579154 -0.3556286 0.64323235 -0.13246179 0.62172526 -0.40763894
IH2 -0.08130661 0.24804306 0.2594316 0.008699814 -0.5083925 -0.21294619 -0.0901995 0.18708855 -0.1157425 0.27665532 -0.37469274 -0.01671723 0.343029 -0.085690714 -0.30759907 0.058920506 -0.24427553 0.35921526 0.005816273 -0.19240947 0.17098708 0.32515574 0.45496243 0.12221945 0.27759454 -0.17780244 0.17540748 -0.19124016 0.11628507 -0.06744561
EH2 0.03708711 0.121169284 -0.16432846 0.17160657 -0.12281062 -0.2201298 -0.38723743 0.06339223 -0.16578473 0.1449042 -0.5972614 0.08532814 0.3703175 -0.08431499 -0.2020727 -0.21426618 0.008687347 0.10306281 0.02679531 -0.3103773 -0.039240073 -0.034964114 0.30819193 0.025607554 -0.06530385 0.12032174 0.20930019 -0.28758883 0.15479851 0.3847102
EY2 0.39751354 0.35618088 0.0464786 0.34999675 -0.082527794 -1.0154206 0.065340586 -0.101362504 -0.00029031115 0.6933346 -0.29585433 -0.2141462 0.459094 -0.29138872 0.28371853 0.07365076 -0.2780321 0.30505794 0.059285615 -0.2480539 -0.55843806 -0.11332291 0.20784791 -0.3197089 -0.28690812 -0.13087216 0.51790756 -0.1630176 -0.05953816 0.5254937
AE2 -0.1819021 0.41798458 -0.080160685 0.30671296 -0.27760324 -0.4698528 -0.14682546 0.23256664 -0.2666288 0.4159574 -0.15987787 0.13742921 0.28014928 -0.11381622 -0.2570996 -0.057431813 -0.08158182 0.061645914 -0.03003289 -0.0986835 0.09582213 -0.20057467 0.20525223 -0.121371314 0.24284972 0.07837396 0.1894345 -0.28990975 0.05578596 0.20977883
AY2 0.36851767 0.60381025 0.23159227 0.25311154 0.12189607 -0.34666923 0.010746366 -0.0835533 -0.4941691 0.46109384 -0.5323879 -0.3521123 0.18775666 0.27254438 0.076993115 0.3030963 -0.19609262 0.38631022 -0.24628946 -0.18637766 0.38750413 0.19756956 -0.2538591 -0.49698493 0.12360212 -0.0684313 0.18825868 -0.36348292 0.1981671 0.2433613
AA2 -0.06856642 0.41252765 -0.24402268 0.14162229 -0.15796876 -0.34731284 -0.41918415 0.16071598 -0.13414843 0.0395579 -0.29939297 0.34347546 0.28752324 -0.24996226 -0.27711114 -0.32602847 -0.11275764 0.0055484753 -0.10080011 -0.05791491 0.0517995 -0.14940155 0.5326752 0.12766005 0.05186322 -0.09656503 0.1261242 -0.40253118 0.1298878 0.1526189
TH 0.33866584 -0.017408336 -0.008092806 -0.16934948 0.28352386 0.28093594 0.28883353 0.039313473 -0.08783222 0.028779512 0.14217964 -0.09556331 -0.2903977 -0.14329599 0.31988597 0.108096905 0.34948364 -0.11082491 0.026196804 0.005157683 -0.03400013 0.3418715 0.52808225 0.765697 -0.43681347 0.42541742 0.1477189 0.06134776 -0.20272371 -0.28048187
EH0 0.036153816 0.06970243 -0.2156947 0.23093069 -0.08057892 0.18873136 -0.19652213 0.04678324 -0.26981997 -0.20753399 -0.54713213 0.4524753 0.22283365 0.21247098 -0.2171345 0.17149867 -0.39193377 -0.063507594 0.039021373 -0.044411406 -0.0067241695 -0.4343917 0.5430739 -0.0062146247 0.029120972 -0.15382107 0.15541133 0.08729327 -0.0882162 -0.086242
IY2 -0.059537448 -0.009860933 0.031363573 -0.03510639 0.1493397 0.3112389 -0.13771315 -0.082068734 -0.47493973 0.055258755 -0.5201812 0.089057975 0.1423807 0.061188687 -0.2015518 0.28798234 -0.176443 0.21119732 -0.13518223 -0.20646189 0.0242446 0.16050386 0.27144605 -0.07293695 0.1202236 -0.06025595 0.08333491 -0.42919636 -0.053636484 -0.013548067
OW2 0.00921589 0.26686186 -0.21220967 0.1393508 -0.07340889 -0.24140596 -0.21309644 0.20325828 -0.25667778 -0.07286813 -0.56035304 0.051537175 0.05110264 -0.013615554 -0.19189397 0.12938291 -0.087148465 -0.021017449 -0.039571624 -0.09172967 0.13051434 -0.15792635 0.15107757 -0.52736163 0.15015672 -0.103646085 0.30568463 -0.057938073 -0.0017066478 0.18483867
AW1 -0.18615933 0.023108449 0.29917797 -0.199564 -0.039968435 0.27368173 0.5024669 0.010409556 0.18561415 0.6568233 -0.28599197 0.31238738 -0.030594943 -0.20221853 -0.043600783 -0.41799238 0.85301936 0.6287863 -0.18125415 -0.3038595 0.13132116 -0.5564167 -0.6085135 -0.21793048 -0.24991134 -0.2800396 -0.062198877 -0.0565028 -0.13628526 -0.26375628
UW0 0.049472157 0.18547483 -0.027971838 0.32008258 -0.49761415 0.42479172 -0.10348698 0.5019513 -0.22101037 -0.27614444 0.17544208 0.45850772 0.77866673 -0.15778503 -0.14533012 0.59084636 -0.3380524 -0.07169142 0.07308095 -0.17090678 -0.20002899 -0.39761388 0.1562931 0.16015515 -0.04264675 -0.6109158 0.0074085323 -0.07328052 0.2200134 -0.113166854
AO2 0.12895015 0.6766758 -0.4916871 0.10401975 -0.17729004 -0.03355645 -0.5073591 -0.030683288 -0.39953548 0.3457169 -0.36673692 0.076370865 0.4332382 -0.11548095 0.055140134 -0.1644521 -0.041398913 0.19459385 -0.07017515 -0.30377057 0.22132966 -0.02565976 0.13771254 -0.1938201 -0.19085436 0.004120128 0.093989044 -0.2998281 0.08205209 0.61152834
AE0 -0.10425595 0.42559034 -0.17847957 0.14381687 -0.46490812 -0.4104883 -0.25992453 0.2190873 -0.2663252 0.40889293 -0.13492723 0.48638037 0.06734605 -0.0036221459 -0.17272392 0.0054722787 -0.19003965 0.19178292 0.2792338 0.057980772 0.0015602362 -0.2132098 0.24730127 -0.025610385 0.063416004 -0.007216833 0.42974475 0.13302742 -0.22881581 -0.013616915
UH1 -0.11464902 0.07406999 -0.029368956 -0.23582938 0.4050503 0.7722046 0.27158186 0.12702318 0.06775599 0.3635906 -0.00956512 0.0527433 0.7422005 -0.63082546 0.018431354 -0.85752964 0.40929103 0.12765324 -0.503867 -0.16254833 0.16938326 -0.75247127 -0.21611284 0.21740155 -0.5723018 -0.6365981 -0.15894648 -0.06697873 0.44857186 -0.4116266
AO0 0.17777176 0.541584 -0.4898404 -0.03161892 0.14660832 0.50488496 -0.5014272 -0.34160706 -0.4096975 0.38617182 -0.26301736 0.15116337 0.24657376 0.16340259 -0.08363845 -0.09187032 -0.11454076 -0.004339526 0.07166855 -0.06799468 0.2897054 -0.26908937 0.6386413 0.13657105 0.1700085 0.12326006 -0.015437145 -0.0377303 -0.29185775 0.090313435
AY0 0.04804405 0.30208033 -0.11142408 0.06982806 0.058515426 -0.1564485 0.008271331 0.07892072 -0.4610942 0.11362134 -0.39556202 0.17278655 -0.15417498 -0.010881533 -0.18012312 0.11035473 -0.076171026 0.14172722 -0.03544383 -0.06008883 0.1413867 0.33087388 0.13927077 -0.20632061 -0.15501203 -0.07177811 0.19115452 0.17326285 -0.059902053 -0.13956702
UW2 0.10265505 0.34983295 0.13160281 0.38138953 -0.61667967 -0.071311 -0.089210406 0.49032977 -0.23050226 -0.023517394 -0.0029921243 0.10952272 0.599753 -0.26163733 0.008195385 0.2466092 -0.2816999 0.14235567 -0.22377327 -0.1564151 -0.07506668 -0.18114348 0.15083818 -0.07926991 0.010870224 -0.43714654 0.108856894 -0.3411425 0.40395746 0.135937
AH2 0.056302328 0.029729007 -0.01161975 0.14897943 -0.21305215 -0.4292845 -0.08769049 -0.038782388 -0.11878316 0.4311546 -0.38536975 0.22344257 -0.08744401 -0.18080409 -0.09611284 0.06795011 0.03540437 0.3259012 -0.0040188534 -0.071694225 0.092214055 0.0001839574 0.18638346 -0.090857565 0.16242675 0.23428161 0.2994069 -0.22815202 0.03750819 0.12054062
EY0 0.08358464 0.39267802 -0.121755615 0.22875544 0.1584354 -0.09154757 -0.19178152 -0.056652687 -0.27155095 -0.12206721 -0.4515677 0.21331489 0.5139895 0.022833725 -0.0050069783 0.07226998 -0.3039276 -0.25626782 -0.3051544 -0.14544968 -0.13227926 -0.20250909 0.81038964 -0.26733685 0.093230516 -0.35398364 0.22263885 0.06674886 -0.016248515 0.117808916
OY1 -0.16687614 -0.41043654 0.3623395 -0.22498229 0.049817443 0.23972544 0.38995603 0.22384262 0.14455263 0.3263417 -0.5477667 -0.16258356 0.40348145 -0.20602053 -0.34611613 -0.24981457 0.39066768 0.43234527 -0.57356924 -0.17128651 -0.17082573 -0.57589877 -0.4438706 -0.32138795 -0.027694596 -0.31527802 -0.014356972 -0.15600485 0.1044156 -0.34882295
AW2 0.024497746 0.79983765 -0.27348614 0.26089948 -0.48604968 -0.36743683 -0.114374034 0.012137652 -0.42493716 0.4085912 -0.5544917 0.25019076 -0.10292801 0.11482791 0.10130296 0.1630157 0.120214246 0.35396102 0.13138126 0.013078853 0.60134625 0.0072089867 -0.09847895 -0.30973786 -0.24514298 -0.14015448 0.2787448 -0.20380573 -0.07035929 0.3162254
ER2 -0.14639471 0.5279333 -0.021615304 0.1350382 -0.11394502 -0.009987332 -0.15769202 0.14176947 -0.26269338 0.5064383 -0.44318095 0.41303942 0.32679337 -0.28474772 0.30961066 -0.18086135 -0.031518977 0.21351527 -0.006392723 -0.20304939 0.054119293 0.30839136 0.10399454 -0.045511276 0.12395732 -0.06926031 0.6064591 -0.34316334 0.36021596 0.02694256
DH 0.21159352 0.40991735 0.11791074 -0.33887374 0.42844918 0.23369123 0.5076971 0.026569948 -0.24104571 -0.040433493 0.23386478 -0.28100047 -0.33897105 -0.23571578 0.42924064 0.1519184 0.23673506 -0.106074736 -0.31430772 -0.12515602 0.12833095 0.5369472 0.15739758 -0.02109302 -0.5476585 0.30234662 0.29726517 0.21112865 -0.3211027 -0.085360765
ZH 0.14868805 0.34596768 0.23519294 -0.2587184 0.030985927 0.1720737 0.08161806 0.4508188 0.1196775 -0.4650985 0.03376671 -0.12853394 0.14196683 -0.067684606 -0.019112866 0.42300004 -0.042573676 -0.34231862 -0.6443248 -0.21075325 -0.264974 0.26173556 0.2883338 0.28036278 -0.018994765 0.41089422 0.2540545 -0.18772444 -0.12807165 -0.30751544
UH2 -0.12297575 0.89525336 -0.49771252 0.21903516 0.011631313 -0.107284896 -0.22121865 -0.09493668 -0.64622533 0.48825136 -0.42145002 0.3720829 0.29769036 -0.26370543 0.30640703 -0.43064982 -0.26672179 0.11583469 -0.052709695 -0.07785949 0.45081356 -0.051402975 0.15019973 -0.059800435 -0.19661272 -0.034218963 0.3884031 -0.18037356 0.22592428 0.23085529
AW0 0.14546135 0.4729502 -0.38192558 0.09103808 -0.14107685 -0.1952608 -0.21535292 0.00092281884 -0.36159 0.2586073 -0.30017194 0.1848415 0.045684896 -0.14857936 0.11241027 0.07227137 -0.09699241 0.13453993 -0.12806422 0.049090493 0.2549627 0.09397414 0.08432063 -0.16714677 -0.17664048 0.07498379 0.1823595 -0.058416206 -0.010651471 0.1932626
UH0 0.06119732 0.37579423 -0.4096522 0.21258092 -0.03144619 0.30308905 -0.17987251 0.15485604 -0.4183839 -0.07606426 -0.17309618 0.2075701 0.3515572 -0.11064117 -0.13126947 -0.019359143 -0.2299347 -0.10786593 -0.07055918 -0.06979323 0.061622947 -0.19970427 0.46903762 0.14769454 -0.2873549 -0.22060099 0.029317424 -0.05589602 0.07948609 0.009622568
OY2 0.13362117 0.29908895 -0.20407075 0.13603261 -0.12046666 -0.20972161 -0.25515175 -0.0190758 -0.24006094 0.16510053 -0.3572242 0.163662 0.1283395 -0.04381964 -0.034810647 0.04735104 -0.28655636 0.17745306 -0.03311802 -0.03931353 0.013374455 0.1510999 0.09223089 -0.20088618 0.09848023 0.09506382 0.1706611 -0.084166065 -0.03098169 0.12388309
OY0 0.030884722 0.07099821 -0.088245094 0.063119 -0.029102387 -0.113253534 -0.093528986 0.021052497 -0.12423152 -0.03742758 -0.053981796 0.076316565 -0.06593534 0.0021621662 0.024795014 0.15019323 -0.143403 0.008909891 0.046390463 0.020672474 -0.026329247 0.08101579 -0.012514199 -0.11467896 0.109633185 -0.0027173653 0.072057545 0.0041005514 0.044584926 -0.019608133
