37 30
a -0.068716094 -0.096626855 -0.17719615 -0.028013373 0.00016152905 -0.03933133 0.031238219 -0.07827982 -0.07904788 -0.3344154 0.23433638 0.20597473 0.0025636803 0.14766577 -0.015108909 0.41011044 -0.25188324 -0.1952961 -0.47310254 -0.13445383 -0.52533 0.10567291 -0.14396863 0.023150705 0.16864194 0.16077752 -0.05543655 0.47527122 0.6470324 0.33496085
# -0.21320216 -0.26854157 -0.21669766 -0.054374084 -0.11324201 0.0750796 -0.23391576 -0.12858239 0.1667294 -0.33055168 0.3145723 0.019887436 -0.1483065 -0.11014707 -0.13164689 0.21886024 -0.21251068 -0.26202092 -0.12588875 -0.06603257 -0.38510436 -0.16943441 -0.0031226343 0.1347762 -0.10470538 0.32950124 -0.0248029 0.71457916 0.69336647 0.23392206
u 0.009585956 -0.1148534 -0.08529298 0.016460786 -0.17356321 0.06590955 -0.13030067 -0.15121992 -0.01576082 -0.47302777 0.34952503 0.045993023 -0.1025935 0.18435986 -0.1086749 0.47256166 -0.37641937 -0.36113146 -0.3341455 -0.09783402 -0.5287356 -0.0044184723 -0.09341941 -0.064834766 0.11266012 0.16568191 0.011008983 0.41321677 0.5584085 0.21635209
k 0.074841015 0.013556775 0.023182517 -0.076619975 -0.19825695 -0.06008169 0.027024744 0.14246501 -0.11222396 0.0003599179 0.16788413 -0.26372454 -0.08616655 0.27091292 -0.038692493 0.1337917 -0.30924594 -0.41453886 -0.19857563 0.08653249 -0.15969032 0.23681612 0.33092356 0.06806286 0.33964267 -0.06521475 0.08717651 0.5492432 0.43134004 0.09253428
r -0.05898126 -0.02267229 -0.029270029 -0.096122876 -0.2066497 -0.06437722 -0.09883039 0.038394712 -0.11963274 -0.06050159 0.2274318 -0.22922911 -0.15430328 0.1302319 -0.10216546 0.1114997 -0.2784621 -0.38972524 -0.13409522 0.079730555 -0.20233409 0.1311219 0.26594776 0.14712137 0.2043533 0.0035252601 -0.0046024164 0.5941973 0.46540055 0.14659584
i -0.07196466 -0.013832836 -0.03933385 -0.14527605 -0.25439632 0.042595696 -0.21014239 -0.11833228 -0.17904389 -0.21152057 0.28996137 -0.020467568 -0.17341779 0.17984788 -0.08290609 0.24139173 -0.34514984 -0.3105086 -0.42273244 0.075469404 -0.52638495 -0.018238163 -0.035595514 0.05343479 0.17536725 0.22214232 -0.009883255 0.41163483 0.5044731 0.18221857
o -0.27586174 -0.20795162 -0.07338997 0.16625555 0.29841572 -0.39953473 0.2707461 0.33470625 -0.1802514 -0.09216169 0.28567496 0.18044646 0.046761632 -0.23702312 -0.12015379 0.33015797 0.015818771 -0.31190577 -0.19325839 -0.2559842 -0.18438606 0.2178804 0.07574413 0.49087143 -0.10720146 -0.07946186 -0.2975724 0.6934922 0.7609865 0.44778848
e 0.17946456 -0.16771042 -0.32801777 -0.039625753 0.0904956 -0.0027347868 0.09613033 0.28519487 0.25412467 -0.36964417 0.03313165 0.19913763 0.012740531 0.095283605 -0.17372182 0.36870322 -0.004942229 -0.2053652 -0.18708351 -0.12274318 -0.13338144 0.2736709 0.23328833 0.0026284188 0.1705138 0.08224656 -0.019656925 0.81108177 0.68430716 0.25440773
n -0.121435516 -0.024261186 -0.06577945 -0.17602734 -0.23398809 -0.037714098 -0.19216461 -0.051313628 -0.21065597 -0.049063273 0.23313934 -0.25801307 -0.18801193 0.064369805 -0.2195136 0.0691821 -0.28778535 -0.35674664 -0.28062457 0.18575923 -0.24544337 0.13311282 0.25999323 0.18978669 0.17619962 0.052573014 -0.094757766 0.4888968 0.42313313 0.08440594
dz -0.024352081 -0.036213107 -0.0545518 -0.16472504 -0.19899502 -0.03616448 -0.12882261 0.09239254 -0.110963486 0.0027602068 0.15870635 -0.20113826 -0.18129098 0.15500276 -0.14680438 0.035738137 -0.20771842 -0.3490912 -0.19402686 0.107859254 -0.15865044 0.19465794 0.338324 0.13330533 0.2543808 0.026450105 0.031952284 0.6079156 0.44243783 0.10021797
m -0.016179172 0.004510985 0.045664057 -0.048796207 -0.18744834 -0.120277435 -0.045787062 0.1349088 -0.16012695 0.0033016542 0.21542694 -0.22104396 -0.16391578 0.14655723 -0.07617736 0.10683068 -0.25772056 -0.44217494 -0.12309861 0.10593077 -0.1378356 0.14051558 0.27087417 0.17422158 0.19221075 -0.057092518 -0.028027877 0.5232854 0.39791748 0.10903313
d -0.035800096 -0.03459181 -0.11165521 -0.16104934 -0.16805135 -0.102538094 -0.027044589 0.11554916 -0.12034519 0.01605215 0.1297597 -0.15878884 -0.17260899 0.17823663 -0.13561016 0.09396134 -0.15977123 -0.38205093 -0.16018021 0.061074793 -0.09392832 0.20506883 0.29054952 0.14406317 0.2606855 -0.005887532 0.060858525 0.59147596 0.35218096 0.14961462
b 0.0778743 -0.03009096 -0.044424616 -0.010542036 -0.011806225 -0.13288084 0.1151079 0.13113928 -0.18097742 -0.07280021 0.15045354 -0.12403974 -0.050522074 0.18701614 -0.036520157 0.24153441 -0.23382407 -0.34657338 -0.2615936 -0.032739818 -0.19748966 0.30433416 0.2450212 0.100393355 0.29103133 -0.10775308 0.011727934 0.49470603 0.47063848 0.19004959
w 0.19557394 -0.0671944 -0.070575796 -0.09200006 -0.22131717 0.06184796 -0.08760842 0.13081115 0.02787988 -0.26391494 0.13544488 -0.0672515 -0.10954107 0.1707458 -0.16410194 0.2764622 -0.25564048 -0.2909943 -0.20209637 0.07169254 -0.26907077 0.16120072 0.21697497 0.003083051 0.20402472 0.10448145 -0.02159954 0.604744 0.5241665 0.09617376
g -0.0643848 -0.005574355 -0.09330285 -0.10757591 0.06592876 -0.12971549 0.056530856 0.24619558 -0.28346875 0.121197104 0.11074007 -0.029127548 -0.09318965 0.22841166 -0.06533708 0.042098194 -0.010529298 -0.23530705 -0.2629731 -0.121759705 -0.16148265 0.42327648 0.28015113 0.13278157 0.31884572 -0.1063564 0.018609945 0.63893473 0.5877678 0.20615837
t 0.17048131 -0.027763471 -0.026107624 -0.013554694 -0.22466274 -0.09489653 0.06826034 0.095195375 -0.031836484 -0.17939591 0.16993268 -0.16194996 -0.052155074 0.23528577 -0.060799673 0.2520232 -0.336256 -0.4136612 -0.102510564 0.032838263 -0.09370937 0.13838747 0.24869235 0.043838233 0.24048755 -0.079164214 0.039473146 0.576255 0.49336278 0.11337089
f -0.006193633 -0.0029214404 -0.01696459 -0.056804933 -0.16481486 -0.10957426 0.039886985 0.06916613 -0.15821211 -0.082622476 0.2023871 -0.13058802 -0.08522374 0.21321751 -0.08353219 0.18151854 -0.2652083 -0.39375752 -0.2407307 0.020943638 -0.16859043 0.17532456 0.19800738 0.091687515 0.23687734 -0.035665408 0.013720289 0.45518157 0.38731867 0.14645433
y -0.12656225 0.01582542 -0.108611025 -0.15382297 -0.16613191 -0.083995946 -0.018008973 0.05882712 -0.22491007 0.07798319 0.1618806 -0.06588636 -0.2044269 0.21035722 -0.12115689 0.11371977 -0.1690866 -0.37704736 -0.2743652 0.0017911966 -0.18770789 0.1747603 0.20179689 0.17469935 0.2691225 0.0315031 0.09432642 0.5386962 0.36394227 0.18504739
ch 0.026706703 0.047289945 -0.029502133 -0.15113704 -0.19792694 -0.07243798 -0.0070713405 0.1011288 -0.11828022 0.0308574 0.14254795 -0.19657564 -0.15095635 0.22773522 -0.12336151 0.06248927 -0.20291115 -0.3549014 -0.2239307 0.16340165 -0.16101947 0.20161855 0.30703914 0.0800008 0.29602113 -0.029629514 0.03004847 0.55604374 0.38567463 0.0870858
h 0.033662204 0.0024508513 -0.03856968 -0.08142095 -0.1838457 -0.03306965 -0.016341433 0.055683643 -0.17440447 -0.05309048 0.17261203 -0.12741427 -0.083301485 0.22304203 -0.049488623 0.18274431 -0.28920242 -0.3132805 -0.31424072 0.052296497 -0.27921572 0.17631882 0.16780938 0.08010723 0.2789899 0.017024789 0.022590112 0.49235213 0.42996955 0.15765251
N -0.1682209 -0.061316732 -0.046742056 -0.18483214 -0.24924293 -0.19547832 -0.3167012 0.011273577 -0.12724805 -0.08206189 0.25045085 -0.18681872 -0.34565783 -0.11616173 -0.23023534 -0.05436316 -0.12460857 -0.3417659 -0.14224274 0.26533782 -0.16476797 0.011115824 0.363484 0.21886033 0.046537608 0.18669699 -0.10741272 0.63044584 0.40714443 0.18593483
s 0.024058912 -0.030880617 0.016614553 -0.062160254 -0.18031952 -0.055699546 -0.077298746 0.0928432 -0.031835187 -0.09853469 0.18071565 -0.1951602 -0.08745967 0.15911333 -0.076511875 0.14479654 -0.28478792 -0.34524015 -0.16175254 0.10984684 -0.14162149 0.101192676 0.26789087 0.064834915 0.21236572 0.03859749 0.050051488 0.55480105 0.45963064 0.15101412
bv -0.043111313 0.013209733 -0.030433003 -0.08464412 -0.16136706 -0.07720716 0.0027794023 0.03588747 -0.1754583 -0.020371249 0.20752795 -0.18413968 -0.1378698 0.22659177 -0.09385856 0.15092406 -0.24622299 -0.38325742 -0.19832467 0.03638159 -0.19725418 0.21422504 0.22398396 0.07073558 0.28535038 -0.07153328 0.04965605 0.46708843 0.38679266 0.124144234
j -0.07070442 -0.013821265 -0.046021506 -0.095191605 -0.1604635 -0.06583131 -0.055671904 0.027047884 -0.18120798 -0.0136086885 0.21068482 -0.15541978 -0.16666168 0.16257635 -0.13141306 0.12693079 -0.21910363 -0.3794551 -0.19935673 0.08983221 -0.19083709 0.1931131 0.25542286 0.11973132 0.26332295 -0.02202133 0.037920676 0.5176496 0.39128914 0.15552048
bh -0.021386888 0.060825285 -0.021846289 -0.073116876 -0.19291702 -0.13243665 -0.04225801 0.11593875 -0.121930264 -0.010403421 0.23163286 -0.1959296 -0.20135485 0.21893041 -0.0006124379 0.06620062 -0.28178236 -0.4600357 -0.06649745 0.108361065 -0.1996046 0.106294475 0.2856329 0.1719183 0.26046202 -0.020871034 0.024152922 0.5966945 0.3737649 0.199489
v -0.031628776 -0.0037647195 -0.023915173 -0.08181022 -0.13805112 -0.13505317 -0.020201873 0.15924226 -0.13390234 0.009882924 0.18663509 -0.19003394 -0.15240496 0.09361942 -0.10894797 0.057953686 -0.1992935 -0.35950243 -0.13958324 0.10929897 -0.12724568 0.180388 0.31879506 0.19595042 0.1928648 -0.032090478 -0.02476128 0.60557085 0.43444023 0.1509182
z 0.02704813 0.010121553 -0.02617751 -0.103507526 -0.20570272 -0.056233823 -0.03367326 0.11040432 -0.14168277 -0.0027185588 0.14744923 -0.21876474 -0.16853434 0.19308609 -0.094999254 0.10155956 -0.23372416 -0.37646782 -0.17376468 0.07752204 -0.15514815 0.2075934 0.31101856 0.10322564 0.28879645 -0.027217278 0.060819026 0.5199474 0.37947467 0.11898082
sh 0.102105245 0.020447008 -0.019563882 -0.091593996 -0.22920865 -0.0073010703 -0.059452105 0.0772041 -0.049682695 -0.10107003 0.18261091 -0.22122651 -0.12677585 0.19654876 -0.08151442 0.15944496 -0.29200488 -0.34835052 -0.15801889 0.08356959 -0.20005354 0.1637454 0.23905927 0.020773882 0.2721527 0.0062083877 0.056587033 0.48208597 0.3651977 0.08434743
dh -0.048516948 0.019730188 -0.02426908 -0.07606081 -0.17157772 -0.1555952 -0.036810175 0.14564437 -0.130815 -0.014530853 0.2549241 -0.16333222 -0.18518117 0.15289207 0.012214836 0.10502324 -0.29214716 -0.43581197 -0.07222436 0.08296285 -0.25601083 0.058424532 0.22048946 0.25331464 0.22448337 0.029250916 -0.047893208 0.6453826 0.46018958 0.2604525
p -0.00045054674 0.008684176 0.009326439 -0.064979 -0.19819157 -0.088439986 0.008167377 0.10278871 -0.102643736 -0.041522857 0.21830335 -0.19913796 -0.11700796 0.13297741 -0.10620019 0.15307264 -0.2901454 -0.39063826 -0.1250871 0.106250964 -0.15753055 0.11999582 0.25707245 0.1433846 0.1932592 -0.014379171 -0.021724602 0.4901548 0.40288383 0.10347412
zh 0.024954649 -0.029005498 -0.042666335 -0.096885316 -0.22192281 -0.05245702 -0.075454675 0.048447285 -0.11923811 -0.11643538 0.2226192 -0.1745096 -0.1295044 0.17278188 -0.08956845 0.16463652 -0.30553773 -0.38389516 -0.22350445 0.06587726 -0.26614913 0.14123715 0.22334027 0.078264385 0.25314546 0.019241925 0.005659644 0.5380739 0.45223886 0.13873191
dzv -0.00057065696 -0.04398386 -0.057386946 -0.07574663 -0.111922815 -0.088190384 -0.0002218422 0.16562964 -0.08913444 -0.058468148 0.13431256 -0.103780754 -0.088890426 0.12488774 -0.11156626 0.16866863 -0.1746248 -0.3478623 -0.16251619 0.032110717 -0.13590334 0.19665563 0.24184743 0.12947553 0.20619115 -0.008849614 0.0016830154 0.59799117 0.4632383 0.16582437
zv -0.008611579 -0.020796683 -0.06042826 -0.08915304 -0.14090532 -0.08828724 -0.022096252 0.07530217 -0.1128464 -0.07745574 0.21155222 -0.0986398 -0.120593116 0.17784335 -0.106514364 0.19126634 -0.241945 -0.37861603 -0.22350739 0.03642489 -0.22478569 0.16461794 0.20991832 0.13872394 0.23136364 0.026573125 0.0045462754 0.5691459 0.46844226 0.1817871
pf 0.0003827182 -0.019777922 -0.049611025 -0.047915883 -0.10906191 -0.10062045 0.016392725 0.10080311 -0.11318799 -0.05519876 0.18732238 -0.094247535 -0.101895295 0.15254436 -0.07801343 0.17498387 -0.20455465 -0.3276946 -0.19185124 0.021883965 -0.1701845 0.18833762 0.20958118 0.10926299 0.20476443 -0.029424502 -0.024587415 0.5205675 0.4230775 0.168622
sv 0.0094122235 -0.031174317 -0.044171315 -0.09063938 -0.1637075 -0.060523123 -0.031452954 0.09683499 -0.11101623 -0.10510376 0.19760144 -0.10996182 -0.13733774 0.15586582 -0.112872496 0.18540998 -0.26052862 -0.34974995 -0.20804173 0.0659809 -0.23357219 0.14173722 0.20183325 0.1316752 0.23055317 0.027957134 -0.021053191 0.5478841 0.49450907 0.16055924
vh -0.024441546 -0.029442877 -0.065102234 -0.06848793 -0.11741575 -0.13264297 0.013486886 0.114874646 -0.12587473 -0.094929606 0.22450498 -0.10699235 -0.109922245 0.13709487 -0.08860804 0.17457788 -0.24694686 -0.3903834 -0.19076984 0.04381524 -0.2265004 0.16815387 0.218005 0.15240648 0.22284935 -0.0005585027 -0.006972809 0.60294837 0.495788 0.18266223
tsv -0.007303134 -0.011839291 -0.027441766 -0.02866235 -0.06722058 -0.04241997 -0.008424401 0.032904755 -0.046114165 -0.060151257 0.08378689 -0.057495825 -0.05132172 0.0603654 -0.033506144 0.08529384 -0.10610948 -0.17205398 -0.0922925 0.01775198 -0.10894786 0.061868664 0.08638904 0.06582045 0.10837103 0.014240138 -0.0013611631 0.26527616 0.2292 0.07928541
