26 30
# 0.25902575 0.3899455 -0.3554674 0.42300573 0.1561413 0.10655796 0.0253968 0.2149226 -0.14392039 -0.06806623 -0.23831467 -0.010643491 -0.013601394 0.0024398689 0.7738054 -0.0806416 -0.15644723 0.12579666 0.46549502 -0.43704173 -0.26337132 0.055643845 0.117008805 0.5513279 -0.2843944 -0.31381586 0.15992248 0.38922033 0.02509139 -0.033325057
g -0.06291757 0.01354035 0.057112288 0.3641719 -0.047838513 -0.04071042 0.025703533 -0.13580571 -0.1959232 0.15089549 -0.07891793 0.17354485 -0.12199824 -7.415078e-05 0.41871104 0.38329732 0.16463718 0.20149773 0.1275266 -0.13583706 0.25203115 0.14102727 0.09199904 0.41380084 -0.1511844 -0.34228438 -0.030336222 -0.018561287 -0.08005542 -0.32079268
u0 0.0017257899 0.044102088 -0.110026605 0.41747072 0.15414819 -0.15033028 0.022166071 -0.0014904396 0.0076281065 0.083892725 -0.1293 -0.17336169 0.07680187 -0.13771375 0.2831029 -0.19346584 -0.21141605 0.054590285 0.7119216 -0.49017957 0.083557464 -0.031455584 0.38011512 0.3721847 0.15191622 -0.46407038 0.135406 0.2486485 0.14970525 -0.21527195
a0 0.014700344 -0.03880818 -0.07036023 0.46997663 0.16475284 -0.1411601 -0.039385553 0.07448264 -0.0650603 0.1164638 -0.16908477 -0.20935735 0.09572141 -0.11660709 0.28958535 -0.14807118 -0.16276106 0.029554471 0.6489163 -0.4271519 0.08148292 0.045284275 0.35619536 0.2257153 0.19735621 -0.46920216 0.18590234 0.23404017 0.025062716 -0.30374384
b -0.042521294 0.023028813 0.0765356 0.31105897 -0.07635431 -0.047834653 -0.07094552 -0.09927055 -0.16243497 0.16391106 -0.16690777 0.1834224 -0.07661364 0.028315634 0.40095362 0.470885 0.17409708 0.32786095 0.06835243 -0.012180924 0.034935787 0.12856005 0.05716786 0.3687463 -0.19238058 -0.2438612 0.22040209 0.06504228 -0.28324664 -0.31936705
nj 0.3194282 -0.08041024 -0.05970977 0.44605064 0.20031884 0.09816285 -0.168634 0.2469739 -0.3226062 0.33463258 -0.40842217 -0.086933956 -0.031475484 0.10039262 0.18874061 -0.03384907 0.34448314 0.21216777 -0.1722269 0.22905144 -0.31867743 0.12039315 0.2890924 -0.21823548 -0.3388708 -0.39113495 0.60605794 0.14930849 -0.43360597 -0.4351744
N -0.061112072 0.029501839 0.11428424 0.27953577 -0.14191823 -0.07400389 -0.049350657 -0.25466993 -0.04413893 0.22558548 -0.02216122 0.23532815 -0.09373699 0.039655335 0.3518865 0.41146895 0.12948789 0.3045934 0.17210177 -0.15587264 0.09327765 0.053427894 0.1730731 0.5496005 -0.110577144 -0.2629827 0.14242741 0.09028507 -0.091360934 -0.1950513
a1 0.11170682 -0.42945653 0.016462423 0.45005703 0.26958206 -0.030866545 0.5670984 -0.47113863 -0.31304082 0.35548088 0.16493778 0.111259945 -0.29259512 -0.29918632 -0.34581187 0.062383864 0.19526306 -0.1270026 0.23626539 -0.24220194 0.18475372 -0.18466757 0.68758434 0.0057467213 -0.27588096 -0.32304046 0.12021271 0.09087013 0.015880268 0.30494988
l 0.0662216 -0.05053246 0.05362436 0.33833647 -0.11243289 -0.054647613 0.03792173 -0.22353134 -0.08013438 0.26824057 -0.12283176 0.09336424 -0.07002525 0.08972488 0.3120263 0.09721319 0.12301632 0.22822495 0.065788135 -0.14448538 -0.05906615 0.07059507 0.26144075 0.38454023 -0.13778679 -0.266493 0.18374836 0.2115834 -0.0070643364 -0.26293007
i0 0.22663312 -0.12476487 -0.11580952 0.458462 0.3117673 -0.11078212 -0.11954181 0.27930355 -0.151354 0.17971098 -0.3355762 -0.271136 0.07448143 -0.09422098 0.056929413 -0.20368165 -0.022504471 0.14578211 0.3833769 -0.07623994 -0.31034958 -0.019324372 0.4185184 -0.1944536 0.054055072 -0.44094723 0.6469762 0.2590077 -0.3003901 -0.33833873
j 0.009311424 -0.06860714 0.07533141 0.40397978 -0.0016198847 -0.02249155 -0.070736304 -0.05807254 -0.18670383 0.2722938 -0.15467605 0.084984854 -0.02213536 0.0073471307 0.31274387 0.36296597 0.22726546 0.20374201 -0.0049710236 0.0016371806 0.007946949 0.16018084 0.15643696 0.16378382 -0.1430465 -0.29718643 0.32159242 0.067109935 -0.28947592 -0.32699436
m -0.017502947 -0.13455653 0.09971298 0.35864216 -0.010179808 -0.06118604 0.038584944 -0.21862862 -0.115530334 0.2881789 -0.05147558 0.10629223 -0.051340345 -0.035220563 0.20345 0.28406382 0.14113095 0.17738317 0.13066491 -0.09549715 0.096664 0.08513137 0.2577619 0.25074413 -0.08955216 -0.32042947 0.21685521 0.065408275 -0.108746395 -0.19769838
n 0.1154177 -0.12548846 0.09220178 0.34239224 -0.042545505 -0.09261603 -0.039668106 -0.22251332 -0.023475535 0.3294485 -0.14967379 0.13968731 0.08281142 0.05577574 0.21803434 0.27377433 0.11440787 0.26664865 0.035091996 -0.01381003 -0.22942573 0.0897641 0.24328335 0.25101814 -0.14970724 -0.17132194 0.5188472 0.24299587 -0.19796963 -0.16110009
u1 0.11062946 -0.42615402 0.049309816 0.43218678 0.23268135 -0.045727566 0.5545613 -0.47900546 -0.32709554 0.3902995 0.1320799 0.1419329 -0.353933 -0.26208684 -0.34947762 0.06531603 0.2878551 -0.05167795 0.11721475 -0.16257195 0.19029883 -0.19584808 0.6973953 0.0010899372 -0.33021706 -0.38644823 0.10023627 0.047570378 0.0032399716 0.20124853
y 0.015582422 0.03553561 0.029268105 0.35050175 -0.11224959 -0.055335276 -0.09250967 -0.0948077 -0.07136414 0.1964596 -0.14743869 0.051528294 -0.026158638 0.113737315 0.4286285 0.1509462 0.07405511 0.19449885 0.13807075 -0.18869852 0.063234724 0.10795723 0.1233564 0.38272405 -0.049978368 -0.29709178 0.09315332 0.13759664 -0.030721232 -0.36820912
a2 0.1593596 -0.014449101 -0.14009604 0.44618204 0.14509013 0.038169637 0.079820484 -0.05975271 -0.15229566 0.093197204 -0.101957664 -0.05724495 -0.07038135 -0.09145325 0.3283471 0.06156437 -0.030824628 0.018339349 0.3766922 -0.28997353 -0.0041517583 -0.029852942 0.21408118 0.1859853 -0.10303298 -0.2568424 0.14698084 0.121859856 0.0026324838 -0.037269067
r 0.07168156 -0.0009029055 0.07971126 0.29485518 -0.08030832 0.0027678215 -0.03299654 -0.13059483 -0.15369277 0.26504308 -0.09763451 0.12941714 -0.08138748 0.12032922 0.24836731 0.11289952 0.13572735 0.22686554 0.02346346 -0.1371539 0.014847499 0.083797954 0.27150816 0.39869207 -0.19055094 -0.29665422 0.15762348 0.17986365 -0.058135353 -0.2727635
R -0.00021670108 0.013957063 0.05939459 0.3339767 -0.079458155 -0.07923199 -0.0012312771 -0.23562658 -0.062154803 0.221181 -0.056023687 0.18045664 -0.08840386 0.04532421 0.34102938 0.232123 0.16135624 0.24553072 0.11834129 -0.17305034 0.10602502 0.043425508 0.1935173 0.44807163 -0.13901867 -0.32593134 0.11854723 0.10228196 -0.023412567 -0.2318172
d -0.06735874 0.003419054 -0.041070703 0.31184876 0.071140155 0.043688532 0.14304811 0.07512471 -0.32866254 0.10370384 -0.15730517 -0.022948423 -0.104771055 -0.1120934 0.46972117 0.23564593 0.13513435 0.11440175 0.08591192 -0.08610145 0.16979098 0.248767 0.10247755 0.26628813 -0.19030562 -0.45117435 0.003749 0.077325664 -0.18060072 -0.36628026
i1 0.18214178 -0.46066424 0.018984161 0.42878407 0.2522018 -0.014109153 0.44202375 -0.36977717 -0.30543214 0.4205554 0.03590573 0.06205635 -0.24496949 -0.24220917 -0.3016972 0.05437747 0.2645574 -0.062090483 0.123804316 -0.08131 0.06495473 -0.09574352 0.65530944 -0.15114245 -0.2721562 -0.31967047 0.25545636 0.06116796 -0.08338707 0.1575003
w 0.044669587 -0.07205654 0.06935907 0.39287445 -0.046138275 -0.039737675 -0.025852224 -0.17147133 -0.16804145 0.24894919 -0.12551522 0.12515639 -0.10084849 0.038202364 0.29568502 0.35768408 0.23463896 0.24046847 0.024193253 -0.0040619522 0.03450423 0.09728597 0.16059506 0.21332833 -0.15290277 -0.27078196 0.25033325 0.063547336 -0.21062966 -0.27306408
u2 0.055187024 0.0070753973 -0.05089428 0.3838994 0.038995136 -0.09043243 0.05664164 -0.15156768 -0.041023962 0.11903085 -0.075945966 0.0904976 -0.112930365 -0.052937407 0.3267188 0.12287447 0.01862863 0.17262706 0.34075028 -0.24801758 0.043547332 -0.0798114 0.19553395 0.39405486 -0.13570629 -0.27443388 0.069839984 0.093674 0.07303634 -0.121705815
i2 0.20530911 -0.07055226 -0.16875938 0.47796676 0.21942139 0.038971037 0.14687975 -0.049253207 -0.18224432 0.13159342 -0.09175437 -0.07867381 -0.08382232 -0.10547015 0.25594833 -0.0033813962 -0.0010109186 -0.030485563 0.3643648 -0.25559896 -0.03568445 -0.037008155 0.2972576 0.10083622 -0.12869556 -0.2946952 0.16003671 0.122146524 0.029584037 -0.017677955
uu1 0.07147179 -0.31573126 0.08124026 0.38767743 0.09096018 -0.030109802 0.24458398 -0.3867997 -0.18660572 0.3737817 0.012776277 0.058586415 -0.1855348 -0.117900975 -0.18257447 0.072542146 0.21709089 0.043535437 0.10740269 -0.13082181 0.054775268 -0.124996096 0.50065416 0.06365718 -0.16291216 -0.29059723 0.22200213 0.1058827 -0.081086956 0.039084096
aa1 0.12017261 -0.37600452 0.08273629 0.39896473 0.119602636 -0.001481288 0.2498425 -0.3209421 -0.26213315 0.3885562 -0.011026674 0.05203792 -0.17608923 -0.07260539 -0.19604479 0.10545323 0.25312287 0.026797941 -0.039339833 -0.04190339 0.030661805 -0.043393932 0.47614616 -0.06610446 -0.22504172 -0.25772783 0.2877792 0.111122124 -0.15148172 -0.014105791
ii1 0.09530141 -0.2689269 0.050892357 0.37823576 0.124372505 -0.009614561 0.2073832 -0.21012563 -0.22190486 0.34321678 -0.042075243 0.058150362 -0.15213524 -0.078742765 -0.031767596 0.06840337 0.21309172 0.061011676 0.050632 -0.07656226 0.030718405 -0.00067738723 0.4308716 0.06513531 -0.2118661 -0.32477316 0.23800416 0.12807122 -0.099902056 -0.072733715
